\data\
ngram 1=72
ngram 2=2550

\1-grams:
-3.2366092	<unk>	0
0	<s>	-3.5028334
-1.6907134	</s>	0
-1.7165314	HH	-3.1154783
-1.7535317	EH1	-3.2403257
-1.6005036	L	-3.0126674
-1.6663444	AH0	-3.2982574
-1.593768	N	-3.2918828
-1.7077538	W	-3.3320742
-1.7077538	AA1	-3.0476437
-1.6213608	T	-3.4220767
-1.6213608	S	-3.0594876
-1.7535317	AH1	-3.1845737
-1.6142966	M	-2.9777048
-1.7165314	TH	-2.2985625
-1.7254902	IH0	-3.1375735
-2.3281243	NG	-2.6726663
-1.7732852	ER0	-2.5675387
-1.7732852	AW1	-2.6019652
-1.6073453	D	-3.0938644
-1.9154745	ER1	-2.2595737
-1.6358438	P	-2.7746093
-2.0089674	AH2	-1.3871996
-1.6743164	Z	-3.051831
-1.7439818	<UNK>	-2.3602455
-1.658516	G	-2.7337015
-2.231061	UH1	-3.2410216
-1.7346376	AO1	-2.9037256
-1.6213608	R	-3.1030083
-1.6005036	K	-3.0803766
-2.0452116	IY0	-2.6799567
-1.7346376	Y	-3.3136249
-1.7439818	AE1	-3.1762037
-1.6824375	IH1	-3.5724878
-1.7346376	AY1	-2.9806101
-1.9154745	UW1	-3.031472
-1.6907134	F	-2.616455
-1.7732852	CH	-2.0932322
-2.1766312	AY2	-1.5619628
-1.6663444	B	-2.776802
-1.7835095	IY1	-2.958094
-2.1766312	OY1	-1.8206904
-1.7254902	V	-2.4670744
-1.7439818	OW1	-2.9806027
-1.7077538	DH	-3.2547984
-2.1282697	EY2	-1.5636634
-2.4533184	UH2	-1.469989
-1.8269981	EY1	-2.8308663
-1.7165314	JH	-2.1416948
-1.69915	SH	-2.3234208
-1.8753312	IH2	-1.8186221
-2.3281243	AA0	-0.9186396
-1.9919199	AE2	-1.3968749
-2.1282697	IY2	-1.2165726
-2.0267115	OW0	-1.4788331
-1.9297248	AO2	-1.7402825
-2.7094092	UH0	-0.7083074
-1.7939801	OW2	-2.4917483
-1.8883044	EH2	-1.6508931
-2.231061	UW2	-1.2451104
-2.5045986	UW0	-1.2870779
-2.1766312	EH0	-1.1674191
-2.7094092	AW2	-0.780714
-2.1059692	AA2	-1.6833026
-2.5045986	AW0	-0.7998248
-2.1766312	AE0	-1.0619739
-2.1059692	AY0	-1.2056421
-2.80678	OY2	-0.6192977
-1.9919199	AO0	-1.4766785
-2.5045986	ZH	-1.2266635
-2.261068	EY0	-1.2885903
-2.6299207	ER2	-0.440875

\2-grams:
-2.4692633	EH1 </s>
-1.1057738	L </s>
-1.704553	AH0 </s>
-0.9994712	N </s>
-1.9525058	AA1 </s>
-0.82314634	T </s>
-0.82381994	S </s>
-1.4782032	AH1 </s>
-0.85658574	M </s>
-1.3493971	TH </s>
-0.70909166	NG </s>
-0.58082455	ER0 </s>
-1.0225875	AW1 </s>
-1.0453254	D </s>
-1.3880048	ER1 </s>
-0.9530416	P </s>
-1.1951746	AH2 </s>
-0.83914495	Z </s>
-0.29911318	<UNK> </s>
-1.4354115	G </s>
-2.4802501	AO1 </s>
-0.8216243	R </s>
-1.0967497	K </s>
-0.44354898	IY0 </s>
-0.9634976	AE1 </s>
-1.4340677	AY1 </s>
-1.0133823	UW1 </s>
-1.1590488	F </s>
-0.97901696	CH </s>
-1.3453103	AY2 </s>
-2.2914567	B </s>
-1.1094946	IY1 </s>
-0.5752318	OY1 </s>
-1.3535202	V </s>
-0.7414763	OW1 </s>
-2.6792982	DH </s>
-0.87849975	EY2 </s>
-0.636354	EY1 </s>
-1.106988	JH </s>
-1.3254519	SH </s>
-0.6558703	AA0 </s>
-0.9093356	IY2 </s>
-0.4172601	OW0 </s>
-0.9430694	AO2 </s>
-1.7101667	OW2 </s>
-0.92881984	UW2 </s>
-1.3847197	UW0 </s>
-0.7927493	AW2 </s>
-1.556965	AA2 </s>
-0.5694767	OY2 </s>
-2.5045419	AO0 </s>
-0.49806222	ZH </s>
-1.145767	<s> HH
-4.0834985	EH1 HH
-1.852816	L HH
-1.6464593	AH0 HH
-1.717016	N HH
-2.5174265	AA1 HH
-1.5791897	T HH
-2.0810356	S HH
-3.1100807	AH1 HH
-1.2806621	M HH
-2.6175053	TH HH
-2.26145	IH0 HH
-1.6447718	NG HH
-1.3484454	ER0 HH
-2.012259	AW1 HH
-1.6839452	D HH
-1.6634245	ER1 HH
-1.9354838	P HH
-2.6051388	AH2 HH
-1.3705219	Z HH
-1.513725	<UNK> HH
-2.38513	G HH
-3.0837505	AO1 HH
-1.818977	R HH
-1.9856902	K HH
-1.5434949	IY0 HH
-2.7251472	AE1 HH
-1.5249127	AY1 HH
-1.3596696	UW1 HH
-2.3495684	F HH
-1.9298851	CH HH
-3.511285	B HH
-1.4198174	IY1 HH
-1.8804418	OY1 HH
-1.6839774	V HH
-1.6200384	OW1 HH
-2.739111	DH HH
-2.2653964	EY2 HH
-1.7309226	EY1 HH
-2.5079973	JH HH
-2.196717	SH HH
-1.710708	AA0 HH
-1.7117426	IY2 HH
-1.6193061	OW0 HH
-3.0244954	AO2 HH
-3.310228	OW2 HH
-1.4883846	UW0 HH
-1.1239816	OY2 HH
-2.4212933	ZH HH
-2.6454487	<s> EH1
-1.3811699	HH EH1
-4.644996	EH1 EH1
-1.2679262	L EH1
-2.3479362	AH0 EH1
-2.2126133	N EH1
-0.8410557	W EH1
-4.595322	AA1 EH1
-1.8065315	T EH1
-1.511406	S EH1
-4.632911	AH1 EH1
-1.6829218	M EH1
-3.3724196	TH EH1
-1.9251182	NG EH1
-1.8102492	ER0 EH1
-3.3705888	AW1 EH1
-2.245022	D EH1
-3.0583386	ER1 EH1
-1.550015	P EH1
-2.5304985	Z EH1
-2.8641322	<UNK> EH1
-0.79383194	G EH1
-3.610592	AO1 EH1
-1.4305974	R EH1
-2.013898	K EH1
-2.4417021	IY0 EH1
-1.2173164	Y EH1
-4.728431	AE1 EH1
-3.0545034	AY1 EH1
-2.42522	UW1 EH1
-1.6637455	F EH1
-0.87035996	CH EH1
-1.2674874	B EH1
-2.6701248	IY1 EH1
-3.2663243	OY1 EH1
-1.10766	V EH1
-2.822076	OW1 EH1
-0.7766522	DH EH1
-3.0618188	EY2 EH1
-2.842917	EY1 EH1
-1.0451065	JH EH1
-1.8071253	SH EH1
-2.2198827	IY2 EH1
-2.1998324	UW0 EH1
-1.6426042	AW2 EH1
-1.5694358	<s> L
-0.92707276	EH1 L
-2.163043	L L
-0.9153879	AH0 L
-2.2385948	N L
-1.7484777	AA1 L
-1.9312267	T L
-1.5779363	S L
-2.2486963	AH1 L
-2.4741826	M L
-2.8955457	TH L
-1.9741302	IH0 L
-2.1780205	NG L
-2.0470219	ER0 L
-2.0319111	AW1 L
-2.0179176	D L
-1.0762125	ER1 L
-1.0323722	P L
-1.7828605	Z L
-1.9571115	<UNK> L
-2.0443223	G L
-1.6996843	UH1 L
-0.73424894	AO1 L
-2.0750847	R L
-1.5217484	K L
-1.8651527	IY0 L
-2.0565388	AE1 L
-1.3539519	IH1 L
-1.3683349	AY1 L
-1.4324086	UW1 L
-1.3324877	F L
-2.4855714	CH L
-1.5988102	AY2 L
-1.3140811	B L
-1.2601383	IY1 L
-1.5245333	OY1 L
-2.0946329	V L
-1.2410038	OW1 L
-3.7129552	DH L
-1.9710126	EY2 L
-1.5195626	UH2 L
-1.6344084	EY1 L
-2.9698617	JH L
-2.7006867	SH L
-1.8385768	IH2 L
-1.6951624	AA0 L
-1.0699985	AE2 L
-0.9036782	IY2 L
-1.2402635	OW0 L
-0.16771193	AO2 L
-1.0186357	UH0 L
-2.7508042	OW2 L
-1.1471108	EH2 L
-1.7948967	UW2 L
-2.4204257	UW0 L
-2.1765993	EH0 L
-1.8644375	AW2 L
-2.082103	AA2 L
-1.2135386	AE0 L
-1.6589991	AY0 L
-1.7358291	OY2 L
-0.1251862	AO0 L
-2.2587965	EY0 L
-1.4492482	ER2 L
-1.2838893	<s> AH0
-0.9657479	HH AH0
-4.603773	EH1 AH0
-1.6078447	L AH0
-2.2508433	AH0 AH0
-1.1130534	N AH0
-2.8175092	W AH0
-3.1761315	AA1 AH0
-1.1867388	T AH0
-1.462712	S AH0
-3.552478	AH1 AH0
-1.3940446	M AH0
-2.275291	TH AH0
-1.4115139	NG AH0
-1.4335608	ER0 AH0
-1.651097	AW1 AH0
-1.3207911	D AH0
-1.7328345	ER1 AH0
-0.99537903	P AH0
-2.3543127	AH2 AH0
-0.9445986	Z AH0
-1.5498133	<UNK> AH0
-1.7210159	G AH0
-2.5155592	AO1 AH0
-1.4680085	R AH0
-1.2716136	K AH0
-1.4332328	IY0 AH0
-2.424701	Y AH0
-2.5137274	AE1 AH0
-1.9821315	AY1 AH0
-1.9805318	UW1 AH0
-1.418558	F AH0
-1.2164075	CH AH0
-2.1330922	AY2 AH0
-1.3168815	B AH0
-1.7678093	IY1 AH0
-1.9504185	OY1 AH0
-1.038511	V AH0
-1.7935474	OW1 AH0
-0.49264106	DH AH0
-1.9749463	EY2 AH0
-2.1003196	EY1 AH0
-1.3087319	JH AH0
-1.2380705	SH AH0
-1.2907555	AA0 AH0
-1.3615164	IY2 AH0
-1.3279973	OW0 AH0
-3.303552	OW2 AH0
-0.81363523	UW2 AH0
-1.1531521	UW0 AH0
-2.0153341	AW2 AH0
-3.0374897	AA2 AH0
-1.7893124	AY0 AH0
-1.8835138	OY2 AH0
-0.35703465	ZH AH0
-1.2774951	<s> N
-0.8196294	EH1 N
-2.433031	L N
-0.64289194	AH0 N
-2.5196886	N N
-0.42088184	AA1 N
-1.8378534	T N
-1.9117247	S N
-0.7935525	AH1 N
-2.1152864	M N
-2.8652172	TH N
-0.47973585	IH0 N
-2.1024263	NG N
-1.8824259	ER0 N
-0.62499857	AW1 N
-2.1122663	D N
-0.75860137	ER1 N
-2.539695	P N
-0.25667542	AH2 N
-1.478356	Z N
-1.8218822	<UNK> N
-2.8337529	G N
-3.8982055	UH1 N
-1.6463536	AO1 N
-1.7827423	R N
-2.5847867	K N
-1.7538548	IY0 N
-0.7860176	AE1 N
-1.460992	IH1 N
-1.1835383	AY1 N
-1.3603392	UW1 N
-2.8049872	F N
-2.4214454	CH N
-1.578716	AY2 N
-3.8849952	B N
-1.3403087	IY1 N
-1.2937691	OY1 N
-2.123446	V N
-0.8363571	OW1 N
-3.5878043	DH N
-0.78578645	EY2 N
-1.9495494	UH2 N
-1.3733778	EY1 N
-2.9687166	JH N
-2.8819811	SH N
-0.47749376	IH2 N
-1.3431294	AA0 N
-0.52906096	AE2 N
-0.78317916	IY2 N
-2.0817103	OW0 N
-3.0733798	AO2 N
-1.4506383	OW2 N
-0.5479648	EH2 N
-1.503559	UW2 N
-1.8550105	UW0 N
-0.60976	EH0 N
-0.79047894	AW2 N
-0.8918221	AA2 N
-0.20204768	AW0 N
-0.48363823	AE0 N
-1.307374	AY0 N
-1.8532959	OY2 N
-1.4949418	AO0 N
-1.1788522	EY0 N
-1.2959648	ER2 N
-0.89837	<s> W
-4.0823135	EH1 W
-1.7094303	L W
-1.4752753	AH0 W
-1.9596845	N W
-2.44371	AA1 W
-1.4788475	T W
-1.4520029	S W
-3.320649	AH1 W
-1.9782523	M W
-2.4139726	TH W
-1.5939782	NG W
-1.1845603	ER0 W
-1.4880202	AW1 W
-1.5483929	D W
-2.1474051	ER1 W
-2.3277617	P W
-2.7240682	AH2 W
-1.5322757	Z W
-1.3374865	<UNK> W
-2.1718836	G W
-3.2945924	AO1 W
-1.7883692	R W
-1.7199183	K W
-1.3473643	IY0 W
-2.5102122	AE1 W
-1.197102	AY1 W
-1.1035525	UW1 W
-1.9177353	F W
-1.3335383	CH W
-2.2129142	AY2 W
-3.0358772	B W
-1.4237392	IY1 W
-2.0369492	OY1 W
-1.7213414	V W
-1.3196205	OW1 W
-3.2226684	DH W
-1.9208903	EY2 W
-1.3253578	EY1 W
-2.0299828	JH W
-2.365103	SH W
-2.1211655	AA0 W
-1.390184	IY2 W
-1.2161378	OW0 W
-2.516913	AO2 W
-3.1179423	OW2 W
-2.2580645	UW2 W
-2.104438	UW0 W
-2.9425013	AA2 W
-2.1740623	ZH W
-1.9977756	<s> AA1
-1.7493148	HH AA1
-4.7151585	EH1 AA1
-1.596072	L AA1
-3.0615444	AH0 AA1
-1.5694954	N AA1
-0.7928545	W AA1
-3.0820189	AA1 AA1
-1.5906976	T AA1
-2.0403748	S AA1
-3.9114208	AH1 AA1
-1.1665574	M AA1
-3.0534518	TH AA1
-4.4247956	IH0 AA1
-1.7006925	NG AA1
-1.7516874	ER0 AA1
-2.3436034	AW1 AA1
-1.7656482	D AA1
-2.7007945	ER1 AA1
-1.4128674	P AA1
-1.6489085	Z AA1
-2.0054653	<UNK> AA1
-0.749741	G AA1
-3.5152223	AO1 AA1
-1.8198181	R AA1
-1.4184023	K AA1
-2.1858866	IY0 AA1
-1.7503612	Y AA1
-3.634059	AE1 AA1
-2.5569162	AY1 AA1
-2.3098872	UW1 AA1
-1.8038971	F AA1
-1.5623385	CH AA1
-2.9345264	AY2 AA1
-1.471681	B AA1
-2.6662254	IY1 AA1
-2.4130208	OY1 AA1
-2.4598336	V AA1
-2.2279549	OW1 AA1
-4.080023	DH AA1
-3.0357997	EY2 AA1
-2.2487974	EY1 AA1
-1.5900048	JH AA1
-1.8877563	SH AA1
-2.2448096	AA0 AA1
-2.4575813	IY2 AA1
-2.1309938	OW0 AA1
-2.9425013	AA2 AA1
-1.8994496	OY2 AA1
-2.1740623	ZH AA1
-1.7763478	<s> T
-0.83791256	EH1 T
-1.769841	L T
-1.2331604	AH0 T
-0.8313677	N T
-0.88180685	AA1 T
-1.6640728	T T
-0.8064546	S T
-0.5048387	AH1 T
-1.7956747	M T
-2.1368153	TH T
-1.8672949	IH0 T
-1.1254425	NG T
-1.5340741	ER0 T
-0.58048046	AW1 T
-1.8004961	D T
-0.8775033	ER1 T
-1.5927039	P T
-0.8808485	AH2 T
-1.5603446	Z T
-1.7565489	<UNK> T
-2.5041173	G T
-0.6010242	UH1 T
-1.459647	AO1 T
-1.5646541	R T
-1.6201078	K T
-1.472084	IY0 T
-0.44265255	AE1 T
-0.459047	IH1 T
-0.75523126	AY1 T
-1.429338	UW1 T
-1.0358711	F T
-1.6893123	CH T
-1.1192839	AY2 T
-3.6539605	B T
-1.0481133	IY1 T
-2.0497797	OY1 T
-1.6512471	V T
-1.5943344	OW1 T
-3.345962	DH T
-0.71145666	EY2 T
-1.239852	EY1 T
-2.1442637	JH T
-1.4249601	SH T
-1.3176067	IH2 T
-1.0495542	AA0 T
-1.2115145	AE2 T
-1.4642779	IY2 T
-1.7138004	OW0 T
-2.340953	AO2 T
-2.5047092	OW2 T
-1.3954169	EH2 T
-1.7967125	UW2 T
-1.3678682	UW0 T
-1.4521569	AW2 T
-1.5845118	AA2 T
-1.555355	AW0 T
-1.785412	AY0 T
-2.390424	ZH T
-0.9126235	EY0 T
-1.3008721	ER2 T
-1.5280021	<s> S
-1.314028	EH1 S
-1.6482378	L S
-1.2896316	AH0 S
-1.7509761	N S
-2.2016833	AA1 S
-1.4538962	T S
-2.031165	S S
-1.3564397	AH1 S
-1.982184	M S
-2.37296	TH S
-1.9271799	IH0 S
-1.8432928	NG S
-1.3651305	ER0 S
-1.0828404	AW1 S
-1.7562289	D S
-0.92590356	ER1 S
-1.4927416	P S
-1.5064232	AH2 S
-1.4417702	Z S
-1.6791518	<UNK> S
-2.475242	G S
-2.535647	UH1 S
-2.0428667	AO1 S
-1.7098291	R S
-1.1733917	K S
-1.4661881	IY0 S
-1.673384	AE1 S
-0.85445994	IH1 S
-1.3441689	AY1 S
-1.1360795	UW1 S
-2.6241405	F S
-2.1464794	CH S
-1.0281981	AY2 S
-3.2973347	B S
-1.3012806	IY1 S
-1.5548193	OY1 S
-1.385497	V S
-1.6025023	OW1 S
-2.9912844	DH S
-1.0487823	EY2 S
-1.6461699	UH2 S
-1.4207441	EY1 S
-2.654383	JH S
-2.754664	SH S
-1.3511678	IH2 S
-0.85532904	AA0 S
-1.2873305	AE2 S
-1.1452819	IY2 S
-1.1638929	OW0 S
-1.4405584	AO2 S
-1.7139612	OW2 S
-0.82375765	EH2 S
-2.5671043	UW2 S
-1.9054214	UW0 S
-1.2227823	EH0 S
-0.46136296	AW2 S
-3.0149846	AA2 S
-1.555355	AW0 S
-2.5065985	ZH S
-1.4544885	ER2 S
-2.691933	<s> AH1
-1.1688645	HH AH1
-1.9010948	L AH1
-2.1285713	AH0 AH1
-1.7283386	N AH1
-0.47478023	W AH1
-3.8074367	AA1 AH1
-1.7578757	T AH1
-1.1226442	S AH1
-4.103979	AH1 AH1
-1.4670553	M AH1
-2.107556	TH AH1
-1.8707246	NG AH1
-2.2589693	ER0 AH1
-3.2799647	AW1 AH1
-1.2603693	D AH1
-2.4829962	ER1 AH1
-1.6259116	P AH1
-2.1459773	Z AH1
-2.5716054	<UNK> AH1
-2.3882844	G AH1
-1.5326849	R AH1
-1.2622112	K AH1
-2.225178	IY0 AH1
-2.1598647	Y AH1
-4.32342	AE1 AH1
-3.2398708	AY1 AH1
-2.6421943	UW1 AH1
-1.7008027	F AH1
-1.7922608	CH AH1
-1.0481423	B AH1
-2.8178394	IY1 AH1
-3.3541033	OY1 AH1
-2.3945508	V AH1
-2.6131299	OW1 AH1
-3.2313366	DH AH1
-2.6131427	EY1 AH1
-0.50946426	JH AH1
-2.0530753	SH AH1
-2.7508597	IY2 AH1
-2.9358416	OW0 AH1
-3.880516	OW2 AH1
-2.0991163	UW2 AH1
-2.7753518	UW0 AH1
-2.5618892	ZH AH1
-1.6543119	<s> M
-1.2851073	EH1 M
-1.8071262	L M
-0.9840564	AH0 M
-2.066661	N M
-1.1626961	AA1 M
-1.7604578	T M
-1.7119315	S M
-0.8316682	AH1 M
-1.8018649	M M
-3.1953268	TH M
-1.8326176	IH0 M
-1.9272395	NG M
-1.9003526	ER0 M
-1.649046	AW1 M
-1.9526689	D M
-1.7420225	ER1 M
-2.171655	P M
-2.570027	AH2 M
-1.6272045	Z M
-1.8480535	<UNK> M
-2.9226234	G M
-2.8423812	UH1 M
-3.1819592	AO1 M
-1.6648947	R M
-2.195154	K M
-1.5233177	IY0 M
-1.8936274	AE1 M
-1.7355952	IH1 M
-1.0901077	AY1 M
-1.3939453	UW1 M
-2.7136493	F M
-1.9143184	CH M
-0.9864026	AY2 M
-3.9795759	B M
-1.793292	IY1 M
-2.532107	OY1 M
-1.4225112	V M
-1.2467601	OW1 M
-2.624484	DH M
-2.3153417	EY2 M
-1.3808	UH2 M
-1.391561	EY1 M
-2.5028813	JH M
-2.2216368	SH M
-1.4896504	IH2 M
-1.5233926	AE2 M
-2.1916466	IY2 M
-2.0486932	OW0 M
-2.3402746	AO2 M
-2.8505955	OW2 M
-2.7927501	EH2 M
-0.274662	UW2 M
-0.8817554	UW0 M
-1.1086749	EH0 M
-2.690589	AA2 M
-1.1628869	AE0 M
-2.219448	AY0 M
-1.8621427	OY2 M
-2.3334808	AO0 M
-2.5033658	ZH M
-1.4488989	EY0 M
-2.2201827	<s> TH
-4.0104265	EH1 TH
-2.5970395	L TH
-2.5590568	AH0 TH
-2.9206855	N TH
-3.143362	AA1 TH
-2.3889537	T TH
-2.548704	S TH
-2.5259438	AH1 TH
-1.7773441	M TH
-3.5985184	TH TH
-2.8575823	IH0 TH
-2.4754987	NG TH
-2.3547397	ER0 TH
-1.6851972	AW1 TH
-2.8074963	D TH
-1.8021472	ER1 TH
-3.2874162	P TH
-2.3742843	Z TH
-2.55657	<UNK> TH
-3.122103	G TH
-3.0136802	AO1 TH
-2.7278187	R TH
-3.1374922	K TH
-1.6551534	IY0 TH
-2.3464313	AE1 TH
-4.9747148	IH1 TH
-1.5043595	AY1 TH
-1.7619315	UW1 TH
-3.391543	F TH
-3.0480993	CH TH
-4.3510227	B TH
-2.3634977	IY1 TH
-3.0632143	OY1 TH
-2.2904258	V TH
-2.1769571	OW1 TH
-4.398166	DH TH
-2.6084042	EY1 TH
-3.3439233	JH TH
-3.2798407	SH TH
-3.1737106	IH2 TH
-2.3194196	IY2 TH
-2.131759	OW0 TH
-2.0556135	AO2 TH
-3.3989656	OW2 TH
-2.6122699	UW2 TH
-2.0980632	AE0 TH
-2.5473926	ZH TH
-1.4761058	ER2 TH
-2.3867362	<s> IH0
-3.0647771	HH IH0
-1.9127432	L IH0
-3.104827	AH0 IH0
-1.8251895	N IH0
-2.7327068	W IH0
-4.3174286	AA1 IH0
-1.6427207	T IH0
-1.927048	S IH0
-4.028311	AH1 IH0
-1.7722201	M IH0
-0.93952054	TH IH0
-1.5491002	NG IH0
-1.7201219	ER0 IH0
-3.0347111	AW1 IH0
-1.7687273	D IH0
-2.160121	ER1 IH0
-1.7064357	P IH0
-1.5332395	Z IH0
-2.11458	<UNK> IH0
-2.3003936	G IH0
-2.6910284	AO1 IH0
-1.6918045	R IH0
-1.4964185	K IH0
-1.932356	IY0 IH0
-3.715774	AE1 IH0
-1.9339377	AY1 IH0
-1.5691545	UW1 IH0
-2.2337537	F IH0
-1.5543172	CH IH0
-2.3079312	AY2 IH0
-1.2324048	B IH0
-2.2823434	IY1 IH0
-2.0875187	OY1 IH0
-1.2434671	V IH0
-1.2698902	OW1 IH0
-3.5263534	DH IH0
-2.9520717	EY2 IH0
-1.7230177	EY1 IH0
-1.5901004	JH IH0
-1.655396	SH IH0
-1.7431197	IY2 IH0
-1.7336315	OW0 IH0
-3.1406782	AO2 IH0
-3.8681865	OW2 IH0
-2.663516	UW0 IH0
-2.0362947	AW2 IH0
-1.773013	OY2 IH0
-3.4419854	EH1 NG
-4.131581	AH0 NG
-2.614927	AA1 NG
-2.0072863	AH1 NG
-0.3393295	IH0 NG
-1.6267489	AO1 NG
-1.5970659	AE1 NG
-1.1264367	IH1 NG
-0.4227052	IH2 NG
-0.6496353	AE2 NG
-3.3310797	AO2 NG
-0.9191578	AE0 NG
-3.8915236	<s> ER0
-2.9510694	HH ER0
-1.9262319	L ER0
-4.816525	AH0 ER0
-2.4282358	N ER0
-3.008929	W ER0
-1.5788074	T ER0
-2.3155153	S ER0
-2.3091288	M ER0
-2.7098107	TH ER0
-2.3074908	NG ER0
-3.806465	ER0 ER0
-1.2934003	AW1 ER0
-1.8370222	D ER0
-3.2454937	ER1 ER0
-1.5428904	P ER0
-2.5382578	Z ER0
-3.9212377	<UNK> ER0
-1.513468	G ER0
-2.624535	R ER0
-2.1917825	K ER0
-2.6263843	IY0 ER0
-2.3325975	Y ER0
-1.7582961	AY1 ER0
-3.3606994	UW1 ER0
-1.6108936	F ER0
-1.1164131	CH ER0
-1.9222828	AY2 ER0
-1.6179985	B ER0
-3.7748299	IY1 ER0
-3.3658948	OY1 ER0
-0.81154555	V ER0
-3.0588253	OW1 ER0
-1.403637	DH ER0
-2.8359368	EY1 ER0
-1.6143862	JH ER0
-2.130374	SH ER0
-2.6729581	IY2 ER0
-2.7551873	OW0 ER0
-2.6367455	UW2 ER0
-1.4667872	AW2 ER0
-0.7642796	AW0 ER0
-1.1922803	ZH ER0
-3.0395494	<s> AW1
-1.1618054	HH AW1
-1.9655612	L AW1
-3.3725545	AH0 AW1
-1.5477412	N AW1
-2.529175	W AW1
-4.607513	AA1 AW1
-2.2476408	T AW1
-2.4007692	S AW1
-1.8220614	M AW1
-2.1903088	TH AW1
-1.9278215	NG AW1
-1.5074925	ER0 AW1
-4.165628	AW1 AW1
-1.4865812	D AW1
-2.776054	ER1 AW1
-2.55905	P AW1
-2.3364775	Z AW1
-2.7886794	<UNK> AW1
-3.3175094	G AW1
-4.4399314	AO1 AW1
-2.3163924	R AW1
-1.9904983	K AW1
-2.5644755	IY0 AW1
-4.253249	Y AW1
-4.328227	AE1 AW1
-3.7793767	AY1 AW1
-3.0882728	UW1 AW1
-2.0633957	F AW1
-2.0033302	CH AW1
-1.4714373	B AW1
-3.0198324	IY1 AW1
-3.275934	OY1 AW1
-2.579843	V AW1
-2.46825	OW1 AW1
-3.654993	DH AW1
-3.0726795	EY2 AW1
-3.2553442	EY1 AW1
-3.738464	JH AW1
-2.5101547	SH AW1
-2.7626753	IY2 AW1
-2.945709	OW0 AW1
-2.7859647	UW0 AW1
-1.4721787	<s> D
-1.1776568	EH1 D
-1.2873987	L D
-1.461023	AH0 D
-0.8266829	N D
-2.2520137	AA1 D
-1.6286564	T D
-2.1740277	S D
-2.5531924	AH1 D
-2.1275547	M D
-1.928012	TH D
-1.6856169	IH0 D
-1.8443345	NG D
-1.3847227	ER0 D
-1.5859205	AW1 D
-1.9310111	D D
-1.0247287	ER1 D
-2.6630583	P D
-2.6784592	AH2 D
-1.6606896	Z D
-1.6458532	<UNK> D
-2.6041772	G D
-0.6269304	UH1 D
-3.5062647	AO1 D
-1.5563707	R D
-2.52239	K D
-1.493352	IY0 D
-1.3766544	AE1 D
-1.3633692	IH1 D
-0.94412684	AY1 D
-1.1602844	UW1 D
-2.9225142	F D
-2.0418115	CH D
-1.8743012	AY2 D
-3.1166337	B D
-1.2540945	IY1 D
-1.8168021	OY1 D
-1.9672263	V D
-1.8615767	OW1 D
-3.278603	DH D
-2.2535613	EY2 D
-0.5452016	UH2 D
-1.413251	EY1 D
-2.187921	JH D
-2.654139	SH D
-2.2002552	AA0 D
-2.1966653	AE2 D
-1.498641	IY2 D
-1.8183359	OW0 D
-3.080777	AO2 D
-2.283046	OW2 D
-1.7696846	EH2 D
-2.0777469	UW2 D
-1.7741379	UW0 D
-1.9200839	EH0 D
-0.3290923	AA2 D
-1.21378	AE0 D
-0.089240395	AY0 D
-1.8591737	OY2 D
-2.485012	AO0 D
-1.2590272	ZH D
-0.7362438	EY0 D
-0.46181202	ER2 D
-4.2585754	<s> ER1
-1.3206228	HH ER1
-3.061658	L ER1
-4.2130685	AH0 ER1
-3.160835	N ER1
-1.605161	W ER1
-2.0891528	T ER1
-2.3323317	S ER1
-3.578	M ER1
-1.7869855	TH ER1
-2.5492296	D ER1
-3.9206588	ER1 ER1
-2.3087769	P ER1
-3.0541277	Z ER1
-1.7428622	G ER1
-4.7505164	R ER1
-3.0903206	K ER1
-3.607549	IY0 ER1
-4.442939	Y ER1
-4.572127	AY1 ER1
-3.8571978	UW1 ER1
-1.5500433	F ER1
-2.4494734	CH ER1
-1.8083345	B ER1
-4.560088	IY1 ER1
-3.1881616	V ER1
-4.5649896	OW1 ER1
-4.510709	EY1 ER1
-2.2708852	JH ER1
-1.8992554	SH ER1
-4.0604157	OW2 ER1
-1.7551545	<s> P
-1.8312092	EH1 P
-1.6539901	L P
-1.3539194	AH0 P
-2.2058592	N P
-1.5061514	AA1 P
-2.0876486	T P
-1.6317214	S P
-1.135989	AH1 P
-1.6439365	M P
-2.4119778	TH P
-2.9335446	IH0 P
-2.1508682	NG P
-1.6399473	ER0 P
-2.357173	AW1 P
-2.0393414	D P
-1.8301374	ER1 P
-2.7522504	P P
-1.0952482	AH2 P
-1.7020506	Z P
-1.8874948	<UNK> P
-2.4824736	G P
-3.9681475	AO1 P
-1.9158287	R P
-2.6042109	K P
-1.8233374	IY0 P
-1.5620741	AE1 P
-2.175894	IH1 P
-1.6786091	AY1 P
-1.3358707	UW1 P
-3.126076	F P
-2.3423922	CH P
-2.8998067	AY2 P
-4.235569	B P
-1.3006934	IY1 P
-2.3389513	OY1 P
-1.8876532	V P
-1.4737093	OW1 P
-3.336145	DH P
-1.4598061	EY2 P
-1.3894943	EY1 P
-2.5923638	JH P
-3.0008264	SH P
-1.7266054	IH2 P
-2.097393	AA0 P
-1.400555	AE2 P
-1.6513426	IY2 P
-2.050595	OW0 P
-2.4172392	AO2 P
-1.318242	UH0 P
-2.366361	OW2 P
-2.5610082	EH2 P
-1.9656638	UW2 P
-2.4321587	UW0 P
-1.1091214	EH0 P
-1.0587475	AA2 P
-1.8711733	OY2 P
-2.5131369	ZH P
-1.4580175	ER2 P
-4.6797066	<s> AH2
-4.7878265	L AH2
-5.033227	AH0 AH2
-3.6784344	N AH2
-2.72449	W AH2
-3.5352318	T AH2
-3.4968863	M AH2
-3.7186756	NG AH2
-4.2215767	ER0 AH2
-4.2240553	D AH2
-3.970206	ER1 AH2
-2.8855631	P AH2
-3.6496243	Z AH2
-4.490443	G AH2
-4.1293325	R AH2
-3.3896797	K AH2
-3.754251	IY0 AH2
-4.0423117	AY1 AH2
-3.7799077	UW1 AH2
-3.206289	B AH2
-3.329484	IY1 AH2
-4.2161145	V AH2
-4.709221	OW1 AH2
-3.880489	JH AH2
-2.886584	IY2 AH2
-3.4806194	<s> Z
-2.0559103	EH1 Z
-1.6197549	L Z
-2.0699394	AH0 Z
-1.8263167	N Z
-1.3067287	AA1 Z
-1.0084274	T Z
-3.0173013	S Z
-1.4011768	AH1 Z
-1.8281066	M Z
-3.5818532	TH Z
-2.0053434	IH0 Z
-1.4275572	NG Z
-1.1247649	ER0 Z
-2.0944116	AW1 Z
-1.7681205	D Z
-2.4076543	ER1 Z
-3.3444433	P Z
-2.0703266	AH2 Z
-3.8415523	Z Z
-1.7373241	G Z
-1.3236579	AO1 Z
-1.1994826	R Z
-2.950134	K Z
-1.0999178	IY0 Z
-1.8212371	AE1 Z
-0.85574627	IH1 Z
-2.038115	AY1 Z
-1.6237572	UW1 Z
-3.3490756	F Z
-3.404522	CH Z
-0.9011727	AY2 Z
-3.0130472	B Z
-1.0078626	IY1 Z
-0.3596409	OY1 Z
-1.7987186	V Z
-1.2124997	OW1 Z
-2.8725536	DH Z
-1.0053505	EY2 Z
-2.1857216	EY1 Z
-3.6053689	JH Z
-3.4170063	SH Z
-2.2893205	IH2 Z
-0.9936873	AA0 Z
-1.2999494	IY2 Z
-1.1430175	OW0 Z
-2.5454705	OW2 Z
-2.8120613	EH2 Z
-1.7360265	UW2 Z
-1.6218648	UW0 Z
-1.457788	AW2 Z
-2.333427	AA2 Z
-2.3757932	AY0 Z
-1.7586935	OY2 Z
-1.5971668	<s> <UNK>
-2.7213728	L <UNK>
-2.1242754	AH0 <UNK>
-2.8070202	N <UNK>
-3.4070702	AA1 <UNK>
-2.5844493	T <UNK>
-2.7176185	S <UNK>
-3.391654	AH1 <UNK>
-2.5624733	M <UNK>
-3.6088333	TH <UNK>
-2.4486115	NG <UNK>
-2.331767	ER0 <UNK>
-2.697116	AW1 <UNK>
-2.5145235	D <UNK>
-2.70268	ER1 <UNK>
-3.060426	P <UNK>
-2.739123	AH2 <UNK>
-2.2517664	Z <UNK>
-1.3442247	<UNK> <UNK>
-3.1391695	G <UNK>
-4.140436	AO1 <UNK>
-2.4483738	R <UNK>
-2.7928708	K <UNK>
-2.3558006	IY0 <UNK>
-2.7046638	AE1 <UNK>
-2.4132104	AY1 <UNK>
-2.3340113	UW1 <UNK>
-3.1120079	F <UNK>
-2.6132057	CH <UNK>
-4.304423	B <UNK>
-2.488059	IY1 <UNK>
-2.9283683	OY1 <UNK>
-2.4232109	V <UNK>
-2.2424963	OW1 <UNK>
-3.7218494	DH <UNK>
-2.4047585	EY2 <UNK>
-2.182787	EY1 <UNK>
-2.90257	JH <UNK>
-3.3529427	SH <UNK>
-2.325943	IY2 <UNK>
-2.3400693	OW0 <UNK>
-2.09387	AO2 <UNK>
-3.974811	OW2 <UNK>
-2.671697	UW0 <UNK>
-3.0735977	AA2 <UNK>
-2.5582194	ZH <UNK>
-1.7688559	<s> G
-1.9946933	EH1 G
-1.7758327	L G
-1.4450847	AH0 G
-2.2908456	N G
-2.0112689	AA1 G
-1.8863261	T G
-2.1412957	S G
-2.227495	AH1 G
-1.7483733	M G
-3.093664	TH G
-2.5232422	IH0 G
-1.4578894	NG G
-1.7515312	ER0 G
-2.644839	AW1 G
-2.1319742	D G
-1.9602933	ER1 G
-2.7210925	P G
-1.6032676	AH2 G
-1.4312493	Z G
-1.641059	<UNK> G
-2.605063	G G
-2.1200306	UH1 G
-1.488824	AO1 G
-1.8263366	R G
-2.8709588	K G
-1.53696	IY0 G
-1.8508664	AE1 G
-1.6898354	IH1 G
-1.6048415	AY1 G
-1.2499871	UW1 G
-3.5771737	F G
-2.8058875	CH G
-2.9110744	AY2 G
-4.111566	B G
-1.596545	IY1 G
-2.1216407	OY1 G
-1.7902442	V G
-2.0206208	OW1 G
-3.9748254	DH G
-3.006504	EY2 G
-1.8525348	EY1 G
-3.0296834	JH G
-3.0377414	SH G
-1.7989895	IH2 G
-2.2236767	AA0 G
-1.8500992	AE2 G
-1.7385635	IY2 G
-1.9342272	OW0 G
-1.6073362	AO2 G
-3.9258773	OW2 G
-2.9303505	EH2 G
-2.247662	UW2 G
-2.721207	UW0 G
-1.7490522	EH0 G
-1.9981524	ZH G
-2.9064012	HH UH1
-1.2170284	L UH1
-1.7468487	W UH1
-2.9221766	T UH1
-4.863669	M UH1
-3.9983761	D UH1
-0.8184189	P UH1
-4.2740893	Z UH1
-1.1272902	G UH1
-4.041301	R UH1
-1.5355997	K UH1
-1.3534966	Y UH1
-1.9202636	F UH1
-1.4373342	B UH1
-0.9938283	SH UH1
-2.2792318	<s> AO1
-1.9052421	HH AO1
-1.7663844	L AO1
-3.1527834	AH0 AO1
-2.59195	N AO1
-1.6474633	W AO1
-4.181026	AA1 AO1
-1.8543837	T AO1
-2.0069396	S AO1
-4.4366817	AH1 AO1
-1.2698708	M AO1
-1.5942242	TH AO1
-2.0934396	NG AO1
-2.3131778	ER0 AO1
-3.2783449	AW1 AO1
-1.68098	D AO1
-2.7022078	ER1 AO1
-2.0049708	P AO1
-1.8731934	Z AO1
-2.3793898	<UNK> AO1
-1.8539517	G AO1
-4.3290367	AO1 AO1
-1.8687272	R AO1
-1.4546301	K AO1
-2.5692246	IY0 AO1
-1.0525129	Y AO1
-3.8157697	AE1 AO1
-3.0296757	AY1 AO1
-2.5822906	UW1 AO1
-0.6942343	F AO1
-1.566608	CH AO1
-1.7850114	B AO1
-2.6084566	IY1 AO1
-2.4974923	OY1 AO1
-2.336927	V AO1
-2.9052682	OW1 AO1
-3.3386166	DH AO1
-3.0512235	EY2 AO1
-2.5158877	EY1 AO1
-1.3893634	JH AO1
-2.252102	SH AO1
-2.216464	IY2 AO1
-2.2776415	OW0 AO1
-3.9696622	OW2 AO1
-2.7649918	UW0 AO1
-3.0694342	AA2 AO1
-1.9092996	OY2 AO1
-1.7908643	<s> R
-0.48341146	EH1 R
-1.7524866	L R
-1.7351187	AH0 R
-2.4752507	N R
-0.74661964	AA1 R
-1.5736355	T R
-2.4678133	S R
-4.0131297	AH1 R
-2.4598951	M R
-0.85556686	TH R
-3.3363757	IH0 R
-1.8411168	NG R
-2.0150368	ER0 R
-3.3088164	AW1 R
-1.4293073	D R
-2.2895658	ER1 R
-1.3370166	P R
-2.5726295	AH2 R
-1.5687563	Z R
-1.9895201	<UNK> R
-1.3684497	G R
-0.91936994	UH1 R
-0.26935104	AO1 R
-2.1643715	R R
-1.476708	K R
-2.0021293	IY0 R
-2.0909648	AE1 R
-2.0333858	IH1 R
-2.1580508	AY1 R
-1.7985688	UW1 R
-1.2275541	F R
-2.6280336	CH R
-2.8924541	AY2 R
-1.2098945	B R
-0.777137	IY1 R
-2.3704653	OY1 R
-1.583338	V R
-2.3096092	OW1 R
-3.9288468	DH R
-2.901041	EY2 R
-1.9516095	UH2 R
-2.494401	EY1 R
-2.928612	JH R
-1.8459599	SH R
-2.0235014	IH2 R
-0.8963589	AA0 R
-2.1932576	IY2 R
-2.0493262	OW0 R
-1.1366494	AO2 R
-0.17100723	UH0 R
-3.8184667	OW2 R
-0.4276322	EH2 R
-2.5671043	UW2 R
-2.2851088	UW0 R
-0.74561715	EH0 R
-0.86565375	AA2 R
-1.9615443	AY0 R
-1.5014133	OY2 R
-0.7674364	AO0 R
-2.1577744	ZH R
-1.5698215	<s> K
-1.8484287	EH1 K
-1.6347965	L K
-1.3274071	AH0 K
-2.2570205	N K
-1.2881278	AA1 K
-1.9045478	T K
-1.4116306	S K
-1.714495	AH1 K
-2.1258812	M K
-3.0852456	TH K
-1.1117826	IH0 K
-0.64163333	NG K
-1.8165519	ER0 K
-1.9500415	AW1 K
-2.220185	D K
-0.9211178	ER1 K
-2.1344543	P K
-1.8293478	AH2 K
-1.704554	Z K
-1.7352298	<UNK> K
-2.6331935	G K
-0.47187907	UH1 K
-1.4350424	AO1 K
-1.7436774	R K
-2.4495661	K K
-1.495573	IY0 K
-1.3023747	AE1 K
-1.5049928	IH1 K
-0.9313138	AY1 K
-1.3231045	UW1 K
-2.883676	F K
-2.2833426	CH K
-0.9482371	AY2 K
-3.6983826	B K
-1.4446781	IY1 K
-2.0653877	OY1 K
-1.8997437	V K
-1.6515688	OW1 K
-3.4771256	DH K
-0.79165304	EY2 K
-0.24400786	UH2 K
-0.81857556	EY1 K
-2.4568152	JH K
-2.526249	SH K
-1.3724415	IH2 K
-1.4084452	AA0 K
-1.2399167	AE2 K
-1.6490315	IY2 K
-1.5364599	OW0 K
-1.7052706	AO2 K
-0.04807642	OW2 K
-1.5239886	EH2 K
-1.8701411	UW2 K
-2.0179427	UW0 K
-0.56938964	EH0 K
-1.6147969	AA2 K
-0.7191255	AE0 K
-2.3512976	AY0 K
-1.8562249	OY2 K
-2.053941	AO0 K
-2.4969718	ZH K
-1.013962	EY0 K
-1.020291	ER2 K
-1.4979075	L IY0
-1.5116633	N IY0
-1.8929855	T IY0
-2.0728073	S IY0
-1.2347159	M IY0
-2.4865649	TH IY0
-1.9492096	ER0 IY0
-3.6845934	AW1 IY0
-1.3532487	D IY0
-1.910289	ER1 IY0
-1.8993402	P IY0
-2.302124	Z IY0
-1.8085117	G IY0
-1.4595134	R IY0
-1.6527133	K IY0
-4.0355597	UW1 IY0
-1.6940571	F IY0
-2.3795128	CH IY0
-1.1407932	B IY0
-1.841484	V IY0
-3.7037761	OW1 IY0
-1.4621259	JH IY0
-2.6689787	SH IY0
-0.9519002	<s> Y
-3.3803062	HH Y
-4.6364326	EH1 Y
-1.9371216	L Y
-2.563004	AH0 Y
-1.6146053	N Y
-2.9737198	AA1 Y
-1.6842802	T Y
-2.1259198	S Y
-3.8662455	AH1 Y
-2.2648714	M Y
-2.8214674	TH Y
-1.8141063	NG Y
-1.5578109	ER0 Y
-1.6474204	AW1 Y
-1.425665	D Y
-2.0396585	ER1 Y
-2.030133	P Y
-1.7813233	Z Y
-1.6814725	<UNK> Y
-2.487196	G Y
-3.4083848	AO1 Y
-1.4662774	R Y
-1.5838746	K Y
-1.9155836	IY0 Y
-2.49051	AE1 Y
-2.4287558	AY1 Y
-1.1667073	UW1 Y
-1.5243834	F Y
-1.8637714	CH Y
-2.6885695	B Y
-2.0254717	IY1 Y
-2.165025	OY1 Y
-1.4263264	V Y
-1.4869112	OW1 Y
-2.4468195	DH Y
-2.1634321	EY2 Y
-1.9338702	EY1 Y
-2.3956425	JH Y
-1.9971739	SH Y
-2.653898	IY2 Y
-2.094173	OW0 Y
-3.031099	AO2 Y
-3.6663537	OW2 Y
-2.5006433	UW2 Y
-1.9154378	UW0 Y
-2.0393734	AW2 Y
-2.3555155	<s> AE1
-0.7178668	HH AE1
-1.6733454	L AE1
-2.738584	AH0 AE1
-2.142569	N AE1
-2.778425	W AE1
-3.9922643	AA1 AE1
-2.184652	T AE1
-2.058501	S AE1
-4.6281557	AH1 AE1
-1.6817274	M AE1
-0.970186	TH AE1
-2.0563092	NG AE1
-2.2685778	ER0 AE1
-3.5548482	AW1 AE1
-1.5521299	D AE1
-2.6811898	ER1 AE1
-1.5921154	P AE1
-2.0773323	Z AE1
-2.530742	<UNK> AE1
-2.4147217	G AE1
-3.6640406	AO1 AE1
-1.6669843	R AE1
-0.9178876	K AE1
-2.1305537	IY0 AE1
-0.70993066	Y AE1
-3.7807307	AE1 AE1
-2.5707176	AY1 AE1
-2.5006979	UW1 AE1
-1.9112796	F AE1
-2.310479	CH AE1
-1.0290376	B AE1
-2.6950884	IY1 AE1
-2.6004043	OY1 AE1
-2.0740676	V AE1
-2.8534422	OW1 AE1
-0.6263324	DH AE1
-2.4047585	EY2 AE1
-2.8282197	EY1 AE1
-1.4120669	JH AE1
-1.5398775	SH AE1
-2.131895	IY2 AE1
-2.7456388	OW0 AE1
-2.6243353	UW2 AE1
-2.2485306	AY0 AE1
-1.4816827	ER2 AE1
-1.4364243	<s> IH1
-1.2662166	HH IH1
-4.419592	EH1 IH1
-1.2091917	L IH1
-3.049128	AH0 IH1
-1.7599113	N IH1
-1.1087198	W IH1
-3.8523476	AA1 IH1
-1.3593808	T IH1
-1.1379983	S IH1
-3.8186784	AH1 IH1
-1.4616299	M IH1
-0.3749367	TH IH1
-1.5258453	NG IH1
-1.7803596	ER0 IH1
-1.8750538	AW1 IH1
-1.1317905	D IH1
-2.2426004	ER1 IH1
-1.4005156	P IH1
-2.59403	AH2 IH1
-1.4073291	Z IH1
-1.6849272	<UNK> IH1
-1.482822	G IH1
-3.0827205	AO1 IH1
-1.2565029	R IH1
-1.3523958	K IH1
-1.756539	IY0 IH1
-2.8926668	Y IH1
-2.6183088	AE1 IH1
-2.1436038	AY1 IH1
-1.6487753	UW1 IH1
-0.98652244	F IH1
-0.8782626	CH IH1
-2.922642	AY2 IH1
-1.1456496	B IH1
-1.7399949	IY1 IH1
-1.764887	OY1 IH1
-1.2631493	V IH1
-1.6719582	OW1 IH1
-0.8667977	DH IH1
-2.0764534	EY2 IH1
-2.148376	EY1 IH1
-1.8014122	JH IH1
-1.7106569	SH IH1
-1.8478193	IY2 IH1
-1.9624689	OW0 IH1
-3.232813	OW2 IH1
-2.5966868	UW2 IH1
-1.3550186	UW0 IH1
-2.0212204	AW2 IH1
-2.7064629	AA2 IH1
-1.5119256	OY2 IH1
-1.6421921	ZH IH1
-1.2126914	<s> AY1
-1.6118753	HH AY1
-4.085879	EH1 AY1
-1.051039	L AY1
-2.7793732	AH0 AY1
-1.7188383	N AY1
-1.3829271	W AY1
-3.1329665	AA1 AY1
-1.8059872	T AY1
-1.7115108	S AY1
-3.9141533	AH1 AY1
-1.1602829	M AY1
-3.4709184	TH AY1
-2.5148613	NG AY1
-2.3168135	ER0 AY1
-1.9087131	AW1 AY1
-1.7931633	D AY1
-2.3185992	ER1 AY1
-2.0702717	P AY1
-2.123815	Z AY1
-1.8569757	<UNK> AY1
-2.2603374	G AY1
-3.608861	AO1 AY1
-0.97358054	R AY1
-1.9252709	K AY1
-2.0847282	IY0 AY1
-4.6308947	Y AY1
-2.4922743	AE1 AY1
-2.1427243	AY1 AY1
-2.4566839	UW1 AY1
-1.1867996	F AY1
-2.15717	CH AY1
-1.4464126	B AY1
-2.6913278	IY1 AY1
-2.4974923	OY1 AY1
-2.327269	V AY1
-1.6385667	OW1 AY1
-4.5406184	DH AY1
-2.4035788	EY2 AY1
-2.0202436	EY1 AY1
-2.4628384	JH AY1
-2.3221142	SH AY1
-1.9433236	IY2 AY1
-2.0251412	OW0 AY1
-3.514188	OW2 AY1
-2.6675873	UW0 AY1
-2.5545805	ZH AY1
-2.7632694	<s> UW1
-1.4198437	HH UW1
-1.9900947	L UW1
-4.980989	AH0 UW1
-2.4371367	N UW1
-2.195062	W UW1
-4.6888585	AA1 UW1
-1.1850283	T UW1
-2.2275832	S UW1
-2.056747	M UW1
-4.3479886	NG UW1
-2.5376663	ER0 UW1
-0.9450749	D UW1
-1.8976283	P UW1
-2.8626137	Z UW1
-3.534724	<UNK> UW1
-2.6747448	G UW1
-1.6968032	R UW1
-2.3369281	K UW1
-3.938682	IY0 UW1
-0.24259934	Y UW1
-4.8230677	AE1 UW1
-1.984329	F UW1
-1.1704986	CH UW1
-2.0664618	B UW1
-4.6490726	IY1 UW1
-4.657698	OW1 UW1
-3.1442502	EY2 UW1
-3.8749528	EY1 UW1
-0.8022961	JH UW1
-1.3976042	SH UW1
-2.0894835	<s> F
-2.4503372	EH1 F
-1.8148025	L F
-1.5684501	AH0 F
-2.2407854	N F
-1.9690391	AA1 F
-2.0233016	T F
-2.2772007	S F
-2.0373497	AH1 F
-2.1412547	M F
-2.456072	TH F
-2.070819	IH0 F
-1.7685297	NG F
-1.827434	ER0 F
-2.8180997	AW1 F
-2.217307	D F
-1.9116347	ER1 F
-2.4239001	P F
-1.7291174	Z F
-2.0170276	<UNK> F
-2.587111	G F
-1.2869499	AO1 F
-1.8868251	R F
-2.308731	K F
-1.7265972	IY0 F
-1.550023	AE1 F
-1.679652	IH1 F
-1.9573584	AY1 F
-1.7696825	UW1 F
-2.6609964	F F
-2.1810083	CH F
-2.9265676	AY2 F
-4.2712836	B F
-1.9391601	IY1 F
-2.052385	OY1 F
-2.0025692	V F
-2.311496	OW1 F
-3.7440012	DH F
-2.5944445	EY2 F
-2.09775	EY1 F
-2.5764394	JH F
-2.380239	SH F
-3.0450187	IH2 F
-2.2376504	AA0 F
-1.2885232	AE2 F
-1.6814859	IY2 F
-1.7010409	OW0 F
-3.0147746	AO2 F
-3.3068774	OW2 F
-2.9435127	EH2 F
-1.8788468	UW2 F
-2.0290818	UW0 F
-2.6510422	<s> CH
-3.1542664	EH1 CH
-3.0285635	L CH
-2.1691856	AH0 CH
-2.3655217	N CH
-2.0372684	AA1 CH
-2.8635626	T CH
-2.7517195	S CH
-1.9136152	AH1 CH
-2.8068724	M CH
-3.6193993	TH CH
-2.367444	IH0 CH
-2.8553805	NG CH
-2.3675034	ER0 CH
-2.243179	AW1 CH
-3.0795908	D CH
-2.2442412	ER1 CH
-3.698268	P CH
-2.7087002	Z CH
-2.7236285	<UNK> CH
-3.3425004	G CH
-3.087059	UH1 CH
-2.620932	R CH
-2.2720256	K CH
-2.7358804	IY0 CH
-2.265003	AE1 CH
-2.087531	IH1 CH
-2.8837724	AY1 CH
-2.2923224	UW1 CH
-3.849116	F CH
-3.4446876	CH CH
-2.226461	IY1 CH
-3.3658948	OY1 CH
-2.4675546	V CH
-3.2274253	OW1 CH
-4.03438	DH CH
-2.8507237	EY1 CH
-3.0471365	JH CH
-2.6560268	IH2 CH
-2.2186964	AE2 CH
-2.4159393	OW0 CH
-2.5762467	OW2 CH
-1.9676485	AA2 CH
-4.6898646	HH AY2
-2.7771907	L AY2
-3.9659247	N AY2
-3.7350986	W AY2
-3.270659	T AY2
-2.8491867	S AY2
-2.9279437	M AY2
-4.287809	ER0 AY2
-3.7502563	D AY2
-3.7370958	P AY2
-2.5273812	R AY2
-3.086675	F AY2
-3.2713087	CH AY2
-4.285873	B AY2
-4.300204	V AY2
-3.8434577	JH AY2
-3.789351	SH AY2
-1.5904613	<s> B
-3.2948318	EH1 B
-1.607168	L B
-1.089265	AH0 B
-2.2555957	N B
-1.9595753	AA1 B
-1.8089101	T B
-1.9093068	S B
-2.3398805	AH1 B
-1.5468588	M B
-2.5280287	TH B
-4.51392	IH0 B
-1.7805693	NG B
-1.5900009	ER0 B
-2.0760772	AW1 B
-1.8733826	D B
-1.7749585	ER1 B
-2.4782507	P B
-2.5885801	AH2 B
-1.6501224	Z B
-1.665054	<UNK> B
-2.1447299	G B
-2.6437175	AO1 B
-1.8769786	R B
-2.373565	K B
-1.5001734	IY0 B
-2.1560323	AE1 B
-2.8954325	IH1 B
-1.8598709	AY1 B
-1.5968267	UW1 B
-2.6908464	F B
-1.7879515	CH B
-3.6617308	B B
-2.0268917	IY1 B
-1.7562685	OY1 B
-1.7888954	V B
-1.8746283	OW1 B
-3.1437912	DH B
-1.8693671	EY2 B
-1.0103972	EY1 B
-2.594291	JH B
-2.5399592	SH B
-1.584363	AA0 B
-2.2053442	AE2 B
-1.6279607	IY2 B
-1.5935999	OW0 B
-3.1116936	AO2 B
-2.8823013	OW2 B
-2.2759883	EH2 B
-1.7421129	UW0 B
-1.630386	AW2 B
-1.4920865	AA2 B
-1.6442574	AE0 B
-0.7442249	OY2 B
-2.5265167	ZH B
-2.771437	<s> IY1
-0.5727318	HH IY1
-1.4119022	L IY1
-2.6978648	AH0 IY1
-2.00618	N IY1
-0.9883253	W IY1
-3.579302	AA1 IY1
-2.164052	T IY1
-1.1043533	S IY1
-4.7380004	AH1 IY1
-1.136627	M IY1
-2.5453115	TH IY1
-3.2206683	NG IY1
-2.3594797	ER0 IY1
-3.5610037	AW1 IY1
-2.417462	D IY1
-3.0615654	ER1 IY1
-1.2292279	P IY1
-2.483921	Z IY1
-2.4085855	<UNK> IY1
-3.1409059	G IY1
-4.0030994	AO1 IY1
-1.618013	R IY1
-2.2447593	K IY1
-2.8314846	IY0 IY1
-4.223249	AE1 IY1
-2.7970035	AY1 IY1
-2.146679	UW1 IY1
-1.6608522	F IY1
-1.6486366	CH IY1
-1.2462679	B IY1
-2.785252	IY1 IY1
-3.0845692	OY1 IY1
-2.186308	V IY1
-3.2277262	OW1 IY1
-1.744423	DH IY1
-3.124794	EY1 IY1
-2.0823534	JH IY1
-0.37278074	SH IY1
-1.544209	IY2 IY1
-3.0480614	AO2 IY1
-1.6004674	UW0 IY1
-5.335096	<s> OY1
-4.2654533	L OY1
-4.375955	AH0 OY1
-2.5498545	N OY1
-2.2834332	T OY1
-4.2048545	S OY1
-4.501626	M OY1
-4.478735	NG OY1
-2.484474	P OY1
-4.8954773	Z OY1
-4.2084365	R OY1
-4.0927963	K OY1
-4.7967215	AY1 OY1
-2.927507	CH OY1
-1.5379378	B OY1
-2.6931233	V OY1
-2.4311242	JH OY1
-2.880931	<s> V
-1.6874427	EH1 V
-2.8231568	L V
-2.6183925	AH0 V
-3.2025297	N V
-3.804508	AA1 V
-3.1345315	T V
-3.4579942	S V
-1.1918732	AH1 V
-3.3839378	M V
-3.846983	TH V
-2.6792712	IH0 V
-2.72869	NG V
-3.1138299	ER0 V
-3.878118	AW1 V
-3.2517033	D V
-2.2138426	ER1 V
-3.5336373	P V
-2.4116247	Z V
-3.0722556	<UNK> V
-4.309989	G V
-4.3245254	AO1 V
-2.9705367	R V
-3.370224	K V
-2.903608	IY0 V
-1.210547	AE1 V
-1.854338	IH1 V
-1.7271781	AY1 V
-1.9960965	UW1 V
-4.118781	F V
-0.49413943	AY2 V
-3.4503434	B V
-1.7609715	IY1 V
-3.3369954	OY1 V
-3.1409264	V V
-1.457065	OW1 V
-4.713318	DH V
-2.6018195	EY2 V
-1.9347603	EY1 V
-3.636156	JH V
-3.8879952	SH V
-3.1775856	IH2 V
-2.3815513	AE2 V
-2.7393878	OW0 V
-3.174452	OW2 V
-2.4041228	EH2 V
-1.0457739	OY2 V
-2.009718	EY0 V
-1.3982626	<s> OW1
-1.3975314	HH OW1
-1.5504525	L OW1
-2.8151095	AH0 OW1
-0.9968262	N OW1
-2.146558	W OW1
-3.215319	AA1 OW1
-2.261907	T OW1
-1.4564588	S OW1
-4.6281557	AH1 OW1
-2.02012	M OW1
-3.6088333	TH OW1
-2.4758234	NG OW1
-2.4840891	ER0 OW1
-2.6373098	AW1 OW1
-1.1991799	D OW1
-2.3568208	ER1 OW1
-2.2491972	P OW1
-2.2849529	Z OW1
-2.3362105	<UNK> OW1
-0.57484025	G OW1
-1.7393115	R OW1
-2.0413084	K OW1
-2.6320179	IY0 OW1
-3.0001874	Y OW1
-3.355708	AE1 OW1
-2.805914	AY1 OW1
-2.5385096	UW1 OW1
-2.036259	F OW1
-2.493204	CH OW1
-1.794477	B OW1
-2.8533394	IY1 OW1
-2.5463595	OY1 OW1
-2.4670434	V OW1
-2.2859197	OW1 OW1
-1.784252	DH OW1
-2.6262925	EY1 OW1
-2.2069895	JH OW1
-1.2850397	SH OW1
-2.259492	AA0 OW1
-2.4696128	IY2 OW1
-2.3400693	OW0 OW1
-3.974811	OW2 OW1
-2.6243353	UW2 OW1
-2.770141	UW0 OW1
-0.35821882	EY0 OW1
-1.093527	<s> DH
-2.151658	EH1 DH
-1.6363406	L DH
-2.401783	AH0 DH
-1.1656203	N DH
-2.6861534	AA1 DH
-1.2681558	T DH
-1.7601341	S DH
-1.3679788	AH1 DH
-2.0480227	M DH
-2.4455166	TH DH
-1.2595199	NG DH
-1.2395993	ER0 DH
-1.7311977	AW1 DH
-1.2415274	D DH
-1.9451262	ER1 DH
-1.6918999	P DH
-1.3637456	AH2 DH
-0.8206654	Z DH
-1.4303385	<UNK> DH
-2.8791208	G DH
-2.6441858	AO1 DH
-1.5381132	R DH
-1.318453	K DH
-1.751729	IY0 DH
-2.166843	AE1 DH
-1.4367012	IH1 DH
-2.1604674	AY1 DH
-1.4214344	UW1 DH
-1.7878479	F DH
-1.4368625	CH DH
-2.5886137	AY2 DH
-3.2834988	B DH
-1.5567744	IY1 DH
-1.8588575	OY1 DH
-0.9103626	V DH
-1.3654152	OW1 DH
-1.8190919	DH DH
-2.4878938	EY2 DH
-1.757991	EY1 DH
-2.0934088	JH DH
-1.7074144	SH DH
-2.2448096	AA0 DH
-1.7750889	IY2 DH
-1.7496196	OW0 DH
-3.021231	AO2 DH
-3.1179423	OW2 DH
-0.37135178	UW0 DH
-1.894358	AW2 DH
-2.0025525	AA2 DH
-2.4290724	L EY2
-4.0866246	N EY2
-2.5127103	W EY2
-4.0542417	T EY2
-4.7853875	S EY2
-3.8362167	M EY2
-2.3538866	ER0 EY2
-2.5110795	D EY2
-2.9869938	P EY2
-4.8723407	Z EY2
-3.2637932	G EY2
-3.9911697	R EY2
-2.5410287	K EY2
-2.9119537	IY0 EY2
-4.603898	B EY2
-4.763149	IY1 EY2
-2.9393356	V EY2
-4.0088162	SH EY2
-2.0932581	IY2 EY2
-3.8951607	HH UH2
-4.991173	L UH2
-3.7385588	W UH2
-3.8748481	P UH2
-2.7376401	G UH2
-4.791665	Y UH2
-3.53153	F UH2
-4.0141897	CH UH2
-2.4522417	B UH2
-3.4133043	<s> EY1
-1.9389496	HH EY1
-4.7808795	EH1 EY1
-1.3252492	L EY1
-3.840027	AH0 EY1
-2.1874926	N EY1
-1.3839132	W EY1
-1.6430249	T EY1
-1.5769032	S EY1
-1.2668152	M EY1
-3.9117968	TH EY1
-4.2114987	NG EY1
-2.5879183	ER0 EY1
-2.0036461	D EY1
-3.2538168	ER1 EY1
-1.5566541	P EY1
-3.4965892	Z EY1
-2.0067647	G EY1
-1.7088877	R EY1
-0.91958874	K EY1
-2.7692316	IY0 EY1
-3.2507381	Y EY1
-4.7731767	AE1 EY1
-3.2169614	AY1 EY1
-3.2825449	UW1 EY1
-1.8703581	F EY1
-1.3399909	CH EY1
-1.269421	B EY1
-2.89332	IY1 EY1
-2.9698803	V EY1
-4.197493	OW1 EY1
-1.5093795	DH EY1
-2.3390517	EY2 EY1
-3.8619537	EY1 EY1
-2.3398764	JH EY1
-2.0354898	SH EY1
-2.0695565	IY2 EY1
-2.3259661	UW0 EY1
-2.2170892	<s> JH
-2.5812912	EH1 JH
-2.2684684	L JH
-2.4552174	AH0 JH
-2.0979095	N JH
-2.9179244	AA1 JH
-2.72452	T JH
-3.046058	S JH
-4.2897925	AH1 JH
-2.4346218	M JH
-3.7669	TH JH
-2.2460732	IH0 JH
-2.6449537	NG JH
-2.6287043	ER0 JH
-2.9696276	AW1 JH
-2.4785676	D JH
-2.6399295	ER1 JH
-3.158638	P JH
-2.1048594	Z JH
-2.51728	<UNK> JH
-3.392576	G JH
-3.8807735	AO1 JH
-2.0490634	R JH
-2.963973	K JH
-2.4145029	IY0 JH
-3.1607733	AE1 JH
-2.6958108	IH1 JH
-2.3096676	AY1 JH
-2.3622165	UW1 JH
-3.3188937	F JH
-2.9379227	CH JH
-3.5832856	B JH
-2.4527657	IY1 JH
-2.6586108	OY1 JH
-2.3939748	V JH
-2.7783165	OW1 JH
-3.5937107	DH JH
-2.7487922	EY2 JH
-1.8971697	EY1 JH
-2.0998166	JH JH
-3.1236446	SH JH
-2.434715	IH2 JH
-2.3799102	AE2 JH
-2.6446729	IY2 JH
-2.7362957	OW0 JH
-3.1364172	AO2 JH
-3.236582	OW2 JH
-2.5750809	EH2 JH
-2.3885796	AY0 JH
-1.9236495	<s> SH
-2.685392	EH1 SH
-2.43215	L SH
-2.2528107	AH0 SH
-2.5795565	N SH
-2.195708	AA1 SH
-2.3738112	T SH
-2.7909255	S SH
-2.2003195	AH1 SH
-2.7540185	M SH
-3.7569997	TH SH
-1.7026453	IH0 SH
-2.6446345	NG SH
-2.4474158	ER0 SH
-2.438367	AW1 SH
-2.1045709	D SH
-2.431345	ER1 SH
-3.233572	P SH
-1.8503733	Z SH
-2.5560353	<UNK> SH
-3.6109982	G SH
-1.6524777	UH1 SH
-3.8775547	AO1 SH
-2.4304721	R SH
-2.3623652	K SH
-2.3064091	IY0 SH
-2.1520402	AE1 SH
-2.1404762	IH1 SH
-2.4406319	AY1 SH
-2.2574077	UW1 SH
-2.4590056	F SH
-3.1122484	CH SH
-2.4234974	AY2 SH
-4.276634	B SH
-2.2779849	IY1 SH
-2.8120542	OY1 SH
-2.7802753	V SH
-2.2477036	OW1 SH
-4.20829	DH SH
-2.398892	EY2 SH
-2.1940494	EY1 SH
-3.0944748	JH SH
-3.869641	SH SH
-2.8125684	IH2 SH
-1.4473674	AE2 SH
-2.124944	IY2 SH
-1.8648511	OW0 SH
-2.793794	AO2 SH
-1.8418193	AA2 SH
-1.1652569	AE0 SH
-1.7657942	OY2 SH
-3.7449942	<s> IH2
-3.4947805	HH IH2
-3.575182	L IH2
-3.5876315	AH0 IH2
-3.3455398	N IH2
-3.4549875	T IH2
-3.1245978	S IH2
-3.1787133	M IH2
-1.3284056	TH IH2
-3.0539343	NG IH2
-3.327119	ER0 IH2
-3.9256604	AW1 IH2
-2.9884398	D IH2
-3.8054972	ER1 IH2
-3.0425253	P IH2
-3.0536141	Z IH2
-3.251875	<UNK> IH2
-3.8186052	G IH2
-3.405103	R IH2
-3.5246456	K IH2
-3.2136161	IY0 IH2
-4.266797	Y IH2
-4.7051272	AE1 IH2
-3.670438	AY1 IH2
-3.5215724	UW1 IH2
-3.2392025	F IH2
-3.6335208	IY1 IH2
-3.423318	OY1 IH2
-2.5180938	V IH2
-3.4225993	OW1 IH2
-3.1252217	EY2 IH2
-3.7353132	EY1 IH2
-3.2419877	SH IH2
-2.8372214	UW0 IH2
-5.2649946	<s> AA0
-3.7818542	HH AA0
-3.7752109	L AA0
-3.9699638	N AA0
-5.239286	T AA0
-2.966932	M AA0
-4.1637096	P AA0
-4.9593644	Z AA0
-5.0488114	R AA0
-3.569851	K AA0
-4.142464	B AA0
-4.713747	IY1 AA0
-4.4512124	<s> AE2
-3.6477597	HH AE2
-3.9625707	L AE2
-4.2836137	AH0 AE2
-3.9332056	N AE2
-4.029605	W AE2
-3.6049256	T AE2
-3.570265	S AE2
-2.6974728	M AE2
-3.412578	TH AE2
-4.3096333	ER0 AE2
-3.9400225	D AE2
-3.7232592	P AE2
-4.7998776	Z AE2
-4.041916	<UNK> AE2
-4.386443	G AE2
-3.7139597	R AE2
-2.9241505	K AE2
-4.4122295	IY0 AE2
-4.4545617	Y AE2
-3.1851242	AY1 AE2
-4.354667	F AE2
-3.277039	B AE2
-4.693025	IY1 AE2
-4.1103587	V AE2
-3.8712547	JH AE2
-4.602896	<s> IY2
-2.575326	L IY2
-3.6672707	N IY2
-4.981388	W IY2
-4.452972	T IY2
-3.4408495	S IY2
-3.082663	M IY2
-4.2702804	ER0 IY2
-2.8257961	D IY2
-4.2928815	P IY2
-2.8935392	Z IY2
-3.6043994	G IY2
-3.368181	R IY2
-3.6234639	K IY2
-4.6602883	AY1 IY2
-4.425368	F IY2
-2.9631023	B IY2
-3.6996615	EY1 IY2
-2.670491	SH IY2
-4.033649	<s> OW0
-4.769363	HH OW0
-2.2004356	L OW0
-3.5384715	N OW0
-4.7444563	AA1 OW0
-3.528329	T OW0
-2.777548	S OW0
-3.5380206	M OW0
-4.3029356	NG OW0
-4.3288617	ER0 OW0
-2.5233817	D OW0
-3.8438053	P OW0
-4.1598434	Z OW0
-3.5540912	G OW0
-3.0885427	R OW0
-2.863562	K OW0
-2.577644	IY0 OW0
-4.135002	AY1 OW0
-4.6810575	UW1 OW0
-3.738107	CH OW0
-3.032827	B OW0
-4.243866	IY1 OW0
-3.1000154	V OW0
-4.094349	EY1 OW0
-2.56016	<s> AO2
-3.252248	L AO2
-3.90627	N AO2
-3.645984	W AO2
-3.5714939	T AO2
-2.449701	S AO2
-4.2919536	M AO2
-3.518003	NG AO2
-3.1247509	ER0 AO2
-4.255359	AW1 AO2
-3.6259346	D AO2
-3.3826218	P AO2
-2.9146225	Z AO2
-4.0103583	<UNK> AO2
-4.166273	G AO2
-3.9022791	R AO2
-3.5973163	K AO2
-3.6713822	IY0 AO2
-4.728787	AE1 AO2
-4.1841493	UW1 AO2
-3.4112628	F AO2
-2.7221363	B AO2
-3.706489	IY1 AO2
-4.1707835	V AO2
-3.4899952	OW1 AO2
-4.9128494	DH AO2
-3.2067685	EY1 AO2
-3.8361633	JH AO2
-4.0181794	SH AO2
-3.015971	OW0 AO2
-3.7874198	HH UH0
-5.094964	S UH0
-4.3135695	Y UH0
-4.0750504	CH UH0
-3.6712604	JH UH0
-1.4325994	<s> OW2
-3.5449893	HH OW2
-4.7634935	EH1 OW2
-2.7917285	L OW2
-3.8144016	AH0 OW2
-3.0462375	N OW2
-3.865583	AA1 OW2
-2.7020724	T OW2
-2.8540428	S OW2
-4.455337	AH1 OW2
-2.452118	M OW2
-3.380571	TH OW2
-2.9565468	NG OW2
-2.429361	ER0 OW2
-2.619961	AW1 OW2
-2.8533108	D OW2
-3.3341389	ER1 OW2
-3.0196073	P OW2
-2.6050406	Z OW2
-2.2279222	<UNK> OW2
-3.1928396	G OW2
-4.4518003	AO1 OW2
-2.4331565	R OW2
-2.7784784	K OW2
-2.400612	IY0 OW2
-3.3836951	AE1 OW2
-4.199088	AY1 OW2
-3.017009	UW1 OW2
-1.8348435	F OW2
-2.6650763	CH OW2
-3.308777	B OW2
-3.2511997	IY1 OW2
-2.7411702	OY1 OW2
-3.6060503	V OW2
-2.3924308	OW1 OW2
-4.560815	DH OW2
-2.4670522	EY1 OW2
-3.2631052	JH OW2
-3.5484226	SH OW2
-2.9558058	OW0 OW2
-4.001514	OW2 OW2
-4.2566385	<s> EH2
-4.5980263	HH EH2
-3.4046788	L EH2
-4.964885	AH0 EH2
-3.9532468	N EH2
-2.7241538	W EH2
-3.6290529	T EH2
-3.854818	S EH2
-3.2387247	M EH2
-3.8554583	TH EH2
-3.6311088	NG EH2
-4.2483377	ER0 EH2
-3.7380762	D EH2
-3.3579338	P EH2
-3.9071262	Z EH2
-4.152655	G EH2
-2.8753192	R EH2
-3.42396	K EH2
-3.5506403	IY0 EH2
-4.5590286	AY1 EH2
-3.7723396	UW1 EH2
-4.2938805	F EH2
-3.2320735	CH EH2
-2.3987238	B EH2
-3.9497201	IY1 EH2
-3.304696	V EH2
-4.6417985	OW1 EH2
-4.8902006	DH EH2
-4.49471	EY1 EH2
-3.2815092	JH EH2
-3.3773117	SH EH2
-2.9987187	OW0 EH2
-2.3353808	UW0 EH2
-4.7028403	HH UW2
-4.9769087	T UW2
-4.4228845	S UW2
-4.1125855	TH UW2
-4.427794	ER0 UW2
-4.977561	D UW2
-3.7402315	P UW2
-4.7996316	Z UW2
-2.680191	R UW2
-3.6258492	K UW2
-3.0104623	Y UW2
-2.0428944	CH UW2
-3.447621	JH UW2
-4.0431523	SH UW2
-2.689482	ZH UW2
-4.1461034	HH UW0
-3.6375065	L UW0
-4.704159	N UW0
-2.633035	T UW0
-3.1725168	R UW0
-2.7586071	Y UW0
-3.1160896	CH UW0
-4.260184	SH UW0
-4.4307275	HH EH0
-4.032702	L EH0
-5.1596355	N EH0
-3.4657085	W EH0
-4.596833	T EH0
-3.5033498	S EH0
-4.054316	M EH0
-4.478735	NG EH0
-4.614573	D EH0
-4.268444	Z EH0
-3.6200197	R EH0
-4.5040317	IY0 EH0
-4.447879	F EH0
-4.785455	IY1 EH0
-4.300204	V EH0
-3.924638	DH EH0
-2.3683348	JH EH0
-3.1007595	HH AW2
-4.203954	L AW2
-5.042763	T AW2
-3.5294566	R AW2
-4.6791344	K AW2
-4.600757	<s> AA2
-2.7150345	HH AA2
-4.9698653	AH0 AA2
-5.0218115	N AA2
-3.5789394	W AA2
-5.2584996	T AA2
-4.7764206	S AA2
-3.3525171	M AA2
-3.3814754	ER0 AA2
-3.4377282	D AA2
-2.6425154	P AA2
-3.6031365	G AA2
-4.2019715	R AA2
-3.2328575	K AA2
-3.8062298	Y AA2
-4.823203	UW1 AA2
-3.422013	F AA2
-1.8528136	B AA2
-4.2511935	OW1 AA2
-2.5622487	EY1 AA2
-4.9137173	HH AW0
-5.148305	N AW0
-4.7171116	AO1 AW0
-4.6205883	IY0 AW0
-4.9108553	AY1 AW0
-4.8237276	UW1 AW0
-3.3555956	F AW0
-4.903029	IY1 AW0
-5.335096	<s> AE0
-4.8777056	L AE0
-4.9945397	AH0 AE0
-4.8267145	N AE0
-4.0105414	T AE0
-4.41509	S AE0
-3.542374	M AE0
-4.478735	NG AE0
-4.9522533	D AE0
-3.5693808	R AE0
-3.830148	K AE0
-4.7967215	AY1 AE0
-4.8560443	UW1 AE0
-3.38453	F AE0
-3.7709427	B AE0
-4.300204	V AE0
-3.114417	SH AE0
-4.247825	HH AY0
-4.841787	L AY0
-4.1723237	AH0 AY0
-4.122305	N AY0
-4.9738584	W AY0
-4.16035	T AY0
-4.403655	S AY0
-4.699419	M AY0
-3.7638035	ER0 AY0
-2.958896	D AY0
-4.861219	Z AY0
-4.276367	R AY0
-4.471227	IY0 AY0
-4.764491	AY1 AY0
-4.823203	UW1 AY0
-3.030279	CH AY0
-4.642332	IY1 AY0
-3.775045	V AY0
-4.2511935	OW1 AY0
-4.6111035	EY1 AY0
-4.5906386	ER0 OY2
-4.841689	P OY2
-4.5995607	G OY2
-2.8370128	B OY2
-5.1452427	<s> AO0
-4.238852	L AO0
-5.0240726	AH0 AO0
-4.0148354	N AO0
-4.727832	AA1 AO0
-3.6309772	T AO0
-3.9455462	S AO0
-4.1091638	M AO0
-3.3216932	TH AO0
-4.0763993	NG AO0
-4.2139654	ER0 AO0
-4.032029	D AO0
-3.9615457	ER1 AO0
-4.108909	P AO0
-3.4848943	Z AO0
-4.386443	G AO0
-4.2613964	R AO0
-4.556291	K AO0
-3.9544141	IY0 AO0
-3.6771603	AY1 AO0
-3.4851387	UW1 AO0
-4.530416	B AO0
-3.6400223	IY1 AO0
-3.4799607	V AO0
-4.700198	OW1 AO0
-3.7724564	JH AO0
-3.5452673	EH1 ZH
-2.5690587	AA1 ZH
-3.9982264	ER1 ZH
-4.70898	R ZH
-4.4056463	IH1 ZH
-2.996515	UW1 ZH
-3.8402138	EY1 ZH
-1.4144686	IH2 ZH
-4.3164477	<s> EY0
-3.773244	L EY0
-3.171485	N EY0
-5.33497	T EY0
-4.3155046	ER0 EY0
-3.3904858	D EY0
-4.9326715	Z EY0
-5.01974	R EY0
-4.979972	K EY0
-4.5395184	IY0 EY0
-4.6947627	IY1 EY0
-3.0052648	V EY0
-4.823252	OW1 EY0
-4.677543	EY1 EY0
-4.1979303	W ER2
-4.650713	P ER2
-4.7311945	G ER2
-4.059017	CH ER2
-3.789831	B ER2
-4.132055	SH ER2

\end\
