\data\
ngram 1=72
ngram 2=2550
ngram 3=29495

\1-grams:
-3.2366092	<unk>	0
0	<s>	-3.6421273
-1.6907134	</s>	0
-1.7165314	HH	-1.2913532
-1.7535317	EH1	-1.1327987
-1.6005036	L	-1.3038287
-1.6663444	AH0	-1.3711791
-1.593768	N	-1.3582567
-1.7077538	W	-1.3636861
-1.7077538	AA1	-1.1036804
-1.6213608	T	-1.4217861
-1.6213608	S	-1.3932409
-1.7535317	AH1	-1.0186924
-1.6142966	M	-1.270082
-1.7165314	TH	-0.92941815
-1.7254902	IH0	-1.1624262
-2.3281243	NG	-0.7248303
-1.7732852	ER0	-1.2085392
-1.7732852	AW1	-0.8335178
-1.6073453	D	-1.367674
-1.9154745	ER1	-0.7392656
-1.6358438	P	-1.2586721
-2.0089674	AH2	-0.6384852
-1.6743164	Z	-1.4086244
-1.7439818	<UNK>	-1.3520479
-1.658516	G	-1.1505622
-2.231061	UH1	-0.6937925
-1.7346376	AO1	-0.8966081
-1.6213608	R	-1.1770275
-1.6005036	K	-1.3728466
-2.0452116	IY0	-1.1411505
-1.7346376	Y	-1.2452724
-1.7439818	AE1	-1.1726967
-1.6824375	IH1	-1.2965564
-1.7346376	AY1	-1.3281251
-1.9154745	UW1	-1.0115582
-1.6907134	F	-1.225561
-1.7732852	CH	-1.0489321
-2.1766312	AY2	-0.48993605
-1.6663444	B	-1.214978
-1.7835095	IY1	-1.1103903
-2.1766312	OY1	-0.48778656
-1.7254902	V	-1.0328401
-1.7439818	OW1	-1.2134736
-1.7077538	DH	-1.068785
-2.1282697	EY2	-0.495985
-2.4533184	UH2	-0.414857
-1.8269981	EY1	-1.0659727
-1.7165314	JH	-1.0214033
-1.69915	SH	-1.0712544
-1.8753312	IH2	-0.81329685
-2.3281243	AA0	-0.39513797
-1.9919199	AE2	-0.67494196
-2.1282697	IY2	-0.59596646
-2.0267115	OW0	-0.7463161
-1.9297248	AO2	-0.67978996
-2.7094092	UH0	-0.2554821
-1.7939801	OW2	-0.75168
-1.8883044	EH2	-0.83791023
-2.231061	UW2	-0.4455167
-2.5045986	UW0	-0.3879584
-2.1766312	EH0	-0.6521862
-2.7094092	AW2	-0.34948087
-2.1059692	AA2	-0.54423547
-2.5045986	AW0	-0.47421166
-2.1766312	AE0	-0.63839793
-2.1059692	AY0	-0.5977136
-2.80678	OY2	-0.31515098
-1.9919199	AO0	-0.7992802
-2.5045986	ZH	-0.37122995
-2.261068	EY0	-0.5481232
-2.6299207	ER2	-0.29944772

\2-grams:
-1.441991	EH1 </s>	0
-1.6040372	L </s>	0
-1.4282289	AH0 </s>	0
-1.6002537	N </s>	0
-1.2622025	AA1 </s>	0
-1.5586743	T </s>	0
-1.615727	S </s>	0
-1.8680474	AH1 </s>	0
-1.721032	M </s>	0
-1.31177	TH </s>	0
-1.4513618	NG </s>	0
-1.3864306	ER0 </s>	0
-1.3724233	AW1 </s>	0
-1.5430559	D </s>	0
-1.49759	ER1 </s>	0
-1.6100268	P </s>	0
-1.8296338	AH2 </s>	0
-1.4579831	Z </s>	0
-1.3177577	<UNK> </s>	0
-1.750655	G </s>	0
-1.4674916	AO1 </s>	0
-1.8491849	R </s>	0
-1.6617563	K </s>	0
-1.4450605	IY0 </s>	0
-2.4790103	AE1 </s>	0
-1.4702963	AY1 </s>	0
-1.3829423	UW1 </s>	0
-1.6704928	F </s>	0
-1.502027	CH </s>	0
-1.6438559	AY2 </s>	0
-1.6961071	B </s>	0
-1.4564322	IY1 </s>	0
-1.3443527	OY1 </s>	0
-1.5845296	V </s>	0
-1.2934116	OW1 </s>	0
-2.1225984	DH </s>	0
-1.3924757	EY2 </s>	0
-1.3267713	EY1 </s>	0
-1.7662156	JH </s>	0
-1.6339496	SH </s>	0
-1.2083085	AA0 </s>	0
-1.0850127	IY2 </s>	0
-1.1664803	OW0 </s>	0
-1.9420501	AO2 </s>	0
-1.1075292	OW2 </s>	0
-0.9279416	UW2 </s>	0
-1.2097926	UW0 </s>	0
-1.2856266	AW2 </s>	0
-1.3839003	AA2 </s>	0
-1.4141749	OY2 </s>	0
-1.745241	AO0 </s>	0
-1.4071239	ZH </s>	0
-1.1457664	<s> HH	-2.6632783
-2.4349313	EH1 HH	-0.29016432
-1.8882629	L HH	-1.6812657
-1.4646002	AH0 HH	-1.9716595
-1.7117262	N HH	-2.0643868
-1.666678	AA1 HH	-1.1051588
-1.6943429	T HH	-2.2621927
-1.7649895	S HH	-1.3953048
-2.109467	AH1 HH	-0.8584753
-1.8243196	M HH	-2.1908917
-1.6439039	TH HH	-0.64740217
-2.4724956	IH0 HH	-1.8074322
-1.5807106	NG HH	-1.440265
-1.5497918	ER0 HH	-1.6490003
-1.7256	AW1 HH	-1.0838914
-1.6404052	D HH	-1.855676
-1.881037	ER1 HH	-1.1675137
-1.8138086	P HH	-1.4317828
-1.8376416	AH2 HH	-0.29423383
-1.4999062	Z HH	-2.1073568
-1.4477348	<UNK> HH	-1.1864043
-1.9863256	G HH	-0.97500795
-1.8393464	AO1 HH	-0.6113486
-2.024107	R HH	-1.7325591
-1.7512952	K HH	-1.5980811
-1.5526243	IY0 HH	-1.4936631
-2.6075468	AE1 HH	-0.97570777
-1.4320254	AY1 HH	-1.8671628
-1.584353	UW1 HH	-2.0802295
-1.8608768	F HH	-1.0157859
-1.7081298	CH HH	-0.763186
-2.0796955	B HH	-0.40734527
-1.7007477	IY1 HH	-1.9609693
-1.844612	OY1 HH	-0.66700494
-1.6589875	V HH	-1.3525379
-1.4705728	OW1 HH	-1.7975004
-2.5130389	DH HH	-1.1825979
-1.8093165	EY2 HH	-0.41778693
-1.6679415	EY1 HH	-1.5137938
-1.8274627	JH HH	-0.58031446
-1.9392151	SH HH	-0.8960635
-1.528348	AA0 HH	-0.28814378
-1.4422275	IY2 HH	-0.6263539
-1.3633424	OW0 HH	-0.55993944
-1.9514982	AO2 HH	-0.28814378
-1.6167607	OW2 HH	-0.29016432
-1.775776	UW0 HH	-0.57776624
-1.4206406	OY2 HH	-0.5965788
-1.5751389	ZH HH	-0.29423383
-2.6454034	<s> EH1	-1.4931569
-1.2635058	HH EH1	-2.183157
-2.4488103	EH1 EH1	-0.29423383
-1.4046286	L EH1	-2.2289667
-1.9337378	AH0 EH1	-1.602364
-1.5140598	N EH1	-1.714842
-1.0866368	W EH1	-2.9190185
-2.5975962	AA1 EH1	-0.29423383
-1.5396715	T EH1	-2.2610013
-1.4559197	S EH1	-2.0721116
-2.5015082	AH1 EH1	-0.29423383
-1.4851419	M EH1	-1.9287977
-2.0909843	TH EH1	-0.29178756
-1.7676343	NG EH1	-1.4715801
-1.7805042	ER0 EH1	-1.4151233
-2.2274575	AW1 EH1	-0.5478441
-1.5837362	D EH1	-1.4424788
-2.1457155	ER1 EH1	-0.47098202
-1.4880118	P EH1	-1.817806
-1.7413563	Z EH1	-1.2232728
-1.8763993	<UNK> EH1	-0.3524751
-1.2769055	G EH1	-2.7091203
-2.2549162	AO1 EH1	-0.40219033
-1.3457159	R EH1	-2.1702182
-1.5392479	K EH1	-1.6527863
-1.8113629	IY0 EH1	-0.97509915
-0.9957417	Y EH1	-2.212012
-2.626496	AE1 EH1	-0.29423383
-1.900722	AY1 EH1	-0.66777366
-1.8240718	UW1 EH1	-1.2899344
-1.3719313	F EH1	-1.5579401
-1.189572	CH EH1	-1.9507513
-1.3505402	B EH1	-2.2091265
-1.881004	IY1 EH1	-1.1371863
-1.8603879	OY1 EH1	-0.29423383
-1.1326536	V EH1	-2.0584028
-1.9541701	OW1 EH1	-1.0258449
-0.8981849	DH EH1	-3.256427
-1.9469231	EY2 EH1	-0.29423383
-1.8110002	EY1 EH1	-0.86017185
-1.1393968	JH EH1	-1.8455349
-1.3534501	SH EH1	-1.4049668
-1.6891541	IY2 EH1	-0.28935498
-1.792742	UW0 EH1	-0.5173975
-1.4725226	AW2 EH1	-0.2955488
-1.5694424	<s> L	-2.3834162
-1.0751657	EH1 L	-2.0882204
-1.8495116	L L	-1.3900257
-1.3625157	AH0 L	-2.2877073
-1.7835469	N L	-1.6098174
-1.3148065	AA1 L	-1.3629677
-1.7506113	T L	-1.940106
-1.4717641	S L	-1.931144
-1.5963198	AH1 L	-1.4955393
-1.8754481	M L	-1.0236523
-1.6879524	TH L	-0.36114317
-1.1107197	IH0 L	-1.2376357
-1.6397154	NG L	-1.0408688
-1.6069508	ER0 L	-1.0483587
-1.3654116	AW1 L	-0.9544867
-1.7015342	D L	-1.5050899
-1.0124559	ER1 L	-1.2203437
-1.3762717	P L	-2.1439252
-1.5927778	Z L	-1.7306049
-1.5452548	<UNK> L	-0.97912496
-1.3369601	G L	-1.1210002
-1.0839168	UH1 L	-1.0747846
-0.79808044	AO1 L	-2.0325582
-2.006504	R L	-1.4839904
-1.4291615	K L	-1.9616208
-1.5705479	IY0 L	-1.288913
-1.1386043	AE1 L	-1.3211896
-1.2801884	IH1 L	-1.8379688
-1.4287922	AY1 L	-1.6059175
-1.5407313	UW1 L	-1.600921
-1.380277	F L	-1.6539571
-1.987797	CH L	-0.46120894
-1.1771878	AY2 L	-0.40450972
-1.3240894	B L	-1.9468403
-1.5424186	IY1 L	-1.6910769
-0.98553264	OY1 L	-0.66983443
-1.7332498	V L	-0.90560013
-1.3156589	OW1 L	-1.7162374
-2.4472322	DH L	-0.47098202
-1.3766637	EY2 L	-0.6257901
-1.2474812	UH2 L	-0.40450516
-1.4974402	EY1 L	-1.2157975
-2.1628923	JH L	-0.29374653
-1.9207633	SH L	-0.5930449
-1.4175391	IH2 L	-0.439515
-1.1952156	AA0 L	-0.29117814
-0.8315082	AE2 L	-0.7629102
-1.1665483	IY2 L	-0.6755332
-1.0285712	OW0 L	-0.9575521
-0.40291965	AO2 L	-1.7133287
-0.93132734	UH0 L	-0.29016432
-1.4130445	OW2 L	-0.34064826
-1.1918726	EH2 L	-0.72055644
-1.2634635	UW2 L	-0.35979497
-1.717475	UW0 L	-0.29016432
-1.4912088	EH0 L	-0.28814378
-1.4315591	AW2 L	-0.28814378
-1.2246997	AA2 L	-0.44794783
-1.4774206	AE0 L	-0.47164005
-1.60618	AY0 L	-0.5173975
-1.3892336	OY2 L	-0.28814378
-0.19706085	AO0 L	-1.8057892
-1.2836807	EY0 L	-0.28814378
-1.1925309	ER2 L	-0.29423383
-1.2838902	<s> AH0	-2.3360589
-1.3050411	HH AH0	-2.982929
-2.529723	EH1 AH0	-0.28814378
-1.4912792	L AH0	-1.6926895
-1.475914	AH0 AH0	-1.2331344
-1.5349402	N AH0	-2.294333
-1.818634	W AH0	-1.2459621
-1.5151354	AA1 AH0	-0.48169482
-1.4723809	T AH0	-2.361133
-1.4260571	S AH0	-1.867744
-2.3483484	AH1 AH0	-0.5545879
-1.368202	M AH0	-1.7668521
-1.4620819	TH AH0	-1.0207162
-1.573439	NG AH0	-1.4180254
-1.509989	ER0 AH0	-1.4819076
-1.4586617	AW1 AH0	-1.6485168
-1.5946327	D AH0	-1.9614481
-1.5621717	ER1 AH0	-0.9792326
-1.4465222	P AH0	-2.2034998
-1.8217711	AH2 AH0	-0.29016432
-1.5208328	Z AH0	-2.2031305
-1.4173707	<UNK> AH0	-1.0776229
-1.5987353	G AH0	-1.419415
-1.8304812	AO1 AH0	-0.61971986
-1.3658731	R AH0	-1.8683666
-1.4806167	K AH0	-2.0110366
-1.5044653	IY0 AH0	-1.5445278
-1.6569976	Y AH0	-0.99470913
-2.5805883	AE1 AH0	-1.0602406
-1.6127388	AY1 AH0	-1.3331953
-1.4840544	UW1 AH0	-1.3170102
-1.4855925	F AH0	-1.6959842
-1.4743687	CH AH0	-1.2104174
-1.3326558	AY2 AH0	-0.5382577
-1.436093	B AH0	-1.9626281
-1.4985479	IY1 AH0	-1.3643808
-1.8219732	OY1 AH0	-1.0461758
-1.3363091	V AH0	-1.6501037
-1.5478153	OW1 AH0	-1.4312909
-0.916446	DH AH0	-2.6379695
-1.788785	EY2 AH0	-0.77214354
-1.5915462	EY1 AH0	-1.1342422
-1.463774	JH AH0	-1.4922464
-1.4330231	SH AH0	-1.5441047
-1.5146785	AA0 AH0	-0.64740217
-1.2841154	IY2 AH0	-0.45046747
-1.3127832	OW0 AH0	-0.80410576
-1.747795	OW2 AH0	-0.2948908
-1.0144362	UW2 AH0	-1.3020693
-1.2064158	UW0 AH0	-0.47937492
-1.4504822	AW2 AH0	-0.29423383
-1.8267142	AA2 AH0	-0.29423383
-1.622098	AY0 AH0	-0.42048752
-1.407804	OY2 AH0	-0.29423383
-0.7187351	ZH AH0	-1.6572766
-1.2774987	<s> N	-2.6392198
-1.0358686	EH1 N	-2.2099342
-1.9787652	L N	-1.1719741
-1.290097	AH0 N	-2.5541024
-1.8048322	N N	-1.338103
-0.96681327	AA1 N	-2.5262656
-1.7341821	T N	-2.0502224
-1.5600034	S N	-1.6422848
-1.0432267	AH1 N	-2.2352784
-1.8146642	M N	-1.4360452
-1.6869767	TH N	-0.43000796
-0.76255363	IH0 N	-2.286237
-1.6383177	NG N	-1.1038815
-1.5637559	ER0 N	-1.0406725
-1.2027338	AW1 N	-1.9229672
-1.778801	D N	-1.4607834
-1.1295805	ER1 N	-1.5211818
-1.8331378	P N	-1.0244108
-0.35746148	AH2 N	-0.95624626
-1.5664678	Z N	-1.9997666
-1.5265123	<UNK> N	-0.98484313
-1.9680465	G N	-0.5941774
-1.7433448	UH1 N	-0.42048752
-1.5109352	AO1 N	-1.2332944
-1.8749207	R N	-1.487354
-1.8300891	K N	-1.0373067
-1.6235238	IY0 N	-1.3601431
-1.0634774	AE1 N	-2.2520027
-1.0329565	IH1 N	-1.8120248
-1.4410851	AY1 N	-1.8200461
-1.5085174	UW1 N	-1.6834086
-1.9831933	F N	-0.87716603
-1.9106375	CH N	-0.6095965
-1.1763598	AY2 N	-0.42476544
-2.5925431	B N	-0.29502228
-1.5175309	IY1 N	-1.6176646
-1.1819125	OY1 N	-1.2484499
-1.837842	V N	-0.8767403
-1.3154435	OW1 N	-2.1036286
-2.4431803	DH N	-0.6337691
-1.3753717	EY2 N	-0.8324051
-1.2463244	UH2 N	-0.42048752
-1.3602026	EY1 N	-1.4885854
-2.1605396	JH N	-0.55029476
-1.9195606	SH N	-0.62257856
-0.48520777	IH2 N	-1.4718792
-1.047723	AA0 N	-0.2931942
-0.8799002	AE2 N	-0.6805216
-1.2758878	IY2 N	-0.72398376
-1.527772	OW0 N	-0.33162364
-1.9033294	AO2 N	-0.29423383
-1.4122641	OW2 N	-0.9628644
-0.47088534	EH2 N	-1.1754826
-1.5575885	UW2 N	-0.3286304
-1.5994595	UW0 N	-0.34086746
-0.6432756	EH0 N	-0.8047534
-0.9351719	AW2 N	-0.6907882
-1.1153826	AA2 N	-0.8534097
-0.9854128	AW0 N	-0.77214354
-0.76908225	AE0 N	-0.7345523
-1.4326581	AY0 N	-0.5173975
-1.3872184	OY2 N	-0.29423383
-1.5460838	AO0 N	-0.4991423
-1.4638134	EY0 N	-0.96455556
-1.1912014	ER2 N	-0.29423383
-0.89836985	<s> W	-2.9849892
-2.0164213	EH1 W	-0.29284823
-1.7562633	L W	-1.8443725
-1.440217	AH0 W	-2.1991994
-1.7899421	N W	-1.8210255
-1.5853615	AA1 W	-1.1957597
-1.6034935	T W	-2.451724
-1.4848224	S W	-2.00192
-2.366932	AH1 W	-0.7839213
-1.8237097	M W	-1.5119789
-1.6430223	TH W	-0.5857966
-1.6597716	NG W	-1.5651153
-1.511697	ER0 W	-1.8032653
-1.7242737	AW1 W	-1.544328
-1.6400862	D W	-1.9988116
-1.7488266	ER1 W	-0.73110795
-1.7347776	P W	-1.0511549
-1.8349559	AH2 W	-0.29423383
-1.6101979	Z W	-2.0001833
-1.4326974	<UNK> W	-1.4358552
-1.876515	G W	-1.1739908
-1.9732677	AO1 W	-0.5066023
-1.9730775	R W	-1.8040124
-1.5033585	K W	-1.8026183
-1.5521853	IY0 W	-1.7307636
-2.602936	AE1 W	-1.2527616
-1.3847669	AY1 W	-2.2986977
-1.5166147	UW1 W	-2.4137478
-1.9470676	F W	-1.3464885
-1.7073534	CH W	-1.359239
-1.6487383	AY2 W	-0.2955488
-2.1442587	B W	-0.7094399
-1.6331855	IY1 W	-2.014636
-1.8407559	OY1 W	-0.46302944
-1.7965045	V W	-1.2796112
-1.387896	OW1 W	-2.0589776
-2.126471	DH W	-0.813133
-1.8058264	EY2 W	-0.44411588
-1.6293106	EY1 W	-1.9693061
-1.8263744	JH W	-0.8802693
-1.8705171	SH W	-0.7276591
-1.6752807	AA0 W	-0.29423383
-1.5438179	IY2 W	-0.4631459
-1.4745013	OW0 W	-1.0916812
-1.9483259	AO2 W	-0.29178756
-1.7563177	OW2 W	-0.34281984
-1.7388883	UW2 W	-0.29423383
-1.6431618	UW0 W	-0.2948908
-1.8433477	AA2 W	-0.28814378
-1.5724238	ZH W	-0.29423383
-1.9977726	<s> AA1	-1.7311876
-1.2361171	HH AA1	-1.9168816
-2.5514991	EH1 AA1	-0.29423383
-1.4570311	L AA1	-1.9883324
-1.8333136	AH0 AA1	-0.7753206
-1.4301885	N AA1	-2.2198737
-1.1460801	W AA1	-2.935416
-1.6660557	AA1 AA1	-0.54245573
-1.5591414	T AA1	-2.1022856
-1.5515747	S AA1	-1.7779757
-2.366932	AH1 AA1	-0.47098202
-1.3593223	M AA1	-2.3325326
-1.7699058	TH AA1	-0.5960523
-2.4690313	IH0 AA1	-0.28814378
-1.5117594	NG AA1	-2.0835927
-1.6129595	ER0 AA1	-1.7897141
-1.8250171	AW1 AA1	-1.4140505
-1.4967299	D AA1	-1.9215056
-2.1245303	ER1 AA1	-0.8184275
-1.4010419	P AA1	-2.0430431
-1.5575913	Z AA1	-2.2811348
-1.4953002	<UNK> AA1	-1.1406257
-1.2523099	G AA1	-2.735539
-2.2359061	AO1 AA1	-0.63499427
-1.3911746	R AA1	-1.8172985
-1.4414027	K AA1	-2.1472342
-1.6313511	IY0 AA1	-1.4444577
-1.0488248	Y AA1	-1.3487858
-2.602936	AE1 AA1	-0.55068964
-1.8626885	AY1 AA1	-1.3292214
-1.621604	UW1 AA1	-1.7040561
-1.4108257	F AA1	-1.7197354
-1.2597866	CH AA1	-1.4176824
-1.793741	AY2 AA1	-0.29423383
-1.3727884	B AA1	-1.9205803
-1.7378438	IY1 AA1	-1.1896905
-1.8407559	OY1 AA1	-0.5965788
-1.745379	V AA1	-1.0060278
-1.8103361	OW1 AA1	-1.4986436
-2.3938425	DH AA1	-0.59624964
-1.9235134	EY2 AA1	-0.29423383
-1.7088476	EY1 AA1	-1.5448123
-1.2549229	JH AA1	-1.3650308
-1.3155379	SH AA1	-1.3813512
-1.6752807	AA0 AA1	-0.29423383
-1.9398103	IY2 AA1	-0.29016432
-1.7268434	OW0 AA1	-0.49165532
-1.6974825	AA2 AA1	-0.29423383
-1.4184747	OY2 AA1	-0.29423383
-1.5724238	ZH AA1	-0.2955488
-1.7763556	<s> T	-2.068472
-1.4388784	EH1 T	-2.1844103
-1.7739788	L T	-1.3486619
-1.4380264	AH0 T	-1.9725529
-1.5839692	N T	-2.4417543
-1.4030119	AA1 T	-2.003235
-1.6764963	T T	-2.1489718
-1.4249564	S T	-2.246444
-1.5102432	AH1 T	-2.5585852
-1.8170581	M T	-1.6485102
-1.6908926	TH T	-1.0276792
-1.2397738	IH0 T	-0.9956068
-1.566287	NG T	-1.9695215
-1.507948	ER0 T	-1.2025124
-0.8062643	AW1 T	-1.9310644
-1.6851611	D T	-1.6694982
-1.2211844	ER1 T	-1.3857521
-1.7292063	P T	-1.2754223
-1.1793705	AH2 T	-0.904013
-1.5803078	Z T	-1.8849667
-1.4304475	<UNK> T	-0.9940797
-2.0370626	G T	-0.9268407
-1.5819541	UH1 T	-2.0323544
-1.2092515	AO1 T	-1.5049233
-1.8420388	R T	-1.6385777
-1.6749573	K T	-1.5360085
-1.5241593	IY0 T	-1.5347437
-1.0100526	AE1 T	-2.5710034
-0.91327137	IH1 T	-2.6611702
-1.4960636	AY1 T	-2.1567297
-1.510662	UW1 T	-1.6796466
-1.7493204	F T	-1.6870925
-1.7938823	CH T	-0.7011841
-1.1796817	AY2 T	-0.9609871
-2.2933505	B T	-0.4004464
-1.2089307	IY1 T	-1.8737351
-1.5601466	OY1 T	-0.49535397
-1.6910306	V T	-1.2487025
-1.4492579	OW1 T	-1.4516265
-2.45962	DH T	-0.61662763
-0.88757926	EY2 T	-1.1649776
-1.2422327	EY1 T	-1.5341208
-1.7577807	JH T	-0.88349134
-1.8588742	SH T	-1.0607854
-1.1463779	IH2 T	-0.84817284
-1.5014261	AA0 T	-0.3238837
-1.1609974	AE2 T	-0.43586892
-1.2791601	IY2 T	-0.45481086
-1.3090336	OW0 T	-0.39986533
-1.4674653	AO2 T	-0.35979497
-1.4153935	OW2 T	-0.6333879
-1.546644	EH2 T	-0.6532237
-1.0106655	UW2 T	-0.29248512
-1.0948794	UW0 T	-0.6240391
-0.93780404	AW2 T	-0.29423383
-1.6716074	AA2 T	-0.729206
-1.1847042	AW0 T	-0.29423383
-1.6114215	AY0 T	-0.29117814
-1.5436264	ZH T	-0.28814378
-0.36374086	EY0 T	-0.84763885
-1.1965437	ER2 T	-0.28814378
-1.5280066	<s> S	-2.2066855
-1.183744	EH1 S	-1.7450064
-1.7982576	L S	-1.4820008
-1.4380264	AH0 S	-1.9681494
-1.6567715	N S	-1.6675307
-1.4279078	AA1 S	-1.2222381
-1.6124116	T S	-2.037754
-1.7602056	S S	-1.3661797
-1.1179799	AH1 S	-1.8222345
-1.7397189	M S	-1.3482909
-1.5827086	TH S	-0.4750681
-1.2108268	IH0 S	-1.1122203
-1.566287	NG S	-1.1029977
-1.4903982	ER0 S	-1.4647067
-1.5055717	AW1 S	-1.4730229
-1.6683607	D S	-1.6795473
-1.1890947	ER1 S	-1.5268024
-1.6635897	P S	-1.4017266
-1.1793705	AH2 S	-0.4991423
-1.5549593	Z S	-1.9111593
-1.3634013	<UNK> S	-0.9651808
-1.9725447	G S	-0.68044525
-1.7510486	UH1 S	-1.67576
-1.0903311	AO1 S	-1.0673168
-1.9179368	R S	-1.5294638
-1.5858874	K S	-1.9334407
-1.5021129	IY0 S	-1.4366848
-1.1974636	AE1 S	-1.5449826
-1.4090053	IH1 S	-2.3098228
-1.417256	AY1 S	-1.6555063
-1.4532946	UW1 S	-1.9259865
-1.8150953	F S	-0.53217566
-1.6582159	CH S	-0.5438561
-1.7575804	AY2 S	-1.7215174
-2.0649803	B S	-0.41178495
-1.4330376	IY1 S	-1.7599972
-1.3334733	OY1 S	-0.68687874
-1.6504313	V S	-1.4171574
-1.4668943	OW1 S	-1.4890355
-2.3559453	DH S	-0.80910575
-1.1272614	EY2 S	-0.75026244
-1.2509706	UH2 S	-0.5382577
-1.4026647	EY1 S	-1.4451401
-1.8799402	JH S	-0.29207152
-1.9243914	SH S	-0.45104772
-1.419598	IH2 S	-1.1914701
-1.198452	AA0 S	-0.70123184
-1.0723761	AE2 S	-0.6128679
-1.4281148	IY2 S	-0.72535574
-1.4645962	OW0 S	-0.64675415
-1.91488	AO2 S	-1.0029873
-1.3454792	OW2 S	-1.3469318
-1.1190635	EH2 S	-1.1319443
-1.703552	UW2 S	-0.29423383
-1.7285259	UW0 S	-0.34587896
-0.7082628	EH0 S	-0.2923658
-1.2725921	AW2 S	-0.60813355
-1.80756	AA2 S	-0.29423383
-1.1847042	AW0 S	-0.29423383
-1.5436264	ZH S	-0.29423383
-1.1965437	ER2 S	-0.29423383
-2.6918824	<s> AH1	-1.5088631
-1.133844	HH AH1	-1.9189051
-1.4939095	L AH1	-1.6528324
-1.9719995	AH0 AH1	-2.13959
-1.537506	N AH1	-2.211641
-1.105718	W AH1	-3.9226756
-2.0859542	AA1 AH1	-0.40219033
-1.5819812	T AH1	-2.2313678
-1.4963378	S AH1	-2.526514
-2.1179454	AH1 AH1	-0.29219434
-1.4239597	M AH1	-2.042787
-1.3412839	TH AH1	-1.389782
-1.585627	NG AH1	-1.6378165
-1.7181163	ER0 AH1	-1.2807374
-1.833449	AW1 AH1	-0.55608964
-1.4077489	D AH1	-2.0864515
-1.8905834	ER1 AH1	-1.1145662
-1.4617249	P AH1	-1.7905644
-1.671624	Z AH1	-1.6589538
-1.769301	<UNK> AH1	-0.7063768
-1.435576	G AH1	-1.1341717
-1.3685119	R AH1	-2.1875434
-1.4235264	K AH1	-2.2941337
-1.6965332	IY0 AH1	-1.4740461
-1.2441475	Y AH1	-1.815158
-2.626496	AE1 AH1	-0.29117814
-2.0271616	AY1 AH1	-0.87098294
-1.8240718	UW1 AH1	-1.2580695
-1.4411614	F AH1	-1.6462497
-1.3866503	CH AH1	-0.9944661
-1.3392621	B AH1	-2.252426
-1.9396423	IY1 AH1	-1.0688475
-1.9744956	OY1 AH1	-0.29423383
-1.8014745	V AH1	-0.98242664
-1.9541701	OW1 AH1	-1.182389
-2.136307	DH AH1	-1.12894
-1.7126057	EY1 AH1	-1.2146871
-1.0909278	JH AH1	-2.5191145
-1.3728704	SH AH1	-1.4094921
-2.0751574	IY2 AH1	-0.29423383
-2.1325786	OW0 AH1	-0.28814378
-2.1812718	OW2 AH1	-0.28814378
-1.7559526	UW2 AH1	-0.42048752
-1.792742	UW0 AH1	-0.29423383
-1.5861726	ZH AH1	-0.29423383
-1.6543185	<s> M	-2.1976123
-1.1185405	EH1 M	-1.7590094
-1.8798411	L M	-1.6236802
-1.4150529	AH0 M	-2.2609844
-1.7438713	N M	-1.7326277
-1.4539365	AA1 M	-1.8873461
-1.7352322	T M	-2.0885212
-1.5732139	S M	-1.7341597
-1.3459436	AH1 M	-2.1904237
-1.8455929	M M	-1.7496551
-1.9289998	TH M	-0.29479685
-1.5874566	IH0 M	-1.8657442
-1.5651064	NG M	-1.2085178
-1.6078041	ER0 M	-1.0708818
-1.6295849	AW1 M	-1.5042403
-1.7204633	D M	-1.5621877
-1.37955	ER1 M	-0.8255768
-1.8059313	P M	-1.2977614
-1.80396	AH2 M	-0.29423383
-1.5672032	Z M	-1.8415089
-1.5457866	<UNK> M	-0.94831
-1.9714158	G M	-0.54035914
-1.7491097	UH1 M	-1.37473
-1.820362	AO1 M	-0.42476544
-1.9169999	R M	-1.5815035
-1.8085457	K M	-1.3971288
-1.5974444	IY0 M	-1.6413459
-1.1671216	AE1 M	-1.288262
-1.3799212	IH1 M	-1.4818016
-1.4170469	AY1 M	-1.8436453
-1.48053	UW1 M	-1.6424025
-1.9861274	F M	-0.70957875
-1.7929367	CH M	-0.9062998
-1.7544376	AY2 M	-0.58484185
-2.6049054	B M	-0.29117814
-1.658075	IY1 M	-1.2348017
-1.5581393	OY1 M	-0.29374653
-1.6902561	V M	-1.589425
-1.4157268	OW1 M	-1.7394183
-2.4554513	DH M	-1.2768593
-1.5118855	EY2 M	-0.36183757
-1.2498044	UH2 M	-0.89760876
-1.3420383	EY1 M	-1.4476824
-2.0487082	JH M	-0.5797189
-1.8010423	SH M	-0.8701833
-0.7658682	IH2 M	-0.84426194
-1.7333455	AE2 M	-0.38219154
-1.6546773	IY2 M	-0.29178756
-1.5308721	OW0 M	-0.29171354
-1.9119635	AO2 M	-0.5382577
-1.4978132	OW2 M	-0.65032387
-1.8634621	EH2 M	-0.29423383
-1.7004777	UW2 M	-0.90534294
-1.3367451	UW0 M	-0.6614467
-1.1496397	EH0 M	-0.74218035
-1.8044482	AA2 M	-0.29016432
-1.1358515	AE0 M	-0.59360164
-1.6096673	AY0 M	-0.28814378
-1.3932922	OY2 M	-0.29423383
-1.7304571	AO0 M	-0.28814378
-1.5411007	ZH M	-0.29423383
-0.93146724	EY0 M	-0.7215175
-2.2201755	<s> TH	-2.0523539
-1.9120213	EH1 TH	-0.2930459
-2.0327108	L TH	-1.3855659
-1.7083299	AH0 TH	-1.2304502
-1.9758618	N TH	-1.044835
-2.0794628	AA1 TH	-0.9941896
-1.8481371	T TH	-1.8610554
-1.9602425	S TH	-1.4912872
-2.4812796	AH1 TH	-2.140647
-1.9984686	M TH	-2.1357214
-2.3260424	TH TH	-0.2955488
-2.4724956	IH0 TH	-1.5173975
-1.8885244	NG TH	-1.4187456
-1.7458371	ER0 TH	-1.1277585
-1.8266904	AW1 TH	-1.001558
-1.9398061	D TH	-1.2172333
-1.4413801	ER1 TH	-1.0581367
-2.033026	P TH	-0.6156446
-1.7214435	Z TH	-1.6342491
-1.7675241	<UNK> TH	-0.8464562
-2.1320205	G TH	-0.961855
-1.9753044	AO1 TH	-0.569516
-2.0805748	R TH	-0.97939456
-2.1363904	K TH	-1.1083305
-1.6940928	IY0 TH	-1.8676455
-1.8887101	AE1 TH	-1.0910583
-2.6282525	IH1 TH	-0.29423383
-1.3962575	AY1 TH	-2.3295267
-1.7098671	UW1 TH	-1.8770019
-2.1238873	F TH	-0.336415
-2.2343209	CH TH	-0.5382577
-2.750447	B TH	-0.29423383
-1.7385665	IY1 TH	-1.0445597
-1.954089	OY1 TH	-0.29423383
-2.0992713	V TH	-1.2116736
-1.8527019	OW1 TH	-1.0746593
-2.5130389	DH TH	-0.42048752
-1.8657382	EY1 TH	-1.0436956
-2.0729496	JH TH	-0.29117814
-2.0193458	SH TH	-0.36249554
-2.061197	IH2 TH	-0.29423383
-1.9435858	IY2 TH	-0.29117814
-2.116308	OW0 TH	-0.8598202
-1.9514982	AO2 TH	-0.5055798
-2.163329	OW2 TH	-0.5173975
-1.7422479	UW2 TH	-0.29423383
-1.6765116	AE0 TH	-0.28814378
-1.5751389	ZH TH	-0.29423383
-1.2129766	ER2 TH	-0.29423383
-2.3867218	<s> IH0	-2.1149914
-1.5975312	HH IH0	-0.9658931
-1.6386747	L IH0	-1.7827135
-1.8343018	AH0 IH0	-1.1637753
-1.6014446	N IH0	-2.214199
-1.4010743	W IH0	-1.4031358
-2.215069	AA1 IH0	-0.2955488
-1.6804948	T IH0	-2.478235
-1.6310723	S IH0	-1.9099299
-2.374594	AH1 IH0	-0.6635255
-1.659646	M IH0	-1.9723272
-1.7722714	TH IH0	-2.6235883
-1.5819345	NG IH0	-2.1897333
-1.5501655	ER0 IH0	-1.7370428
-1.8283702	AW1 IH0	-0.72901624
-1.5695677	D IH0	-1.9067194
-1.7523227	ER1 IH0	-1.1342663
-1.8144205	P IH0	-2.0951934
-1.5458453	Z IH0	-2.2545376
-1.5894557	<UNK> IH0	-1.540535
-1.5537859	G IH0	-1.5223132
-1.7371347	AO1 IH0	-1.3686559
-1.3561919	R IH0	-1.9454322
-1.7929214	K IH0	-2.5463438
-1.5530639	IY0 IH0	-1.5660998
-2.6122072	AE1 IH0	-0.8692509
-1.8638564	AY1 IH0	-2.2853189
-1.622994	UW1 IH0	-2.3280787
-1.5805677	F IH0	-1.2900035
-1.5320851	CH IH0	-1.5159578
-1.8006518	AY2 IH0	-0.5173975
-1.3276069	B IH0	-2.1857827
-1.7392906	IY1 IH0	-1.6026751
-1.4521166	OY1 IH0	-0.9153375
-1.586963	V IH0	-2.0369625
-1.8534447	OW1 IH0	-2.701618
-1.9923921	DH IH0	-0.8974207
-1.8128349	EY2 IH0	-0.28814378
-1.6686231	EY1 IH0	-2.1847188
-1.5926591	JH IH0	-1.3885812
-1.7623814	SH IH0	-1.6817504
-1.9473944	IY2 IH0	-0.96455556
-1.8635985	OW0 IH0	-0.9487613
-1.9546937	AO2 IH0	-0.29423383
-2.0427258	OW2 IH0	-0.29423383
-1.7799559	UW0 IH0	-0.28814378
-1.4657922	AW2 IH0	-0.29423383
-1.4228175	OY2 IH0	-0.28814378
-2.2301917	EH1 NG	-0.9153375
-3.1507533	AH0 NG	-0.8184275
-2.3025563	AA1 NG	-1.2495279
-1.3109126	AH1 NG	-1.4271301
-0.8676856	IH0 NG	-2.3818953
-1.7818265	AO1 NG	-1.2346965
-1.2226377	AE1 NG	-1.8402821
-1.2256968	IH1 NG	-2.1219165
-1.4546866	IH2 NG	-1.0318434
-1.3068217	AE2 NG	-1.5780953
-2.0889196	AO2 NG	-0.29423383
-1.7514098	AE0 NG	-1.0488764
-3.8904974	<s> ER0	-1.1245234
-1.5434808	HH ER0	-1.3027273
-1.7373896	L ER0	-1.2691796
-2.9122543	AH0 ER0	-0.29423383
-1.8637096	N ER0	-1.0797437
-2.0133214	W ER0	-1.5682209
-1.6682748	T ER0	-1.9065409
-1.6325473	S ER0	-1.0822066
-1.6819351	M ER0	-0.94757545
-1.7782425	TH ER0	-0.3580866
-1.6701579	NG ER0	-1.1756569
-2.4289913	ER0 ER0	-0.29117814
-0.981288	AW1 ER0	-1.2826452
-1.747137	D ER0	-1.4362241
-1.8954364	ER1 ER0	-0.5965788
-1.5465621	P ER0	-1.355827
-1.7057667	Z ER0	-1.2844783
-2.8573854	<UNK> ER0	-0.29423383
-1.4725902	G ER0	-1.3692937
-2.155106	R ER0	-0.9179626
-1.7159309	K ER0	-1.0810806
-1.9112368	IY0 ER0	-0.6744151
-1.2019188	Y ER0	-1.1290174
-1.7756145	AY1 ER0	-1.3563056
-1.9763073	UW1 ER0	-0.49384713
-1.4893278	F ER0	-1.2763898
-1.6326134	CH ER0	-1.2091309
-1.6662723	AY2 ER0	-0.7345523
-1.6300746	B ER0	-1.3006974
-2.564571	IY1 ER0	-0.69315964
-1.9850701	OY1 ER0	-0.29423383
-1.4239055	V ER0	-1.7051896
-2.166107	OW1 ER0	-0.7620076
-1.574631	DH ER0	-1.8038666
-1.9409713	EY1 ER0	-0.5534724
-1.4428893	JH ER0	-0.9851081
-1.8780923	SH ER0	-0.63257766
-2.0855484	IY2 ER0	-0.28814378
-2.2545679	OW0 ER0	-0.29423383
-1.7629707	UW2 ER0	-0.29423383
-1.4770682	AW2 ER0	-0.29423383
-0.33672193	AW0 ER0	-0.5173975
-1.4241002	ZH ER0	-0.5382577
-3.0394049	<s> AW1	-1.4974009
-1.20002	HH AW1	-1.931139
-1.6960151	L AW1	-1.8794087
-2.0154598	AH0 AW1	-1.166266
-1.4315977	N AW1	-1.8986193
-1.4641263	W AW1	-0.97367495
-2.6083496	AA1 AW1	-0.29423383
-1.6053088	T AW1	-2.2856655
-1.662541	S AW1	-1.6703707
-1.5418024	M AW1	-2.0190866
-1.5967302	TH AW1	-1.37473
-1.7714096	NG AW1	-1.9661365
-1.4316264	ER0 AW1	-2.1802125
-2.347903	AW1 AW1	-0.29423383
-1.5096239	D AW1	-2.8149393
-2.1544876	ER1 AW1	-1.0488764
-1.6319582	P AW1	-1.1092931
-1.7235487	Z AW1	-2.0712805
-1.9674162	<UNK> AW1	-0.79345053
-1.8829048	G AW1	-0.7055352
-2.3823442	AO1 AW1	-0.29423383
-1.4457316	R AW1	-1.660976
-1.5397478	K AW1	-1.3518482
-1.7328697	IY0 AW1	-1.0091639
-2.4606812	Y AW1	-0.29117814
-2.63629	AE1 AW1	-0.29521963
-2.3908443	AY1 AW1	-0.8184275
-1.9763073	UW1 AW1	-1.2655855
-1.5621982	F AW1	-1.7105222
-1.8703595	CH AW1	-1.227797
-1.6759061	B AW1	-2.0371742
-2.010148	IY1 AW1	-1.2655855
-1.9850701	OY1 AW1	-0.28814378
-1.8034786	V AW1	-1.0470742
-2.0842767	OW1 AW1	-1.7340056
-1.9995934	DH AW1	-0.61724156
-1.956652	EY2 AW1	-0.29423383
-2.1234004	EY1 AW1	-0.9553294
-2.567141	JH AW1	-0.29423383
-1.6043503	SH AW1	-1.1301814
-2.0855484	IY2 AW1	-0.29423383
-2.1409485	OW0 AW1	-0.28814378
-1.8014802	UW0 AW1	-0.29423383
-1.4721835	<s> D	-2.4186146
-1.2394005	EH1 D	-1.8588214
-1.7282431	L D	-1.7925373
-1.4494754	AH0 D	-1.8559203
-1.6560947	N D	-2.4576576
-1.4271898	AA1 D	-0.9521852
-1.7509747	T D	-2.2055736
-1.7792673	S D	-1.3263073
-1.5969642	AH1 D	-0.99718565
-1.7885936	M D	-1.0953774
-1.6889302	TH D	-1.265345
-1.5870037	IH0 D	-1.1813247
-1.563929	NG D	-1.2500887
-1.4729033	ER0 D	-1.2733095
-1.503974	AW1 D	-1.2086847
-1.7588909	D D	-1.6613868
-1.3788067	ER1 D	-1.2505311
-1.8991827	P D	-0.85035515
-1.8014741	AH2 D	-0.29423383
-1.5544825	Z D	-1.5072913
-1.5455207	<UNK> D	-1.1625612
-1.9702898	G D	-0.726864
-0.80313265	UH1 D	-1.9484868
-1.8189354	AO1 D	-0.2909014
-1.916065	R D	-1.661117
-1.7654679	K D	-1.0890521
-1.5013314	IY0 D	-1.4848922
-1.3026017	AE1 D	-1.7369975
-1.5912764	IH1 D	-1.8890309
-1.4168379	AY1 D	-2.0445864
-1.4017912	UW1 D	-1.897724
-2.041133	F D	-0.49953708
-1.8483481	CH D	-0.7597589
-1.1780175	AY2 D	-0.33126605
-2.0625756	B D	-0.47655943
-1.5184016	IY1 D	-1.7038964
-1.2511147	OY1 D	-0.57725435
-1.6490214	V D	-0.7672233
-1.52386	OW1 D	-1.233942
-2.3493967	DH D	-0.6228538
-1.3779596	EY2 D	-0.41778693
-0.69925106	UH2 D	-1.3310763
-1.5552254	EY1 D	-1.4566312
-1.8774879	JH D	-0.40835193
-2.091929	SH D	-0.6107531
-1.6350056	AA0 D	-0.29423383
-1.8767056	AE2 D	-0.29117814
-1.2775209	IY2 D	-0.47029698
-1.5298362	OW0 D	-0.3351879
-1.9090663	AO2 D	-0.29423383
-1.413826	OW2 D	-0.62611896
-1.2812833	EH2 D	-0.36048725
-1.2645849	UW2 D	-0.29521963
-1.335234	UW0 D	-0.41824833
-1.6650195	EH0 D	-0.29016432
-1.8013586	AA2 D	-2.2400315
-0.6940871	AE0 D	-0.5478441
-0.26335654	AY0 D	-1.6934887
-1.3912581	OY2 D	-0.29423383
-1.729006	AO0 D	-0.29423383
-1.5385897	ZH D	-0.94843215
-1.4666277	EY0 D	-0.6844205
-1.0097846	ER2 D	-0.2931942
-4.2530236	<s> ER1	-0.5294439
-1.2016792	HH ER1	-1.6209553
-1.8697188	L ER1	-1.2827716
-2.4490163	AH0 ER1	-0.4991423
-1.8451289	N ER1	-1.407629
-1.2861085	W ER1	-1.5656781
-1.6718949	T ER1	-1.8146696
-1.6663572	S ER1	-1.4533869
-2.1148586	M ER1	-0.49376875
-1.226673	TH ER1	-1.4415755
-1.6621366	D ER1	-1.5918757
-2.3379717	ER1 ER1	-0.29423383
-1.5664827	P ER1	-1.315406
-2.3469925	Z ER1	-1.0552167
-1.4401965	G ER1	-2.4234216
-2.7464397	R ER1	-0.28814378
-1.9908309	K ER1	-0.87919426
-2.2443411	IY0 ER1	-0.49669158
-2.165479	Y ER1	-0.29423383
-2.9520566	AY1 ER1	-0.28814378
-2.5166914	UW1 ER1	-0.44794783
-1.3752842	F ER1	-1.6997385
-1.7223465	CH ER1	-1.2655855
-1.5200843	B ER1	-1.7927576
-2.6270094	IY1 ER1	-0.28814378
-1.7149336	V ER1	-0.3276103
-2.7098045	OW1 ER1	-0.29423383
-2.6866834	EY1 ER1	-0.29423383
-1.5039505	JH ER1	-0.92489815
-1.3580406	SH ER1	-1.5181336
-2.2506444	OW2 ER1	-0.29423383
-1.7551603	<s> P	-2.0543692
-1.5890218	EH1 P	-1.3600452
-1.8251041	L P	-1.4687229
-1.4156184	AH0 P	-2.0881042
-1.7451147	N P	-1.4945153
-1.3364711	AA1 P	-1.4703377
-1.7524308	T P	-1.7320223
-1.5260789	S P	-1.7282509
-0.9810295	AH1 P	-1.9063057
-1.7407246	M P	-1.4462794
-1.6928637	TH P	-0.75266266
-1.8579476	IH0 P	-0.68628687
-1.6467725	NG P	-0.9061429
-1.5660774	ER0 P	-1.3061018
-1.8102404	AW1 P	-0.9002457
-1.6858693	D P	-1.4167905
-1.7334335	ER1 P	-0.763115
-1.9021701	P P	-0.7452499
-1.1805556	AH2 P	-0.55420893
-1.6077665	Z P	-1.6982818
-1.528042	<UNK> P	-0.8852069
-2.1160002	G P	-0.7686643
-1.955355	AO1 P	-0.29117814
-2.067145	R P	-1.5577551
-1.8099413	K P	-1.0185584
-1.598908	IY0 P	-1.2059884
-1.213749	AE1 P	-1.6810148
-1.509884	IH1 P	-1.2306895
-1.4965652	AY1 P	-1.4410348
-1.1828454	UW1 P	-1.7608235
-2.110616	F P	-0.3370319
-1.9952581	CH P	-0.5158523
-1.763935	AY2 P	-0.29423383
-2.6176298	B P	-0.29423383
-1.5984991	IY1 P	-1.6501889
-1.5641891	OY1 P	-0.3251393
-1.7375429	V P	-0.98528165
-1.3567387	OW1 P	-1.5594623
-2.468079	DH P	-0.46442825
-1.280904	EY2 P	-0.8962563
-1.5275853	EY1 P	-1.4804924
-2.0541835	JH P	-0.45971838
-2.099133	SH P	-0.32965288
-1.571501	IH2 P	-0.68416405
-1.5057987	AA0 P	-0.29423383
-1.2738141	AE2 P	-0.6143987
-1.660566	IY2 P	-0.5699529
-1.7124293	OW0 P	-0.3276103
-1.7774717	AO2 P	-0.29016432
-0.73612756	UH0 P	-0.29423383
-1.4169667	OW2 P	-0.6518808
-1.8689152	EH2 P	-0.29016432
-1.5710212	UW2 P	-0.29502228
-1.6164165	UW0 P	-0.29016432
-1.6720936	EH0 P	-0.96455556
-1.0317707	AA2 P	-0.84224105
-1.3994523	OY2 P	-0.29423383
-1.5487223	ZH P	-0.29423383
-1.1992397	ER2 P	-0.29423383
-4.66116	<s> AH2	-0.5173975
-3.018305	L AH2	-0.29423383
-3.0345156	AH0 AH2	-0.29423383
-2.3441403	N AH2	-0.8464562
-1.5412323	W AH2	-1.67576
-2.2905233	T AH2	-1.4784895
-2.8628714	M AH2	-1.0548875
-2.3830845	NG AH2	-0.5965788
-2.76975	ER0 AH2	-0.28814378
-2.5316973	D AH2	-0.29284823
-2.3805528	ER1 AH2	-0.29423383
-2.973352	P AH2	-0.61529136
-2.1211565	Z AH2	-1.0737001
-2.8382134	G AH2	-0.29423383
-2.5132964	R AH2	-0.49669158
-2.4320028	K AH2	-0.9587974
-2.6908736	IY0 AH2	-0.5965788
-2.3194382	AY1 AH2	-0.5965788
-2.5506864	UW1 AH2	-0.89760876
-2.3737998	B AH2	-0.8816264
-2.3728182	IY1 AH2	-1.2655855
-2.7126114	V AH2	-0.29423383
-2.8764682	OW1 AH2	-0.29423383
-2.6909292	JH AH2	-0.29423383
-2.1923018	IY2 AH2	-0.29423383
-3.480709	<s> Z	-1.1801554
-1.8228825	EH1 Z	-1.1407274
-1.6540254	L Z	-1.5380623
-1.5925939	AH0 Z	-1.2290995
-1.6283863	N Z	-1.5925012
-2.2020595	AA1 Z	-1.6370296
-1.8259364	T Z	-2.4670038
-2.0230665	S Z	-0.5744284
-1.6551338	AH1 Z	-1.7500249
-1.7677336	M Z	-1.2621411
-2.069299	TH Z	-0.29423383
-1.4739761	IH0 Z	-0.8855311
-1.5746425	NG Z	-1.319743
-1.443684	ER0 Z	-1.5057306
-1.6381888	AW1 Z	-0.76632077
-1.783656	D Z	-1.4381483
-1.7419177	ER1 Z	-0.80677414
-2.1983747	P Z	-0.29259402
-1.8243762	AH2 Z	-0.29502228
-2.3142679	Z Z	-0.38045976
-1.7148471	G Z	-1.1638452
-1.7301136	AO1 Z	-1.5472381
-1.8843666	R Z	-2.0324163
-1.9431889	K Z	-0.63126576
-1.5504336	IY0 Z	-1.6097475
-1.154095	AE1 Z	-1.3436781
-0.8860304	IH1 Z	-2.302251
-1.6130669	AY1 Z	-1.1122067
-1.5144405	UW1 Z	-1.4689689
-2.1172009	F Z	-0.29354045
-2.4474978	CH Z	-0.29016432
-0.66519904	AY2 Z	-0.6522651
-1.7783521	B Z	-0.45823503
-1.3311629	IY1 Z	-1.9537342
-1.3419114	OY1 Z	-1.4360508
-1.6178662	V Z	-0.85225135
-1.6730533	OW1 Z	-1.7556697
-2.1187599	DH Z	-0.8112211
-1.3898001	EY2 Z	-0.6089917
-1.8025613	EY1 Z	-0.8633752
-2.5058537	JH Z	-0.28814378
-2.553385	SH Z	-0.29502228
-2.0463824	IH2 Z	-0.59624964
-1.516927	AA0 Z	-0.34722078
-1.6705614	IY2 Z	-0.4582355
-1.3134112	OW0 Z	-0.6678734
-1.2893674	OW2 Z	-0.4977185
-2.035396	EH2 Z	-0.28814378
-1.5825416	UW2 Z	-0.35103783
-1.6310712	UW0 Z	-0.41070485
-1.4526366	AW2 Z	-0.29117814
-1.6878941	AA2 Z	-0.29219434
-1.6239033	AY0 Z	-0.29423383
-1.4099172	OY2 Z	-0.29423383
-1.5971633	<s> <UNK>	-1.9889185
-2.0354562	L <UNK>	-0.63206947
-1.6119857	AH0 <UNK>	-1.2571719
-1.770676	N <UNK>	-0.7827043
-1.6260996	AA1 <UNK>	-0.38204098
-1.8101972	T <UNK>	-1.078296
-1.9042624	S <UNK>	-0.69239205
-2.3823934	AH1 <UNK>	-0.43439114
-1.8879834	M <UNK>	-0.7402561
-2.0885205	TH <UNK>	-0.29423383
-1.7657588	NG <UNK>	-0.70984274
-1.6894745	ER0 <UNK>	-0.61401904
-1.8317494	AW1 <UNK>	-0.4293267
-1.8328737	D <UNK>	-0.8057259
-2.1413949	ER1 <UNK>	-0.4178019
-1.9495703	P <UNK>	-0.3929904
-1.8457998	AH2 <UNK>	-0.29423383
-1.6877117	Z <UNK>	-1.0251031
-1.4335184	<UNK> <UNK>	-1.1384562
-2.0571935	G <UNK>	-0.46918255
-2.2510471	AO1 <UNK>	-0.29423383
-2.0846858	R <UNK>	-0.96490437
-1.8642201	K <UNK>	-0.6457452
-1.6053073	IY0 <UNK>	-0.642202
-2.6216807	AE1 <UNK>	-0.68831104
-1.5622244	AY1 <UNK>	-0.7591704
-1.5187997	UW1 <UNK>	-0.90342224
-2.060493	F <UNK>	-0.41205898
-1.8669859	CH <UNK>	-0.49413452
-2.6775324	B <UNK>	-0.29423383
-1.7027417	IY1 <UNK>	-0.7157878
-1.9693034	OY1 <UNK>	-0.29423383
-1.8590031	V <UNK>	-0.5435559
-1.7072233	OW1 <UNK>	-0.9110726
-2.5274875	DH <UNK>	-0.5073573
-1.8199581	EY2 <UNK>	-0.29016432
-1.8100544	EY1 <UNK>	-0.8440426
-1.8987881	JH <UNK>	-0.2909014
-2.1234074	SH <UNK>	-0.2948908
-2.0700538	IY2 <UNK>	-0.29117814
-1.7334065	OW0 <UNK>	-0.44115034
-1.9611562	AO2 <UNK>	-0.46928546
-2.176716	OW2 <UNK>	-0.29423383
-1.788438	UW0 <UNK>	-0.29423383
-1.8571289	AA2 <UNK>	-0.29423383
-1.5833877	ZH <UNK>	-0.29423383
-1.7688594	<s> G	-2.1059713
-1.1046586	EH1 G	-1.1809394
-1.8837078	L G	-1.7389925
-1.4274528	AH0 G	-2.1104436
-1.7273022	N G	-1.6006296
-1.5822744	AA1 G	-1.2692479
-1.8250735	T G	-2.00155
-1.8483213	S G	-1.4842837
-1.3215271	AH1 G	-0.9852026
-1.8809748	M G	-1.7718861
-2.3904407	TH G	-0.34637216
-1.271883	IH0 G	-1.1488413
-1.3511062	NG G	-1.5891774
-1.7121018	ER0 G	-1.2817354
-1.9430672	AW1 G	-0.7277028
-1.8279309	D G	-1.4890239
-1.8648196	ER1 G	-0.8850493
-1.98158	P G	-0.94443744
-1.8191814	AH2 G	-0.506073
-1.5686779	Z G	-2.063934
-1.5109941	<UNK> G	-1.3141966
-1.9782337	G G	-0.9773121
-1.7608745	UH1 G	-2.0879405
-1.9612442	AO1 G	-1.3727856
-2.0711305	R G	-1.7025028
-1.9419242	K G	-1.0515497
-1.5742255	IY0 G	-1.617768
-1.5034841	AE1 G	-1.3440751
-1.4745309	IH1 G	-1.5464519
-1.4064258	AY1 G	-1.8681229
-1.6585582	UW1 G	-2.2564225
-2.4059625	F G	-0.36249554
-1.9219309	CH G	-0.29386827
-1.7736448	AY2 G	-0.29423383
-2.7113523	B G	-0.2955488
-1.600074	IY1 G	-1.9325676
-1.8183123	OY1 G	-0.5419838
-1.7906145	V G	-1.1885941
-1.5696745	OW1 G	-1.3760538
-2.4810853	DH G	-0.39163646
-1.8969921	EY2 G	-0.29423383
-1.6631997	EY1 G	-1.420585
-2.0597289	JH G	-0.35103783
-2.227581	SH G	-0.5271291
-1.1482154	IH2 G	-0.7523235
-1.6562271	AA0 G	-0.29423383
-1.8961042	AE2 G	-0.7215175
-1.5348487	IY2 G	-0.35979497
-1.7171811	OW0 G	-0.5242441
-1.4727196	AO2 G	-0.69301873
-2.133609	OW2 G	-0.29423383
-2.0300617	EH2 G	-0.29423383
-1.7192585	UW2 G	-0.29016432
-1.7475928	UW0 G	-0.29423383
-1.6774758	EH0 G	-0.42048752
-1.5564799	ZH G	-0.42048752
-1.7115717	HH UH1	-1.3499064
-1.4655974	L UH1	-3.3681126
-1.1951785	W UH1	-2.4748452
-1.9328592	T UH1	-1.6489996
-3.082871	M UH1	-0.29423383
-2.2197661	D UH1	-0.8184275
-1.4208508	P UH1	-2.874379
-3.1959748	Z UH1	-0.39212966
-1.3645092	G UH1	-2.893056
-2.8615339	R UH1	-0.8184275
-1.5720617	K UH1	-2.80657
-1.0247916	Y UH1	-3.2229192
-1.4813828	F UH1	-1.9634802
-1.3938922	B UH1	-2.407539
-1.2600768	SH UH1	-2.3434722
-2.279218	<s> AO1	-1.8884797
-1.2771341	HH AO1	-2.1227863
-1.4465054	L AO1	-1.9294984
-1.89743	AH0 AO1	-1.1508659
-1.601743	N AO1	-1.6756778
-1.2553905	W AO1	-2.3240886
-2.4773433	AA1 AO1	-0.42048752
-1.6042705	T AO1	-2.5267699
-1.5288628	S AO1	-1.3172348
-2.4912763	AH1 AO1	-0.2955488
-1.4012513	M AO1	-2.572485
-1.3138287	TH AO1	-1.6654534
-1.7638915	NG AO1	-1.6915543
-1.6889592	ER0 AO1	-1.3319815
-2.219101	AW1 AO1	-0.5587902
-1.4757338	D AO1	-2.2315388
-2.1371171	ER1 AO1	-0.64233625
-1.5300531	P AO1	-1.5625559
-1.6252497	Z AO1	-2.2334008
-1.6111957	<UNK> AO1	-0.93404156
-1.4526633	G AO1	-1.9688036
-2.2472122	AO1 AO1	-0.28814378
-1.5549829	R AO1	-1.5448989
-1.4823664	K AO1	-2.6151667
-1.730217	IY0 AO1	-1.1677306
-0.94784445	Y AO1	-3.222748
-2.616918	AE1 AO1	-0.5294439
-1.7472395	AY1 AO1	-0.83069474
-1.711571	UW1 AO1	-1.4343572
-1.2593929	F AO1	-2.8575242
-1.2928839	CH AO1	-1.5015328
-1.4245999	B AO1	-2.2353625
-1.7815902	IY1 AO1	-1.37473
-1.9641725	OY1 AO1	-0.69315964
-1.7994796	V AO1	-1.3996526
-1.9004794	OW1 AO1	-1.0676259
-2.5226178	DH AO1	-1.3266281
-1.9374073	EY2 AO1	-0.29423383
-1.9358925	EY1 AO1	-1.3129485
-1.239354	JH AO1	-2.242163
-1.5394388	SH AO1	-1.0855993
-1.6849531	IY2 AO1	-0.29502228
-1.7317563	OW0 AO1	-0.35335264
-2.1722076	OW2 AO1	-0.29423383
-1.7841762	UW0 AO1	-0.29423383
-1.8536423	AA2 AO1	-0.29423383
-1.4250052	OY2 AO1	-0.29423383
-1.7908725	<s> R	-2.1524353
-1.0756135	EH1 R	-2.4799876
-1.9117577	L R	-1.7439927
-1.4620734	AH0 R	-1.9060531
-1.6896924	N R	-1.2799114
-1.0448109	AA1 R	-2.1601381
-1.5071127	T R	-2.1932423
-1.8458999	S R	-1.1349275
-2.3270495	AH1 R	-0.5382577
-1.8462342	M R	-1.0804396
-0.98317987	TH R	-2.0231113
-1.3798538	IH0 R	-0.92360854
-1.6439359	NG R	-1.3170052
-1.6818107	ER0 R	-1.0919492
-1.9322443	AW1 R	-0.51673955
-1.4623095	D R	-1.987304
-1.8535957	ER1 R	-0.62139124
-1.376942	P R	-1.8321966
-1.8064601	AH2 R	-0.28814378
-1.5935594	Z R	-1.9447862
-1.5275315	<UNK> R	-0.8574879
-1.2278104	G R	-1.824792
-0.6341537	UH1 R	-1.684251
-0.7879905	AO1 R	-2.4414403
-2.0645084	R R	-1.4820813
-1.468933	K R	-2.0064712
-1.5979317	IY0 R	-1.1419648
-1.6503453	AE1 R	-1.764832
-1.1644087	IH1 R	-1.318147
-1.5747968	AY1 R	-1.2828656
-1.699782	UW1 R	-1.4276408
-1.2769184	F R	-1.7595292
-1.9156206	CH R	-0.5478441
-1.7575804	AY2 R	-0.29423383
-1.3701025	B R	-1.9728727
-1.4740189	IY1 R	-2.1707506
-1.5601466	OY1 R	-0.5040476
-1.4901924	V R	-1.384735
-1.8890337	OW1 R	-1.1605494
-2.3559453	DH R	-0.3351879
-1.8760647	EY2 R	-0.29423383
-0.6999072	UH2 R	-0.29117814
-1.7457856	EY1 R	-0.84403706
-2.1700277	JH R	-0.51469696
-1.5621612	SH R	-1.2257491
-1.8806715	IH2 R	-0.59582686
-1.0507951	AA0 R	-0.7143489
-1.6566314	IY2 R	-0.29502228
-1.7092901	OW0 R	-0.45481086
-0.8380517	AO2 R	-0.9055067
-0.7350986	UH0 R	-0.44154516
-2.001474	OW2 R	-0.29423383
-0.7976347	EH2 R	-0.9854005
-1.703552	UW2 R	-0.29423383
-1.7285259	UW0 R	-0.29521963
-1.1501756	EH0 R	-0.7867788
-0.7932649	AA2 R	-1.2275776
-1.6114215	AY0 R	-0.2955488
-1.3953359	OY2 R	-0.29016432
-0.9180431	AO0 R	-0.6970793
-1.5436264	ZH R	-0.2955488
-1.569828	<s> K	-2.2129354
-1.1831698	EH1 K	-1.4541159
-1.7495575	L K	-1.4768013
-1.4492714	AH0 K	-2.0765944
-1.6885978	N K	-1.3818402
-1.2954937	AA1 K	-1.7319546
-1.7673091	T K	-1.8881776
-1.4922541	S K	-1.7521933
-1.4706825	AH1 K	-1.375203
-1.844313	M K	-1.2837633
-1.7536978	TH K	-0.47098202
-0.9311512	IH0 K	-1.7787884
-1.3453815	NG K	-1.969768
-1.6069508	ER0 K	-1.1460301
-1.7061177	AW1 K	-1.1589961
-1.7584717	D K	-1.286596
-1.4287009	ER1 K	-1.3412768
-1.864906	P K	-1.1791537
-1.6476502	AH2 K	-0.41778693
-1.5542443	Z K	-1.6549965
-1.5090339	<UNK> K	-0.9446619
-2.033146	G K	-0.68508893
-0.73890465	UH1 K	-2.1208
-1.5703176	AO1 K	-1.4214715
-1.9584196	R K	-1.4732404
-1.8548189	K K	-1.071438
-1.5229268	IY0 K	-1.5114238
-1.2128141	AE1 K	-1.7582498
-1.3795087	IH1 K	-1.7346134
-1.3820587	AY1 K	-2.0462556
-1.5407313	UW1 K	-1.9743311
-1.9346889	F K	-0.4590765
-1.8472762	CH K	-0.46339074
-1.6156609	AY2 K	-1.5783235
-2.3993313	B K	-0.34929386
-1.5958868	IY1 K	-1.6165292
-1.790085	OY1 K	-0.533086
-1.7332498	V K	-1.0465235
-1.5235121	OW1 K	-1.3778161
-2.346159	DH K	-0.3710596
-1.193912	EY2 K	-0.91550916
-1.2474812	UH2 K	-0.81015706
-1.4974402	EY1 K	-1.9849049
-1.9525287	JH K	-0.5682209
-1.7992178	SH K	-0.60693604
-1.4175391	IH2 K	-0.578248
-1.1952156	AA0 K	-0.2930459
-0.99773425	AE2 K	-0.53943914
-1.4246571	IY2 K	-0.44546404
-1.6078758	OW0 K	-0.6139845
-1.2068633	AO2 K	-0.56419176
-0.57378054	OW2 K	-3.2091267
-0.9999917	EH2 K	-0.5965788
-1.5597986	UW2 K	-0.2955488
-1.717475	UW0 K	-0.29479685
-0.78310066	EH0 K	-1.1801554
-1.3699969	AA2 K	-0.961855
-0.76931244	AE0 K	-0.71039045
-1.60618	AY0 K	-0.29423383
-1.3892336	OY2 K	-0.29423383
-1.5470356	AO0 K	-0.2955488
-1.5360931	ZH K	-0.29423383
-1.4652183	EY0 K	-1.1194575
-1.1925309	ER2 K	-0.29423383
-1.5825068	L IY0	-1.5822926
-1.7809209	N IY0	-1.8774155
-1.9284617	T IY0	-1.6738513
-1.8406011	S IY0	-1.1997772
-1.8404821	M IY0	-1.8636041
-2.001011	TH IY0	-0.5828063
-1.8702445	ER0 IY0	-0.99773186
-2.3318741	AW1 IY0	-0.29178756
-1.735693	D IY0	-1.8021414
-1.9472058	ER1 IY0	-0.87908393
-1.7487634	P IY0	-1.1240323
-1.9398901	Z IY0	-0.9541355
-2.017775	G IY0	-1.1428546
-1.496893	R IY0	-1.7302333
-1.90357	K IY0	-1.5940638
-2.5626361	UW1 IY0	-0.2930459
-1.9719856	F IY0	-1.146961
-1.9660503	CH IY0	-0.63636404
-1.9066908	B IY0	-1.7147865
-1.7697731	V IY0	-0.98378557
-2.307371	OW1 IY0	-0.4196104
-2.1259131	JH IY0	-0.9866567
-1.9004931	SH IY0	-0.4332246
-0.9518995	<s> Y	-3.095178
-1.8803138	HH Y	-0.87912536
-2.4418154	EH1 Y	-0.29423383
-1.8598039	L Y	-1.8030685
-1.5781258	AH0 Y	-1.2997973
-1.7501241	N Y	-2.3388515
-1.6255329	AA1 Y	-0.9180505
-1.7096373	T Y	-2.4229763
-1.765792	S Y	-1.6000246
-2.1136856	AH1 Y	-0.51469696
-1.6047664	M Y	-1.3467522
-1.8549321	TH Y	-0.41195306
-1.5831618	NG Y	-1.5631161
-1.5127252	ER0 Y	-1.8511466
-1.5766245	AW1 Y	-1.6983391
-1.7455078	D Y	-2.3528297
-1.7540814	ER1 Y	-1.2118417
-1.7129489	P Y	-1.5022154
-1.6110114	Z Y	-2.0063012
-1.4960113	<UNK> Y	-1.3296432
-1.9886656	G Y	-1.1221596
-1.9794066	AO1 Y	-0.5382577
-2.083311	R Y	-2.3570013
-1.6035578	K Y	-2.1063373
-1.5299573	IY0 Y	-1.5007328
-2.616918	AE1 Y	-1.4094229
-1.7472395	AY1 Y	-1.2204454
-1.5182524	UW1 Y	-2.5008354
-1.6728715	F Y	-1.9229671
-1.8073419	CH Y	-1.0646801
-1.6505249	B Y	-1.0018371
-1.667186	IY1 Y	-1.5595791
-1.8524283	OY1 Y	-0.5735491
-1.4970815	V Y	-1.7397399
-1.4362742	OW1 Y	-2.2419074
-2.5226178	DH Y	-1.6416384
-1.8163818	EY2 Y	-0.5960523
-1.6311841	EY1 Y	-1.6109853
-2.0768023	JH Y	-0.724324
-1.9417355	SH Y	-1.376294
-1.9512367	IY2 Y	-0.28814378
-1.7317563	OW0 Y	-0.37420353
-1.957913	AO2 Y	-0.29423383
-2.1722076	OW2 Y	-0.29423383
-1.5992014	UW2 Y	-0.29423383
-1.6524559	UW0 Y	-0.47164005
-1.4680241	AW2 Y	-0.29423383
-2.3554955	<s> AE1	-1.6691138
-1.1654178	HH AE1	-2.765842
-1.4695611	L AE1	-1.8605107
-1.8352925	AH0 AE1	-1.1234932
-1.5253744	N AE1	-1.7161301
-1.622815	W AE1	-1.44511
-2.0843222	AA1 AE1	-0.29284823
-1.6045299	T AE1	-1.7840165
-1.5647802	S AE1	-1.6147283
-2.3823934	AH1 AE1	-0.28814378
-1.3803295	M AE1	-1.7985721
-1.1453502	TH AE1	-2.369342
-1.6656761	NG AE1	-1.3402766
-1.638217	ER0 AE1	-1.003229
-2.2232592	AW1 AE1	-0.37420353
-1.508916	D AE1	-2.090471
-2.1413949	ER1 AE1	-0.5750196
-1.4248068	P AE1	-1.7986642
-1.6255304	Z AE1	-1.4953141
-1.7098421	<UNK> AE1	-0.46447942
-1.5110979	G AE1	-1.1069274
-1.9814724	AO1 AE1	-0.42048752
-1.3922914	R AE1	-1.9090817
-1.4721321	K AE1	-2.6659534
-1.6959218	IY0 AE1	-1.1852424
-0.93677783	Y AE1	-2.2824545
-2.6216807	AE1 AE1	-0.40773857
-1.6157007	AY1 AE1	-1.1502484
-1.8909649	UW1 AE1	-1.1659715
-1.4561478	F AE1	-1.5370095
-1.7566432	CH AE1	-0.79479873
-1.3859932	B AE1	-2.241564
-1.7823898	IY1 AE1	-0.9517316
-1.8563899	OY1 AE1	-0.2931942
-1.4711392	V AE1	-1.1645157
-2.0122209	OW1 AE1	-0.7215175
-0.888659	DH AE1	-3.733117
-1.9421391	EY2 AE1	-0.47131088
-1.8100544	EY1 AE1	-0.69931495
-1.2396355	JH AE1	-1.6455334
-1.2831612	SH AE1	-1.6990376
-1.6870486	IY2 AE1	-0.2948908
-2.1284535	OW0 AE1	-0.29016432
-1.7524858	UW2 AE1	-0.29423383
-1.4553698	AY0 AE1	-0.29423383
-1.2171838	ER2 AE1	-0.29423383
-1.4364247	<s> IH1	-2.7806814
-1.1869699	HH IH1	-2.1934373
-2.538303	EH1 IH1	-0.2955488
-1.3737698	L IH1	-2.3154488
-1.7526242	AH0 IH1	-1.0541524
-1.4899656	N IH1	-2.1314192
-1.1352046	W IH1	-2.433039
-2.2042007	AA1 IH1	-0.41778693
-1.5800154	T IH1	-2.6399603
-1.4448397	S IH1	-2.4458818
-2.3556867	AH1 IH1	-0.5587902
-1.3892056	M IH1	-2.125294
-0.9728066	TH IH1	-2.6874354
-1.5758493	NG IH1	-2.036963
-1.5290781	ER0 IH1	-1.5835075
-1.8200355	AW1 IH1	-1.77267
-1.4153646	D IH1	-2.4703772
-1.7436347	ER1 IH1	-0.90423
-1.4348896	P IH1	-2.0029356
-1.826997	AH2 IH1	-0.28814378
-1.5212741	Z IH1	-2.3007596
-1.5117314	<UNK> IH1	-1.6257123
-1.3127737	G IH1	-1.9201312
-1.8334162	AO1 IH1	-1.0584503
-1.3437114	R IH1	-2.3111973
-1.4706362	K IH1	-2.3382554
-1.5508709	IY0 IH1	-1.7908566
-1.5116967	Y IH1	-1.6876593
-2.5893898	AE1 IH1	-1.6061242
-1.8956592	AY1 IH1	-1.8068166
-1.5818131	UW1 IH1	-2.2510533
-1.3218318	F IH1	-2.1850061
-1.1499466	CH IH1	-1.8738834
-1.7835766	AY2 IH1	-0.29423383
-1.3720543	B IH1	-2.27189
-1.631486	IY1 IH1	-2.2080374
-1.5765475	OY1 IH1	-1.108133
-1.3185577	V IH1	-1.9026902
-1.5708364	OW1 IH1	-2.2026968
-0.937015	DH IH1	-3.4415603
-1.7955215	EY2 IH1	-0.5959208
-1.5926901	EY1 IH1	-1.6453971
-1.307256	JH IH1	-1.070427
-1.4821016	SH IH1	-1.4493073
-1.4374721	IY2 IH1	-0.43198833
-1.4717773	OW0 IH1	-0.54542625
-1.5064416	OW2 IH1	-0.6635255
-1.7289625	UW2 IH1	-0.29423383
-1.759448	UW0 IH1	-1.0849633
-1.4548017	AW2 IH1	-0.29423383
-1.6902714	AA2 IH1	-0.2955488
-1.4120408	OY2 IH1	-0.2955488
-1.5643787	ZH IH1	-0.49669158
-1.2126902	<s> AY1	-2.3614995
-1.3064494	HH AY1	-1.4114535
-2.161353	EH1 AY1	-0.29423383
-1.3475881	L AY1	-2.140568
-1.6480654	AH0 AY1	-0.84703135
-1.4913517	N AY1	-1.7661344
-1.2286949	W AY1	-1.8728626
-1.5514491	AA1 AY1	-0.5452508
-1.5195415	T AY1	-1.7974178
-1.5404286	S AY1	-1.679655
-2.3784761	AH1 AY1	-0.29330957
-1.38011	M AY1	-1.9263523
-2.0860708	TH AY1	-0.29423383
-1.5831618	NG AY1	-0.5606847
-1.570758	ER0 AY1	-0.62177175
-1.8300565	AW1 AY1	-0.96064794
-1.6410439	D AY1	-1.5129684
-2.241392	ER1 AY1	-0.61230147
-1.5452422	P AY1	-1.1290165
-1.6252497	Z AY1	-1.1422647
-1.5132099	<UNK> AY1	-0.8242785
-1.3856642	G AY1	-0.90428907
-1.9794066	AO1 AY1	-0.29195178
-1.2376908	R AY1	-2.2930748
-1.5635241	K AY1	-1.4405247
-1.5784005	IY0 AY1	-0.9217666
-2.59167	Y AY1	-0.28814378
-2.616918	AE1 AY1	-0.92240506
-1.5619326	AY1 AY1	-1.0133066
-1.6236907	UW1 AY1	-0.88098854
-1.3714545	F AY1	-1.7687896
-1.4071697	CH AY1	-0.74656117
-1.3500751	B AY1	-1.4685942
-1.740016	IY1 AY1	-0.69825083
-1.8524283	OY1 AY1	-0.29178756
-1.5875735	V AY1	-0.74733126
-1.4897587	OW1 AY1	-1.5257012
-2.5226178	DH AY1	-0.29423383
-1.8163818	EY2 AY1	-0.29219434
-1.7110986	EY1 AY1	-1.1089013
-1.7192909	JH AY1	-0.65677166
-1.6020316	SH AY1	-0.7709374
-1.9512367	IY2 AY1	-0.34587896
-1.6294531	OW0 AY1	-0.32483733
-2.0460675	OW2 AY1	-0.29117814
-1.6524559	UW0 AY1	-0.29423383
-1.5806208	ZH AY1	-0.29423383
-2.7630908	<s> UW1	-2.3759346
-1.2797793	HH UW1	-1.6209022
-1.6449798	L UW1	-1.267735
-2.9898272	AH0 UW1	-0.29423383
-1.6208984	N UW1	-1.0802007
-1.3852675	W UW1	-1.5022845
-2.6791463	AA1 UW1	-0.29423383
-1.4948063	T UW1	-2.3066678
-1.6509691	S UW1	-1.5271052
-1.5610133	M UW1	-1.5951841
-2.3388903	NG UW1	-0.29423383
-2.3266785	ER0 UW1	-0.6599071
-1.4584262	D UW1	-2.293522
-1.5664827	P UW1	-1.4935786
-1.9988245	Z UW1	-0.83130956
-2.3591084	<UNK> UW1	-0.42048752
-1.8040134	G UW1	-0.91349846
-1.4495426	R UW1	-1.6031462
-1.8722129	K UW1	-1.5679635
-2.2443411	IY0 UW1	-0.42048752
-0.86689615	Y UW1	-2.6707633
-2.7002022	AE1 UW1	-0.29423383
-1.4764992	F UW1	-1.8408359
-1.4361197	CH UW1	-1.3596681
-1.5552334	B UW1	-1.2225482
-2.744892	IY1 UW1	-0.29423383
-2.831813	OW1 UW1	-0.29423383
-2.020102	EY2 UW1	-0.29423383
-2.5652685	EY1 UW1	-0.5965788
-1.1691612	JH UW1	-2.0690866
-1.3212546	SH UW1	-1.3106426
-2.0894835	<s> F	-1.7628024
-1.3826563	EH1 F	-1.267659
-1.7785277	L F	-1.3545957
-1.560949	AH0 F	-1.937793
-1.7105747	N F	-1.5065814
-1.8230838	AA1 F	-1.5497305
-1.7079881	T F	-1.7693421
-1.7637886	S F	-1.2075205
-1.5150231	AH1 F	-1.1093658
-1.8224928	M F	-1.3285546
-1.8478173	TH F	-0.56226546
-1.5920123	IH0 F	-1.4954635
-1.5770596	NG F	-1.3171096
-1.6601893	ER0 F	-1.1523261
-1.951924	AW1 F	-0.55512017
-1.7434801	D F	-1.2595812
-1.5655835	ER1 F	-0.69102275
-1.8415294	P F	-1.0311112
-1.5696639	Z F	-1.7001723
-1.5119774	<UNK> F	-0.7678265
-2.0490286	G F	-0.87852913
-0.9080699	AO1 F	-1.5430468
-2.076502	R F	-1.5935729
-1.7701193	K F	-1.3576291
-1.5278777	IY0 F	-1.3350825
-1.1836839	AE1 F	-1.7582635
-0.9864946	IH1 F	-1.7145048
-1.544085	AY1 F	-1.1816381
-1.6202184	UW1 F	-1.4908825
-1.9960531	F F	-0.834121
-1.8603162	CH F	-0.6591615
-1.7869384	AY2 F	-0.29423383
-2.6488557	B F	-0.28814378
-1.6320518	IY1 F	-1.2356579
-1.5786418	OY1 F	-0.5805964
-1.7436254	V F	-0.93496823
-1.8504813	OW1 F	-1.0144235
-2.4990556	DH F	-0.37764743
-1.7989295	EY2 F	-0.29521963
-1.6280662	EY1 F	-1.0380994
-1.8242059	JH F	-0.57776624
-1.868377	SH F	-0.8872805
-2.0522478	IH2 F	-0.28814378
-1.6688362	AA0 F	-0.29423383
-1.1657169	AE2 F	-1.2497913
-1.9323564	IY2 F	-0.5942242
-1.6229948	OW0 F	-0.32508895
-1.7926631	AO2 F	-0.29423383
-2.0296106	OW2 F	-0.5965788
-2.040797	EH2 F	-0.29423383
-1.277115	UW2 F	-0.29284823
-1.7634729	UW0 F	-0.6635255
-2.6509833	<s> CH	-1.4458594
-2.0256379	EH1 CH	-0.789948
-2.0382192	L CH	-0.7595808
-1.6128762	AH0 CH	-1.5130576
-1.980119	N CH	-1.1017448
-1.7707489	AA1 CH	-1.1542805
-1.9424162	T CH	-1.2436348
-2.0690153	S CH	-1.0665196
-1.7946547	AH1 CH	-1.2287563
-2.0496893	M CH	-0.9382992
-2.3522892	TH CH	-0.29016432
-1.8716797	IH0 CH	-0.9592705
-1.9036825	NG CH	-0.7371096
-1.8167963	ER0 CH	-0.9783721
-1.4202563	AW1 CH	-0.852625
-1.9758667	D CH	-0.72813874
-1.5064664	ER1 CH	-0.5729575
-2.2940297	P CH	-0.29195178
-1.8253559	Z CH	-1.0971812
-1.9674162	<UNK> CH	-0.45971838
-2.3694544	G CH	-0.4840068
-1.7875136	UH1 CH	-0.46913713
-2.0888364	R CH	-1.0065192
-2.0965285	K CH	-1.5756857
-1.9112368	IY0 CH	-0.78734326
-1.6596524	AE1 CH	-1.0736923
-1.4442266	IH1 CH	-1.2646698
-2.1402318	AY1 CH	-0.9265476
-1.767089	UW1 CH	-1.4566466
-2.6837726	F CH	-0.29117814
-2.4971323	CH CH	-0.29423383
-1.4015447	IY1 CH	-0.9483504
-1.9850701	OY1 CH	-0.29423383
-2.0116875	V CH	-0.79210013
-1.9560491	OW1 CH	-0.52505434
-2.5424333	DH CH	-0.29195178
-1.6336946	EY1 CH	-0.6596859
-2.4643736	JH CH	-0.42048752
-2.0796683	IH2 CH	-0.42048752
-1.7720358	AE2 CH	-0.28814378
-2.1409485	OW0 CH	-0.29284823
-2.0596972	OW2 CH	-1.0707228
-1.1295695	AA2 CH	-0.56189114
-2.7417314	HH AY2	-0.29423383
-2.1661375	L AY2	-0.94921196
-2.7041035	N AY2	-0.92360854
-2.4006722	W AY2	-0.8692509
-2.197689	T AY2	-1.2307222
-2.7217991	S AY2	-1.4168532
-1.8152484	M AY2	-1.3745419
-2.8224266	ER0 AY2	-0.28814378
-2.7009685	D AY2	-0.92360854
-2.909061	P AY2	-0.46893945
-2.396679	R AY2	-1.8691622
-2.5204315	F AY2	-0.50980157
-2.6435413	CH AY2	-0.39212966
-2.995033	B AY2	-0.29016432
-2.7832332	V AY2	-0.29423383
-2.7597666	JH AY2	-0.28814378
-2.805464	SH AY2	-0.2955488
-1.590463	<s> B	-2.1864312
-1.822049	EH1 B	-0.6506731
-1.8014596	L B	-1.7103326
-1.3640208	AH0 B	-2.2968445
-1.7094263	N B	-1.4232993
-1.358967	AA1 B	-1.1432116
-1.6783372	T B	-1.9004166
-1.8488073	S B	-1.5150697
-1.5555272	AH1 B	-0.98257136
-1.7427427	M B	-1.7642483
-1.8436036	TH B	-0.77095634
-2.452114	IH0 B	-0.29423383
-1.5065768	NG B	-1.2256119
-1.509989	ER0 B	-1.2911836
-1.717702	AW1 B	-1.0475316
-1.7231578	D B	-1.5626607
-1.3847889	ER1 B	-0.8190056
-1.9421118	P B	-0.8872784
-1.6635944	AH2 B	-0.29423383
-1.5442132	Z B	-1.7092615
-1.461774	<UNK> B	-1.0065837
-2.0450032	G B	-0.9348126
-2.2176936	AO1 B	-1.2862045
-2.01698	R B	-1.5841595
-1.7897964	K B	-1.0796227
-1.5266347	IY0 B	-1.4646162
-1.5366948	AE1 B	-1.1821935
-1.7587739	IH1 B	-0.7953117
-1.5122682	AY1 B	-1.4186857
-1.5138987	UW1 B	-1.6759819
-1.942606	F B	-0.5718805
-1.7034924	CH B	-0.7933216
-2.3057659	B B	-0.29330957
-1.696787	IY1 B	-1.3354489
-1.4412714	OY1 B	-0.6565716
-1.6546884	V B	-1.0761373
-1.4871923	OW1 B	-1.3005989
-2.1168532	DH B	-0.62917215
-1.9013014	EY2 B	-0.6196211
-1.3442953	EY1 B	-2.064786
-2.061593	JH B	-0.43174255
-1.8651862	SH B	-0.51225054
-1.5146785	AA0 B	-0.29178756
-1.2765276	AE2 B	-0.29521963
-1.6685438	IY2 B	-0.50918925
-1.2327162	OW0 B	-0.4463341
-1.9328033	AO2 B	-0.29423383
-1.747795	OW2 B	-0.42889154
-2.0327208	EH2 B	-0.39212966
-1.3474722	UW0 B	-0.3276103
-1.4504822	AW2 B	-0.29016432
-1.1217738	AA2 B	-1.0179006
-0.9797805	AE0 B	-0.29521963
-1.407804	OY2 B	-0.9323709
-1.5590969	ZH B	-0.29423383
-2.7713504	<s> IY1	-1.4629884
-1.1445203	HH IY1	-2.421241
-1.436691	L IY1	-2.1023657
-2.1747913	AH0 IY1	-1.4541111
-1.5263765	N IY1	-1.7936566
-1.1363131	W IY1	-2.1538854
-2.2284803	AA1 IY1	-0.8692509
-1.5939945	T IY1	-1.4479084
-1.4762769	S IY1	-2.0482872
-2.5173233	AH1 IY1	-0.29423383
-1.4024047	M IY1	-1.9500209
-1.650126	TH IY1	-0.719837
-2.2679725	NG IY1	-0.5254712
-1.9437742	ER0 IY1	-0.759313
-2.2403018	AW1 IY1	-0.47131088
-1.6273841	D IY1	-1.2692592
-2.1589408	ER1 IY1	-0.46893945
-1.3812118	P IY1	-1.9471469
-1.6266543	Z IY1	-1.224836
-1.8392563	<UNK> IY1	-1.1679095
-1.7956592	G IY1	-1.027416
-2.3875873	AO1 IY1	-0.42048752
-1.34647	R IY1	-1.6732059
-1.619266	K IY1	-1.3103883
-1.7335355	IY0 IY1	-0.8347167
-2.6412714	AE1 IY1	-0.5173975
-1.776092	AY1 IY1	-1.3637235
-1.9778805	UW1 IY1	-1.836775
-1.4420016	F IY1	-1.7033504
-1.3293623	CH IY1	-1.3877478
-1.4397925	B IY1	-1.5805048
-1.8320328	IY1 IY1	-1.0708265
-1.8726076	OY1 IY1	-0.29016432
-1.7060157	V IY1	-0.6449319
-2.2689521	OW1 IY1	-0.6506731
-1.0184149	DH IY1	-2.5183282
-1.9422504	EY1 IY1	-0.88349134
-1.3945616	JH IY1	-0.61957145
-1.0913179	SH IY1	-1.9675843
-1.4506768	IY2 IY1	-0.79268533
-1.9743773	AO2 IY1	-0.28814378
-1.3681254	UW0 IY1	-0.6453767
-5.3994145	<s> OY1	-0.29423383
-2.6484623	L OY1	-0.2925716
-2.9500265	AH0 OY1	-0.5965788
-1.7629064	N OY1	-2.0753138
-1.6901809	T OY1	-1.4887019
-2.5726457	S OY1	-0.29284823
-2.9197927	M OY1	-0.29423383
-2.450015	NG OY1	-0.29423383
-1.6830573	P OY1	-1.511568
-3.175586	Z OY1	-0.29423383
-2.8453655	R OY1	-0.44115034
-2.3597941	K OY1	-0.7215175
-3.0661025	AY1 OY1	-0.29423383
-1.9745768	CH OY1	-0.69315964
-1.4920577	B OY1	-1.3857819
-1.6062988	V OY1	-1.2952197
-1.8638124	JH OY1	-0.43182448
-2.8808866	<s> V	-1.3730391
-1.0509212	EH1 V	-2.252677
-2.033624	L V	-0.69115114
-1.6874163	AH0 V	-0.9762821
-2.048403	N V	-0.82031226
-1.9788237	AA1 V	-0.3443467
-1.9656811	T V	-1.2194192
-2.3258774	S V	-1.0559996
-0.97108495	AH1 V	-1.8753657
-2.0445929	M V	-0.71631473
-2.43173	TH V	-0.29423383
-1.593848	IH0 V	-0.5245197
-1.8910142	NG V	-1.0097985
-1.9893885	ER0 V	-0.36883935
-2.2149823	AW1 V	-0.2955488
-2.0444639	D V	-0.7469444
-1.5015126	ER1 V	-0.5355825
-2.37933	P V	-0.6286403
-1.8976707	Z V	-1.5966791
-2.2284365	<UNK> V	-0.59360164
-2.6800385	G V	-0.29423383
-2.2434106	AO1 V	-0.29423383
-2.1470842	R V	-0.7479422
-2.0920446	K V	-0.91885066
-2.2090929	IY0 V	-1.0300462
-1.8187978	AE1 V	-1.9067961
-1.7622436	IH1 V	-1.5578828
-1.4850615	AY1 V	-1.2915385
-1.8883921	UW1 V	-1.142482
-2.6599784	F V	-0.28814378
-1.6536762	AY2 V	-2.1277285
-2.7563307	B V	-0.99451876
-1.3328651	IY1 V	-1.3127817
-1.9591016	OY1 V	-0.29423383
-2.2273664	V V	-0.66286755
-1.2942313	OW1 V	-1.9495354
-2.517802	DH V	-0.29423383
-1.8128349	EY2 V	-0.28814378
-1.5330426	EY1 V	-1.1271675
-2.4413784	JH V	-0.29423383
-2.5855598	SH V	-0.29423383
-2.0642214	IH2 V	-0.29423383
-1.9193898	AE2 V	-0.2955488
-2.120319	OW0 V	-0.29423383
-1.7597742	OW2 V	-0.7215175
-2.0518043	EH2 V	-0.42048752
-1.4228175	OY2 V	-0.6635255
-1.4883372	EY0 V	-0.2955488
-1.3982605	<s> OW1	-2.1565034
-1.2498277	HH OW1	-2.1972384
-1.4936458	L OW1	-1.6320708
-1.9331162	AH0 OW1	-1.1184474
-1.4125397	N OW1	-2.377967
-1.3645209	W OW1	-1.403983
-1.8982338	AA1 OW1	-0.57041526
-1.6540569	T OW1	-1.608683
-1.4654759	S OW1	-1.730953
-2.3823934	AH1 OW1	-0.29423383
-1.5881491	M OW1	-1.4413079
-2.3389676	TH OW1	-0.29016432
-1.5843927	NG OW1	-0.9841469
-1.7476013	ER0 OW1	-0.7246197
-1.6469667	AW1 OW1	-0.6626373
-1.4976478	D OW1	-2.330718
-2.1413949	ER1 OW1	-0.984759
-1.5776684	P OW1	-1.1064572
-1.640261	Z OW1	-1.2470171
-1.7383475	<UNK> OW1	-0.4500587
-1.2201389	G OW1	-2.200588
-1.3682474	R OW1	-1.6367478
-1.5155468	K OW1	-1.4970368
-1.7308787	IY0 OW1	-0.73142874
-1.3167574	Y OW1	-0.8525022
-2.6216807	AE1 OW1	-0.33209544
-1.7476867	AY1 OW1	-0.8765884
-1.8229672	UW1 OW1	-1.1584488
-1.5417432	F OW1	-1.4585173
-1.6687323	CH OW1	-0.48827204
-1.4386508	B OW1	-1.7674909
-1.7823898	IY1 OW1	-0.7765048
-1.9693034	OY1 OW1	-0.34637216
-1.42265	V OW1	-0.88448894
-1.6487379	OW1 OW1	-0.9716914
-0.95926803	DH OW1	-1.7156022
-1.7581831	EY1 OW1	-0.7496161
-1.4680396	JH OW1	-0.5648937
-1.3167353	SH OW1	-1.3044177
-1.6884639	AA0 OW1	-0.29423383
-2.0700538	IY2 OW1	-0.2955488
-1.8680838	OW0 OW1	-0.36249554
-2.176716	OW2 OW1	-0.29423383
-1.7524858	UW2 OW1	-0.29423383
-1.788438	UW0 OW1	-0.29423383
-1.4913155	EY0 OW1	-1.7579467
-1.0935265	<s> DH	-3.1797435
-1.8262327	EH1 DH	-1.9232336
-1.804146	L DH	-2.2288432
-1.5773038	AH0 DH	-1.6581749
-1.7113421	N DH	-2.926146
-1.4869437	AA1 DH	-1.1218498
-1.7086471	T DH	-2.963452
-1.7093384	S DH	-2.134997
-1.0741888	AH1 DH	-2.4312017
-1.7959622	M DH	-1.7733588
-1.7699058	TH DH	-0.7504151
-1.5794902	NG DH	-2.1369052
-1.5301483	ER0 DH	-2.1259236
-1.6425556	AW1 DH	-1.5083598
-1.6400862	D DH	-2.6523743
-1.7488266	ER1 DH	-1.0061446
-1.8131975	P DH	-1.9338002
-1.8349559	AH2 DH	-1.1608502
-1.5453783	Z DH	-3.0428865
-1.404484	<UNK> DH	-1.6006954
-1.9274491	G DH	-0.7304724
-1.9732677	AO1 DH	-0.98719275
-2.0229108	R DH	-2.3998914
-1.7920263	K DH	-2.6062927
-1.5287083	IY0 DH	-1.7041118
-2.2148235	AE1 DH	-1.6313409
-2.484247	IH1 DH	-1.8075508
-1.7459003	AY1 DH	-1.5238636
-1.4865894	UW1 DH	-2.1755908
-1.9014336	F DH	-1.617768
-1.7073534	CH DH	-1.445559
-1.6487383	AY2 DH	-0.29016432
-2.0213134	B DH	-0.48759657
-1.3023431	IY1 DH	-1.9732203
-1.5828611	OY1 DH	-0.7716044
-1.7965045	V DH	-2.3287299
-1.4031672	OW1 DH	-2.2542365
-2.126471	DH DH	-2.190111
-1.8058264	EY2 DH	-0.39212966
-1.5944118	EY1 DH	-1.7347802
-1.8936814	JH DH	-0.9634733
-1.8705171	SH DH	-1.452674
-1.6752807	AA0 DH	-0.29423383
-1.9398103	IY2 DH	-0.5601472
-1.5434984	OW0 DH	-0.59522927
-1.9483259	AO2 DH	-0.29423383
-1.6155142	OW2 DH	-0.34281984
-1.6431618	UW0 DH	-1.5325694
-1.4613626	AW2 DH	-0.29423383
-1.6974825	AA2 DH	-0.7723409
-2.3855824	L EY2	-1.6789081
-2.5504632	N EY2	-0.56189114
-1.7424805	W EY2	-1.0296648
-2.6281605	T EY2	-0.72901624
-3.1535468	S EY2	-0.28814378
-2.2641423	M EY2	-0.3351879
-2.3543694	ER0 EY2	-1.8598202
-2.2772193	D EY2	-0.9124758
-2.2536268	P EY2	-0.9658931
-3.1561117	Z EY2	-0.29423383
-2.891084	G EY2	-1.1406468
-2.5360467	R EY2	-0.4893405
-2.283797	K EY2	-1.7070369
-2.2710657	IY0 EY2	-1.0971812
-2.9749763	B EY2	-0.29423383
-2.8433435	IY1 EY2	-0.29423383
-2.7644722	V EY2	-1.1801554
-2.7873752	SH EY2	-0.28814378
-2.2346396	IY2 EY2	-0.6635255
-2.7819734	HH UH2	-0.42048752
-3.1890843	L UH2	-0.29423383
-2.4157674	W UH2	-0.6934888
-3.1442294	P UH2	-0.6635255
-1.7808414	G UH2	-1.6572766
-2.7661517	Y UH2	-0.28814378
-2.3891394	F UH2	-0.77267003
-2.8766916	CH UH2	-0.29423383
-2.4149725	B UH2	-1.9974045
-3.412773	<s> EY1	-0.94764024
-1.4105568	HH EY1	-1.1803555
-2.6087012	EH1 EY1	-0.29423383
-1.4599493	L EY1	-1.8205458
-2.248906	AH0 EY1	-0.43552843
-1.6044364	N EY1	-1.6816486
-1.2429969	W EY1	-1.7464278
-1.5726954	T EY1	-2.060957
-1.5668074	S EY1	-1.6315727
-1.4256622	M EY1	-2.0627878
-2.4895594	TH EY1	-0.29423383
-2.1803813	NG EY1	-0.29423383
-1.7219876	ER0 EY1	-0.82290584
-1.6762604	D EY1	-1.2828414
-2.293056	ER1 EY1	-0.5965788
-1.4766343	P EY1	-1.6053299
-1.9942088	Z EY1	-0.54485786
-1.43788	G EY1	-1.6035379
-1.3945339	R EY1	-1.7158445
-1.5174434	K EY1	-2.244605
-1.9162812	IY0 EY1	-0.89625925
-2.15567	Y EY1	-0.6657125
-2.6617875	AE1 EY1	-0.29423383
-2.1457922	AY1 EY1	-0.94843215
-2.2209468	UW1 EY1	-0.94843215
-1.5640508	F EY1	-1.7103666
-1.3306636	CH EY1	-1.9395989
-1.4006556	B EY1	-2.2564423
-2.0169618	IY1 EY1	-1.2145653
-2.019875	V EY1	-0.4125513
-2.411962	OW1 EY1	-0.29423383
-1.0190219	DH EY1	-1.7296991
-1.981973	EY2 EY1	-0.36249554
-1.9474045	EY1 EY1	-0.29219434
-1.5635973	JH EY1	-0.61728567
-1.4887313	SH EY1	-1.2047352
-1.9874386	IY2 EY1	-0.2930459
-1.8241271	UW0 EY1	-0.42048752
-2.217082	<s> JH	-1.7957633
-1.8270743	EH1 JH	-1.2572751
-1.9918519	L JH	-1.4259509
-1.594014	AH0 JH	-1.068478
-1.8358237	N JH	-1.3402444
-1.8950619	AA1 JH	-0.8404489
-1.8281014	T JH	-1.3560917
-1.9922073	S JH	-0.8917871
-1.9744949	AH1 JH	-0.29423383
-2.0435808	M JH	-1.4291712
-2.426349	TH JH	-0.29423383
-1.5305837	IH0 JH	-0.90861136
-1.7601805	NG JH	-0.79372764
-1.7159196	ER0 JH	-0.62641066
-2.2109022	AW1 JH	-0.6819267
-1.8560596	D JH	-1.2197869
-1.6503783	ER1 JH	-0.50980157
-2.1403008	P JH	-0.74416196
-1.6867412	Z JH	-1.5884272
-1.7086791	<UNK> JH	-0.6921418
-2.0530918	G JH	-0.46827066
-2.2396421	AO1 JH	-0.29178756
-2.0805748	R JH	-1.325558
-1.9463668	K JH	-1.0026431
-1.6038222	IY0 JH	-0.8855311
-2.0780742	AE1 JH	-0.78754485
-1.8348355	IH1 JH	-1.1098791
-1.5449259	AY1 JH	-1.2350715
-1.7613076	UW1 JH	-1.1534797
-2.2029672	F JH	-0.32895848
-2.1081963	CH JH	-0.47164005
-2.4402566	B JH	-0.49165532
-1.8257973	IY1 JH	-1.3514429
-1.844612	OY1 JH	-0.44115034
-1.9226817	V JH	-0.8060797
-2.0090184	OW1 JH	-0.9107241
-2.5130389	DH JH	-0.52828497
-1.8093165	EY2 JH	-0.29016432
-1.5043948	EY1 JH	-1.0702637
-2.0729496	JH JH	-1.2885479
-2.4835017	SH JH	-0.51673955
-1.9052194	IH2 JH	-0.47131088
-1.9164099	AE2 JH	-0.2955488
-2.055093	IY2 JH	-0.28814378
-2.116308	OW0 JH	-0.2955488
-1.9514982	AO2 JH	-0.29423383
-1.7580426	OW2 JH	-0.36249554
-1.887603	EH2 JH	-0.2955488
-1.6330436	AY0 JH	-0.29423383
-1.9236482	<s> SH	-2.0387964
-2.0151205	EH1 SH	-1.0339608
-1.9529876	L SH	-1.2907746
-1.6661181	AH0 SH	-1.4299855
-1.8593683	N SH	-1.3353921
-1.89296	AA1 SH	-0.97156155
-1.868189	T SH	-1.6470672
-1.8753918	S SH	-0.97809744
-1.2743096	AH1 SH	-1.1280427
-1.9559492	M SH	-1.0869972
-2.3176346	TH SH	-0.29423383
-1.4263984	IH0 SH	-1.310096
-1.7565011	NG SH	-0.9795965
-1.6869048	ER0 SH	-0.8074654
-1.8233502	AW1 SH	-1.1231484
-1.855012	D SH	-1.5703605
-2.1204147	ER1 SH	-0.71743435
-2.1377149	P SH	-0.6659464
-1.6241293	Z SH	-1.7547557
-1.7666384	<UNK> SH	-0.59624964
-2.2244945	G SH	-0.47098202
-1.0893875	UH1 SH	-1.2236177
-1.8363712	AO1 SH	-0.2925716
-2.1423411	R SH	-1.2779977
-1.9450928	K SH	-1.4675862
-1.6928777	IY0 SH	-1.0560926
-1.5053118	AE1 SH	-1.1740654
-1.4758158	IH1 SH	-1.2274137
-1.6140528	AY1 SH	-1.1468071
-1.6623524	UW1 SH	-1.2597963
-2.1997454	F SH	-1.4898673
-2.1043096	CH SH	-0.29284823
-1.7903264	AY2 SH	-0.42048752
-2.6535056	B SH	-0.29423383
-1.737122	IY1 SH	-1.2037153
-1.8369339	OY1 SH	-0.2925716
-1.9989005	V SH	-0.624081
-1.6200289	OW1 SH	-1.4230288
-2.5036669	DH SH	-0.29016432
-1.5317667	EY2 SH	-0.37175286
-1.5034611	EY1 SH	-1.3713676
-2.069131	JH SH	-0.35979497
-2.5691745	SH SH	-0.29423383
-2.0552104	IH2 SH	-0.29016432
-1.7553232	AE2 SH	-0.7954931
-1.9360672	IY2 SH	-0.29284823
-1.725218	OW0 SH	-0.5964471
-1.9451767	AO2 SH	-0.29016432
-1.8399695	AA2 SH	-1.0488764
-1.6728089	AE0 SH	-0.8184275
-1.4163194	OY2 SH	-0.29423383
-3.7435288	<s> IH2	-0.9192876
-1.9512373	HH IH2	-0.8488741
-2.204989	L IH2	-0.7143489
-2.4429467	AH0 IH2	-1.0987515
-1.9865842	N IH2	-1.0864257
-1.974104	T IH2	-1.1587399
-2.0024738	S IH2	-0.86428547
-1.9702276	M IH2	-0.88813627
-2.394897	TH IH2	-2.536098
-1.7888174	NG IH2	-1.2163675
-2.0641263	ER0 IH2	-0.7723409
-2.4011407	AW1 IH2	-0.2955488
-1.8151369	D IH2	-1.0373499
-2.3181508	ER1 IH2	-0.28814378
-2.1602018	P IH2	-0.8291514
-1.9335698	Z IH2	-1.2309787
-2.4965804	<UNK> IH2	-0.5382577
-2.2602532	G IH2	-0.5965788
-2.0424535	R IH2	-0.99265563
-2.2038696	K IH2	-0.9487613
-2.0507355	IY0 IH2	-0.79615116
-2.486611	Y IH2	-0.42048752
-2.683321	AE1 IH2	-0.28814378
-2.5463927	AY1 IH2	-0.7099956
-2.0948315	UW1 IH2	-0.83961684
-2.074698	F IH2	-0.49953708
-2.2094998	IY1 IH2	-0.74218035
-2.0361264	OY1 IH2	-0.29423383
-2.2663841	V IH2	-1.2211146
-2.2847161	OW1 IH2	-1.0355823
-2.0033495	EY2 IH2	-0.29423383
-2.1412575	EY1 IH2	-0.59624964
-2.0426276	SH IH2	-0.59624964
-1.8431354	UW0 IH2	-0.29423383
-5.2877345	<s> AA0	-0.28814378
-2.4144695	HH AA0	-0.8184275
-2.172384	L AA0	-0.73972964
-2.56943	N AA0	-0.67839676
-3.281104	T AA0	-0.28814378
-2.9595723	M AA0	-0.6742754
-2.948906	P AA0	-0.29521963
-3.2284734	Z AA0	-0.29423383
-3.0420816	R AA0	-0.29423383
-2.1745799	K AA0	-0.5781959
-2.8899345	B AA0	-0.29521963
-2.9131215	IY1 AA0	-0.28814378
-4.4405627	<s> AE2	-0.29521963
-1.9575086	HH AE2	-0.9323709
-2.4766552	L AE2	-0.40219033
-3.0267408	AH0 AE2	-0.6635255
-2.53229	N AE2	-0.772012
-2.86986	W AE2	-0.7215175
-2.0712843	T AE2	-0.7303775
-2.44424	S AE2	-0.7523235
-1.9023496	M AE2	-1.2717459
-1.9950272	TH AE2	-0.5173975
-2.8890815	ER0 AE2	-0.29423383
-2.6691432	D AE2	-0.38269898
-2.5709963	P AE2	-0.40450516
-3.0941026	Z AE2	-0.29423383
-2.9616456	<UNK> AE2	-0.29423383
-2.8299952	G AE2	-0.28814378
-2.2676206	R AE2	-0.5520031
-1.9305494	K AE2	-1.2457513
-2.81253	IY0 AE2	-0.29423383
-2.6793642	Y AE2	-0.2955488
-2.9894423	AY1 AE2	-1.4094921
-2.9024417	F AE2	-0.29423383
-2.2655003	B AE2	-0.5780954
-2.7832406	IY1 AE2	-0.29423383
-2.7045395	V AE2	-0.28814378
-2.6830437	JH AE2	-0.29423383
-4.5839105	<s> IY2	-0.5965788
-2.3855824	L IY2	-0.69391525
-2.6966152	N IY2	-0.53311855
-2.909889	W IY2	-0.29423383
-2.6281605	T IY2	-0.41982952
-3.1535468	S IY2	-0.6725621
-2.9048476	M IY2	-1.0658743
-2.8086464	ER0 IY2	-0.28814378
-2.693692	D IY2	-0.6674877
-2.894093	P IY2	-0.29016432
-3.0155323	Z IY2	-1.5173975
-2.891084	G IY2	-0.33906707
-1.9592307	R IY2	-0.5554171
-2.4438734	K IY2	-0.49021512
-2.9020138	AY1 IY2	-0.29423383
-2.9631464	F IY2	-0.29423383
-2.0565033	B IY2	-0.81929636
-2.6351204	EY1 IY2	-0.77267003
-2.7873752	SH IY2	-1.2808255
-4.029232	<s> OW0	-0.9941896
-2.8631475	HH OW0	-0.29423383
-1.8741287	L OW0	-1.0424625
-2.4311156	N OW0	-0.57417166
-2.7264903	AA1 OW0	-0.29423383
-2.1906307	T OW0	-0.8322292
-2.5549898	S OW0	-0.67661583
-2.0696204	M OW0	-0.41153917
-2.3909082	NG OW0	-0.28814378
-2.9057198	ER0 OW0	-0.29423383
-2.4274523	D OW0	-1.0425032
-2.858786	P OW0	-0.36183757
-2.5511448	Z OW0	-0.5965788
-2.7166042	G OW0	-0.29383507
-1.9541038	R OW0	-0.73656976
-2.1618226	K OW0	-0.8521573
-2.4043722	IY0 OW0	-1.0276792
-2.8712096	AY1 OW0	-0.39212966
-2.6904068	UW1 OW0	-0.28814378
-2.7319152	CH OW0	-0.29423383
-2.518411	B OW0	-0.59585506
-2.375946	IY1 OW0	-0.29521963
-1.7688448	V OW0	-0.5942242
-2.6046393	EY1 OW0	-0.42048752
-2.5600429	<s> AO2	-2.57885
-2.210449	L AO2	-0.7629102
-2.1532323	N AO2	-0.67088324
-2.8485405	W AO2	-1.0737001
-2.1037025	T AO2	-1.0894943
-2.0796385	S AO2	-1.1229498
-2.4324253	M AO2	-0.42048752
-2.2211287	NG AO2	-0.77267003
-2.2240686	ER0 AO2	-1.0971812
-2.4270723	AW1 AO2	-0.29423383
-2.2622678	D AO2	-0.6378398
-2.819889	P AO2	-0.8723552
-2.2173588	Z AO2	-1.7961512
-2.9347677	<UNK> AO2	-0.29423383
-2.6805239	G AO2	-0.29016432
-2.176684	R AO2	-0.6286403
-2.0271113	K AO2	-0.7030341
-2.2465065	IY0 AO2	-0.6635255
-2.7059784	AE1 AO2	-0.28814378
-2.6441767	UW1 AO2	-0.5173975
-2.2348263	F AO2	-0.5587902
-1.9906893	B AO2	-1.3587476
-2.112803	IY1 AO2	-0.89760876
-2.6736736	V AO2	-0.29423383
-2.2928183	OW1 AO2	-1.0971812
-2.6138957	DH AO2	-0.29423383
-2.6938539	EY1 AO2	-1.2334008
-2.6528606	JH AO2	-0.29423383
-2.699461	SH AO2	-0.29423383
-2.1996777	OW0 AO2	-0.29423383
-2.4305944	HH UH0	-0.8184275
-3.3185863	S UH0	-0.29423383
-2.2039857	Y UH0	-0.42048752
-2.9251144	CH UH0	-0.29423383
-2.8891487	JH UH0	-0.2955488
-1.432595	<s> OW2	-3.706045
-2.1034553	HH OW2	-0.59624964
-2.5936792	EH1 OW2	-0.29423383
-1.8090241	L OW2	-1.138626
-2.016964	AH0 OW2	-1.0971812
-1.8911794	N OW2	-1.5782816
-2.0925438	AA1 OW2	-0.7215175
-1.851789	T OW2	-1.2665642
-1.9070333	S OW2	-1.5855834
-2.5227253	AH1 OW2	-0.2955488
-1.8915306	M OW2	-1.846462
-2.361403	TH OW2	-0.5173975
-1.5905995	NG OW2	-1.3097892
-1.7830542	ER0 OW2	-1.6569475
-1.9772545	AW1 OW2	-1.5086236
-1.9772507	D OW2	-1.021031
-2.275143	ER1 OW2	-0.5173975
-1.8810213	P OW2	-1.2295208
-1.7622261	Z OW2	-1.8022969
-1.6357148	<UNK> OW2	-1.6509365
-1.8847479	G OW2	-0.5614117
-2.3928947	AO1 OW2	-0.29423383
-1.8580816	R OW2	-1.1417072
-1.796069	K OW2	-1.0525637
-1.6664151	IY0 OW2	-1.0142065
-2.64631	AE1 OW2	-1.3235775
-2.3947978	AY1 OW2	-0.42048752
-1.9794594	UW1 OW2	-1.6379714
-2.0663552	F OW2	-2.047958
-2.0232322	CH OW2	-1.0488764
-2.3361948	B OW2	-0.61724156
-2.0128608	IY1 OW2	-1.3369415
-1.8767585	OY1 OW2	-0.5965788
-2.1154459	V OW2	-0.5173975
-1.9579362	OW1 OW2	-2.1820395
-2.5526907	DH OW2	-0.2955488
-1.8744165	EY1 OW2	-1.9645556
-2.0885692	JH OW2	-0.5173975
-2.2658324	SH OW2	-0.42048752
-2.1494827	OW0 OW2	-0.28814378
-2.1999881	OW2 OW2	-0.29423383
-4.251635	<s> EH2	-0.7723409
-2.6709573	HH EH2	-0.29423383
-2.2063475	L EH2	-0.6086574
-2.9758976	AH0 EH2	-0.29423383
-2.413356	N EH2	-0.68071157
-1.8294486	W EH2	-1.3398666
-2.0659974	T EH2	-1.0787734
-2.2788727	S EH2	-0.5959208
-2.3234956	M EH2	-1.0630465
-2.3998997	TH EH2	-0.28814378
-2.2053971	NG EH2	-0.5382577
-2.8354068	ER0 EH2	-0.29423383
-2.0182312	D EH2	-0.5699529
-2.4144397	P EH2	-0.81572694
-2.214082	Z EH2	-0.69315964
-2.3986037	G EH2	-0.29016432
-1.8646685	R EH2	-1.1688077
-2.0633476	K EH2	-1.1250805
-1.921385	IY0 EH2	-0.64740217
-2.820733	AY1 EH2	-0.28814378
-2.5059264	UW1 EH2	-0.89760876
-2.849191	F EH2	-0.29423383
-2.2782266	CH EH2	-0.2925716
-1.9407349	B EH2	-1.3499064
-2.2116446	IY1 EH2	-0.44115034
-2.1322458	V EH2	-0.4462039
-2.817893	OW1 EH2	-0.29423383
-2.59633	DH EH2	-0.29423383
-2.6726887	EY1 EH2	-0.29423383
-2.1047714	JH EH2	-0.39212966
-2.2877	SH EH2	-0.37420353
-2.1854029	OW0 EH2	-0.28814378
-1.6986697	UW0 EH2	-0.42048752
-2.9244642	HH UW2	-0.29423383
-3.1000335	T UW2	-0.29016432
-2.5778248	S UW2	-0.29521963
-2.6619246	TH UW2	-0.29423383
-2.9896584	ER0 UW2	-0.29423383
-3.1725574	D UW2	-0.29423383
-3.0720577	P UW2	-0.77267003
-3.1959748	Z UW2	-0.28814378
-2.2029915	R UW2	-1.8437334
-3.1786644	K UW2	-0.6819267
-1.7398074	Y UW2	-0.5733665
-2.6571453	CH UW2	-1.000209
-2.2972915	JH UW2	-0.42048752
-2.6669276	SH UW2	-0.29423383
-1.679291	ZH UW2	-0.29423383
-2.7872763	HH UW0	-0.5173975
-1.986929	L UW0	-0.72670144
-2.7394958	N UW0	-0.42048752
-3.1609435	T UW0	-1.2014309
-1.8859209	R UW0	-0.8789059
-1.4480095	Y UW0	-0.792994
-2.3571775	CH UW0	-0.35979497
-2.8977232	SH UW0	-0.29423383
-2.9100707	HH EH0	-0.2955488
-2.5000966	L EH0	-0.35335264
-3.1506178	N EH0	-0.29423383
-1.7878428	W EH0	-0.9487613
-2.7812834	T EH0	-0.2948908
-3.0300536	S EH0	-0.77267003
-2.3554597	M EH0	-0.43869966
-2.450015	NG EH0	-0.29423383
-3.1513488	D EH0	-0.29016432
-2.4567122	Z EH0	-0.29178756
-2.396679	R EH0	-0.99399227
-2.89116	IY0 EH0	-0.29423383
-2.982172	F EH0	-0.29423383
-2.8621628	IY1 EH0	-0.29423383
-2.7832332	V EH0	-0.29423383
-1.8332955	DH EH0	-0.89760876
-2.6087034	JH EH0	-1.3982111
-1.9090031	HH AW2	-0.7615653
-3.0564384	L AW2	-0.37175286
-3.189912	T AW2	-0.29016432
-2.4319649	R AW2	-0.6405943
-2.7539885	K AW2	-0.29016432
-4.582423	<s> AA2	-0.5965788
-2.3967457	HH AA2	-1.471452
-2.9310725	AH0 AA2	-0.29423383
-2.9870563	N AA2	-0.28814378
-2.395144	W AA2	-0.7684232
-3.1922889	T AA2	-0.29423383
-3.0084596	S AA2	-0.28814378
-2.3492846	M AA2	-0.9554126
-2.9410403	ER0 AA2	-0.8598202
-2.9866247	D AA2	-0.62055314
-2.2519467	P AA2	-0.98443407
-2.7424388	G AA2	-0.69315964
-2.8221881	R AA2	-0.5382577
-2.074342	K AA2	-0.78754485
-2.5303	Y AA2	-0.8184275
-2.724209	UW1 AA2	-0.29423383
-2.9539373	F AA2	-0.8598202
-1.7690427	B AA2	-1.9243295
-2.772921	OW1 AA2	-0.28814378
-2.7729335	EY1 AA2	-1.871506
-2.9789672	HH AW0	-0.29423383
-3.2578602	N AW0	-0.28814378
-2.6189268	AO1 AW0	-0.29423383
-2.9872446	IY0 AW0	-0.29423383
-3.1592584	AY1 AW0	-0.29423383
-2.8450122	UW1 AW0	-0.29423383
-2.9014583	F AW0	-0.9323709
-2.958685	IY1 AW0	-0.29423383
-5.3994145	<s> AE0	-0.29423383
-3.0953536	L AE0	-0.29423383
-3.1022987	AH0 AE0	-0.29423383
-3.0093544	N AE0	-0.29016432
-2.6336737	T AE0	-0.7724819
-2.7217991	S AE0	-0.29521963
-2.1944156	M AE0	-0.7724819
-2.450015	NG AE0	-0.29423383
-3.1513488	D AE0	-0.29423383
-2.0642288	R AE0	-0.8974207
-2.3597941	K AE0	-0.5923319
-3.0661025	AY1 AE0	-0.29423383
-2.7514074	UW1 AE0	-0.29423383
-2.1693058	F AE0	-0.89760876
-2.28307	B AE0	-0.4991423
-2.7832332	V AE0	-0.29423383
-1.9074451	SH AE0	-0.5587902
-2.889337	HH AY0	-0.42048752
-3.0648367	L AY0	-0.29423383
-2.6215394	AH0 AY0	-0.77267003
-3.120044	N AY0	-0.89760876
-2.9039397	W AY0	-0.29423383
-2.5172951	T AY0	-0.6934888
-3.0084596	S AY0	-0.29521963
-2.897564	M AY0	-0.29423383
-2.9410403	ER0 AY0	-0.5173975
-2.3483083	D AY0	-1.6003736
-3.1466925	Z AY0	-0.29423383
-2.388288	R AY0	-0.29284823
-2.863338	IY0 AY0	-0.29423383
-3.0390174	AY1 AY0	-0.29423383
-2.724209	UW1 AY0	-0.29423383
-2.1688535	CH AY0	-0.59624964
-2.8342311	IY1 AY0	-0.28814378
-2.7553873	V AY0	-0.42048752
-2.917544	OW1 AY0	-0.42048752
-2.7729335	EY1 AY0	-0.29423383
-3.1207778	ER0 OY2	-0.29423383
-3.2151458	P OY2	-0.29423383
-3.0609112	G OY2	-0.28814378
-2.9597116	B OY2	-0.61601454
-5.1933436	<s> AO0	-0.28814378
-2.4766552	L AO0	-0.28935498
-3.0267408	AH0 AO0	-0.29423383
-2.427106	N AO0	-0.6934888
-2.7124286	AA1 AO0	-0.29423383
-2.0712843	T AO0	-1.2075936
-2.3592095	S AO0	-0.51469696
-2.44244	M AO0	-0.37175286
-2.570961	TH AO0	-0.5965788
-2.243032	NG AO0	-0.2955488
-2.763593	ER0 AO0	-0.28814378
-2.3386436	D AO0	-0.5478441
-2.3731596	ER1 AO0	-0.29423383
-2.8454294	P AO0	-0.42048752
-2.221767	Z AO0	-1.2334008
-2.8299952	G AO0	-0.28814378
-2.5096178	R AO0	-0.5965788
-2.952172	K AO0	-0.29016432
-2.6848762	IY0 AO0	-0.42048752
-2.4256542	AY1 AO0	-0.9323709
-2.6744437	UW1 AO0	-1.1801554
-2.9112813	B AO0	-0.29423383
-2.3697128	IY1 AO0	-0.96455556
-2.290362	V AO0	-0.6635255
-2.8686993	OW1 AO0	-0.29423383
-2.6830437	JH AO0	-0.28814378
-2.6039488	EH1 ZH	-1.1194575
-2.8591776	AA1 ZH	-0.9263439
-2.5304425	ER1 ZH	-0.28814378
-3.0951223	R ZH	-0.2955488
-2.238661	IH1 ZH	-0.5173975
-2.8450122	UW1 ZH	-1.5382577
-2.7108183	EY1 ZH	-0.36249554
-2.2066119	IH2 ZH	-1.5587902
-4.3050427	<s> EY0	-0.5587902
-3.1281784	L EY0	-0.96455556
-1.8541042	N EY0	-1.3499064
-3.2571404	T EY0	-0.29423383
-3.0000708	ER0 EY0	-0.28814378
-3.031346	D EY0	-1.2729433
-3.2065396	Z EY0	-0.29423383
-3.017808	R EY0	-0.29423383
-3.1896942	K EY0	-0.29423383
-2.9208872	IY0 EY0	-0.29423383
-2.7343817	IY1 EY0	-0.29423383
-1.8971529	V EY0	-1.1194575
-2.9725862	OW1 EY0	-0.29423383
-2.8283677	EY1 EY0	-0.29423383
-2.2558033	W ER2	-0.2955488
-3.002112	P ER2	-0.29423383
-3.03405	G ER2	-0.29423383
-2.912493	CH ER2	-0.29423383
-2.3055565	B ER2	-0.41778693
-2.9211884	SH ER2	-0.28814378

\3-grams:
-2.6572886	<s> EH1 </s>
-2.6511064	HH EH1 </s>
-2.2543404	N EH1 </s>
-3.3031235	T EH1 </s>
-3.0546808	S EH1 </s>
-0.932251	TH EH1 </s>
-2.058577	NG EH1 </s>
-2.6472473	D EH1 </s>
-2.365485	Z EH1 </s>
-2.8625827	K EH1 </s>
-1.7621894	IY0 EH1 </s>
-1.2681553	Y EH1 </s>
-3.0571778	CH EH1 </s>
-1.5523922	SH EH1 </s>
-1.2401487	EH1 L </s>
-0.7339934	AH0 L </s>
-1.1703293	AA1 L </s>
-1.9717066	IH0 L </s>
-1.1949583	AW1 L </s>
-0.38621318	ER1 L </s>
-0.82806206	UH1 L </s>
-0.8612621	AO1 L </s>
-2.855274	R L </s>
-1.2939383	IH1 L </s>
-1.1936262	AY1 L </s>
-1.0026616	UW1 L </s>
-0.67063344	AY2 L </s>
-0.9230491	IY1 L </s>
-1.0019351	OY1 L </s>
-1.1377566	OW1 L </s>
-0.19521064	EY2 L </s>
-0.40167218	UH2 L </s>
-0.71309614	EY1 L </s>
-0.5685665	IH2 L </s>
-0.86723703	AA0 L </s>
-0.55857635	IY2 L </s>
-1.6144633	AO2 L </s>
-0.8683629	OW2 L </s>
-0.7593544	EH2 L </s>
-0.30298012	OY2 L </s>
-0.29692063	ER2 L </s>
-1.802421	<s> AH0 </s>
-1.5362831	L AH0 </s>
-1.5575118	AH0 AH0 </s>
-1.4671338	N AH0 </s>
-1.5916713	AA1 AH0 </s>
-2.0309632	T AH0 </s>
-1.7784218	S AH0 </s>
-1.0003108	M AH0 </s>
-2.0312045	NG AH0 </s>
-1.1981496	ER0 AH0 </s>
-1.6650685	D AH0 </s>
-2.0369508	ER1 AH0 </s>
-2.8414116	P AH0 </s>
-1.6818789	Z AH0 </s>
-2.2123966	<UNK> AH0 </s>
-2.1971755	G AH0 </s>
-1.7422122	AO1 AH0 </s>
-1.4155151	R AH0 </s>
-1.987642	K AH0 </s>
-1.3276262	IY0 AH0 </s>
-0.6329149	Y AH0 </s>
-2.0188067	AE1 AH0 </s>
-2.1295998	AY1 AH0 </s>
-1.9640844	UW1 AH0 </s>
-1.9253223	F AH0 </s>
-1.7935176	CH AH0 </s>
-2.2209442	B AH0 </s>
-0.8980207	IY1 AH0 </s>
-1.4964784	OY1 AH0 </s>
-1.886564	V AH0 </s>
-1.7647038	OW1 AH0 </s>
-1.8570613	DH AH0 </s>
-2.2423868	EY1 AH0 </s>
-2.6277976	JH AH0 </s>
-1.5542645	SH AH0 </s>
-0.92552924	IY2 AH0 </s>
-2.003127	UW2 AH0 </s>
-1.6494826	UW0 AH0 </s>
-0.86572486	EH1 N </s>
-1.0747458	AH0 N </s>
-1.1926041	AA1 N </s>
-0.5397741	AH1 N </s>
-1.0435017	IH0 N </s>
-1.2034359	ER0 N </s>
-0.49075118	AW1 N </s>
-1.090223	ER1 N </s>
-1.517391	AH2 N </s>
-0.29812056	AO1 N </s>
-1.2269878	R N </s>
-1.240935	AE1 N </s>
-1.4888902	IH1 N </s>
-0.87612605	AY1 N </s>
-0.8193377	UW1 N </s>
-0.6059998	AY2 N </s>
-0.7202398	IY1 N </s>
-1.644638	OW1 N </s>
-0.20819464	EY2 N </s>
-0.6568565	EY1 N </s>
-1.1290411	AA0 N </s>
-0.35114264	AE2 N </s>
-0.32947966	IY2 N </s>
-1.278125	OW0 N </s>
-0.20314102	OW2 N </s>
-1.5752921	EH2 N </s>
-0.69331473	UW2 N </s>
-0.7301473	AA2 N </s>
-1.4312128	AW0 N </s>
-0.75783783	AE0 N </s>
-1.1582115	AO0 N </s>
-0.8868776	<s> AA1 </s>
-2.3685017	HH AA1 </s>
-2.4155014	L AA1 </s>
-1.487083	AH0 AA1 </s>
-2.1950634	N AA1 </s>
-2.8257964	W AA1 </s>
-0.6134537	AA1 AA1 </s>
-2.1848953	T AA1 </s>
-2.8073478	S AA1 </s>
-2.1412437	M AA1 </s>
-2.8725944	NG AA1 </s>
-2.127467	AW1 AA1 </s>
-2.063983	D AA1 </s>
-2.9772174	P AA1 </s>
-2.9446788	Z AA1 </s>
-1.9017622	<UNK> AA1 </s>
-2.6102679	R AA1 </s>
-3.2726374	K AA1 </s>
-2.3516085	IY0 AA1 </s>
-0.8494632	Y AA1 </s>
-1.010282	AE1 AA1 </s>
-2.0699587	AY1 AA1 </s>
-2.1823907	B AA1 </s>
-1.5702406	OW1 AA1 </s>
-2.0985126	EY1 AA1 </s>
-1.0887058	EH1 T </s>
-1.0042195	L T </s>
-0.8145432	AH0 T </s>
-1.2018288	N T </s>
-0.9258687	AA1 T </s>
-1.0753593	S T </s>
-0.7837935	AH1 T </s>
-0.55327314	IH0 T </s>
-1.2374818	ER0 T </s>
-0.5790841	AW1 T </s>
-0.623015	ER1 T </s>
-1.2260239	P T </s>
-0.7089408	AH2 T </s>
-1.4765915	UH1 T </s>
-1.5173831	AO1 T </s>
-0.8114974	R T </s>
-1.3091886	K T </s>
-0.6747035	AE1 T </s>
-0.6336284	IH1 T </s>
-0.42034173	AY1 T </s>
-1.579763	UW1 T </s>
-1.4378315	F T </s>
-1.2278684	CH T </s>
-0.7098832	AY2 T </s>
-0.8316951	IY1 T </s>
-0.92833656	OW1 T </s>
-1.3856936	EY2 T </s>
-0.6898675	EY1 T </s>
-0.40841427	SH T </s>
-1.59011	IH2 T </s>
-1.3380667	AA0 T </s>
-0.51370263	AE2 T </s>
-1.5433042	IY2 T </s>
-0.37657773	OW2 T </s>
-0.40211982	EH2 T </s>
-0.8163244	UW2 T </s>
-1.6388469	UW0 T </s>
-0.8630905	AW2 T </s>
-0.16250499	AA2 T </s>
-0.59074146	AY0 T </s>
-0.30175054	ER2 T </s>
-0.48247942	EH1 S </s>
-0.7798204	L S </s>
-1.1735538	AH0 S </s>
-1.2108768	N S </s>
-0.93509007	T S </s>
-1.1736915	AH1 S </s>
-0.90403134	TH S </s>
-0.9870952	IH0 S </s>
-0.19554268	AW1 S </s>
-1.2498032	ER1 S </s>
-0.36169878	P S </s>
-0.32309142	AH2 S </s>
-1.3785853	AO1 S </s>
-0.8417529	R S </s>
-0.56630546	K S </s>
-1.061264	AE1 S </s>
-0.5905665	IH1 S </s>
-0.7943872	AY1 S </s>
-0.6936515	UW1 S </s>
-0.96505666	F S </s>
-1.2813671	IY1 S </s>
-0.58384645	OY1 S </s>
-1.3229647	OW1 S </s>
-0.41771016	EY2 S </s>
-0.18899485	UH2 S </s>
-0.6293584	EY1 S </s>
-0.40432683	OW0 S </s>
-1.0444678	AO2 S </s>
-1.9966495	EH2 S </s>
-0.9977126	EH0 S </s>
-0.24422126	AW2 S </s>
-2.8019588	<s> AH1 </s>
-0.19573788	HH AH1 </s>
-1.0509348	AH1 AH1 </s>
-3.3907857	D AH1 </s>
-3.5731354	K AH1 </s>
-0.6041577	EH1 M </s>
-3.066924	L M </s>
-0.42263848	AH0 M </s>
-1.0272546	AA1 M </s>
-1.1182041	AH1 M </s>
-0.80823493	ER1 M </s>
-1.2922988	R M </s>
-0.79466987	AE1 M </s>
-0.5394396	IH1 M </s>
-1.0715708	AY1 M </s>
-0.69297224	UW1 M </s>
-0.3433349	AY2 M </s>
-0.98850346	IY1 M </s>
-0.7997352	OW1 M </s>
-0.6009035	EY1 M </s>
-0.6469616	AE2 M </s>
-1.1879545	OW2 M </s>
-0.14995797	UW2 M </s>
-0.6835425	UW0 M </s>
-0.78675675	EH1 TH </s>
-2.346249	L TH </s>
-2.2405348	AH0 TH </s>
-1.2880596	N TH </s>
-2.4366372	S TH </s>
-3.1107109	M TH </s>
-0.22061653	AW1 TH </s>
-1.1893984	ER1 TH </s>
-0.30287758	AO1 TH </s>
-0.9875944	R TH </s>
-0.69244456	AE1 TH </s>
-0.28660348	IH1 TH </s>
-2.2128313	UW1 TH </s>
-1.1725105	F TH </s>
-0.56682986	IY1 TH </s>
-1.2162007	OW1 TH </s>
-0.28923738	AO2 TH </s>
-1.2410456	AA1 NG </s>
-1.0386598	AH1 NG </s>
-0.5648469	IH0 NG </s>
-0.60329545	AO1 NG </s>
-1.6577251	AE1 NG </s>
-1.1296678	IH1 NG </s>
-0.56443095	IH2 NG </s>
-0.2923633	AO2 NG </s>
-0.6857246	L ER0 </s>
-0.29579544	N ER0 </s>
-0.41877598	T ER0 </s>
-0.80119205	S ER0 </s>
-0.52588296	M ER0 </s>
-1.068926	TH ER0 </s>
-1.4504	NG ER0 </s>
-0.5361683	AW1 ER0 </s>
-0.59238553	D ER0 </s>
-0.34929878	P ER0 </s>
-1.1491228	Z ER0 </s>
-0.56729686	G ER0 </s>
-0.3816394	R ER0 </s>
-0.39522848	K ER0 </s>
-0.49359226	IY0 ER0 </s>
-1.6274623	Y ER0 </s>
-0.67160165	AY1 ER0 </s>
-1.2038484	UW1 ER0 </s>
-0.8874089	F ER0 </s>
-0.44194192	CH ER0 </s>
-0.10870573	AY2 ER0 </s>
-0.76829165	B ER0 </s>
-0.76194566	V ER0 </s>
-1.4350508	OW1 ER0 </s>
-0.8337878	DH ER0 </s>
-0.45243046	EY1 ER0 </s>
-1.40115	JH ER0 </s>
-0.35354644	SH ER0 </s>
-0.7330653	OW0 ER0 </s>
-0.28990373	UW2 ER0 </s>
-0.84197074	AW2 ER0 </s>
-0.88594323	ZH ER0 </s>
-1.6602914	HH AW1 </s>
-1.9283637	L AW1 </s>
-0.46799895	N AW1 </s>
-0.19232959	W AW1 </s>
-1.9538994	P AW1 </s>
-0.6341896	K AW1 </s>
-0.97332954	IY0 AW1 </s>
-0.57811993	Y AW1 </s>
-2.309295	B AW1 </s>
-1.6416154	V AW1 </s>
-1.4726945	DH AW1 </s>
-0.48322588	EH1 D </s>
-0.9095403	L D </s>
-1.6380051	AH0 D </s>
-1.1105156	N D </s>
-1.273295	AA1 D </s>
-1.1169647	AH1 D </s>
-1.7339252	M D </s>
-0.97880083	IH0 D </s>
-2.545202	NG D </s>
-0.58896464	ER0 D </s>
-1.3697017	AW1 D </s>
-0.72226685	ER1 D </s>
-1.1290853	Z D </s>
-0.6037709	UH1 D </s>
-0.9052784	R D </s>
-2.4581418	IY0 D </s>
-0.9898735	AE1 D </s>
-1.1246861	IH1 D </s>
-0.9050671	AY1 D </s>
-1.4950507	UW1 D </s>
-1.0260427	AY2 D </s>
-1.3993837	B D </s>
-1.5067065	IY1 D </s>
-1.5426513	OY1 D </s>
-1.1877607	V D </s>
-1.2054361	OW1 D </s>
-1.2197112	UH2 D </s>
-1.2255126	EY1 D </s>
-0.9623426	JH D </s>
-0.86114144	AE2 D </s>
-0.3505674	OW2 D </s>
-0.5831497	EH2 D </s>
-0.4711136	EH0 D </s>
-0.46439493	EY0 D </s>
-0.86705154	ER2 D </s>
-0.921204	HH ER1 </s>
-1.9112896	W ER1 </s>
-1.9897307	T ER1 </s>
-1.0111221	S ER1 </s>
-2.4242432	P ER1 </s>
-2.589087	F ER1 </s>
-1.1209004	SH ER1 </s>
-0.28313616	EH1 P </s>
-0.9924719	L P </s>
-2.398913	AH0 P </s>
-0.6538185	AA1 P </s>
-0.40861133	AH1 P </s>
-0.8904923	M P </s>
-1.5505669	IH0 P </s>
-1.0844064	ER1 P </s>
-0.37791568	AH2 P </s>
-1.8504283	R P </s>
-1.042835	AE1 P </s>
-0.7302251	IH1 P </s>
-1.1332477	AY1 P </s>
-1.0536689	UW1 P </s>
-0.8393997	IY1 P </s>
-0.8983021	OW1 P </s>
-1.8738935	EY2 P </s>
-0.85941154	EY1 P </s>
-0.8728843	IH2 P </s>
-1.2827502	AE2 P </s>
-0.75887454	AO2 P </s>
-0.58750015	UH0 P </s>
-0.22270048	OW2 P </s>
-0.4927933	AA2 P </s>
-0.28381625	P AH2 </s>
-0.41284236	EH1 Z </s>
-0.37755334	L Z </s>
-0.4856266	AH0 Z </s>
-0.45713943	N Z </s>
-1.3536088	AA1 Z </s>
-1.9722635	T Z </s>
-1.0443473	S Z </s>
-1.2308224	AH1 Z </s>
-0.6125976	M Z </s>
-0.6054266	IH0 Z </s>
-0.495674	NG Z </s>
-0.32964125	ER0 Z </s>
-0.9014213	AW1 Z </s>
-0.45128593	D Z </s>
-1.7434301	ER1 Z </s>
-1.0371261	P Z </s>
-0.9352315	AH2 Z </s>
-0.3409997	G Z </s>
-1.1016068	AO1 Z </s>
-0.94891024	R Z </s>
-0.81544524	K Z </s>
-0.5659545	IY0 Z </s>
-1.5136806	AE1 Z </s>
-0.9811494	IH1 Z </s>
-0.36542845	AY1 Z </s>
-0.83380556	UW1 Z </s>
-0.9390884	AY2 Z </s>
-0.5343928	B Z </s>
-0.73720443	IY1 Z </s>
-0.32819894	OY1 Z </s>
-0.50043935	V Z </s>
-0.65780616	OW1 Z </s>
-0.3796268	DH Z </s>
-0.9985149	EY2 Z </s>
-0.7474933	EY1 Z </s>
-0.29853222	JH Z </s>
-0.15867518	IH2 Z </s>
-1.138393	AA0 Z </s>
-0.73831123	IY2 Z </s>
-0.37102878	OW0 Z </s>
-0.7390859	OW2 Z </s>
-0.48726004	UW2 Z </s>
-0.9972075	UW0 Z </s>
-0.5845457	AW2 Z </s>
-0.18913455	<s> <UNK> </s>
-0.40577027	L <UNK> </s>
-0.3199827	AH0 <UNK> </s>
-0.39453056	N <UNK> </s>
-0.5700929	AA1 <UNK> </s>
-0.44762397	T <UNK> </s>
-0.42565045	S <UNK> </s>
-1.2912452	AH1 <UNK> </s>
-0.43326268	M <UNK> </s>
-0.2599565	NG <UNK> </s>
-0.3061464	ER0 <UNK> </s>
-0.6981787	AW1 <UNK> </s>
-0.49339086	D <UNK> </s>
-0.4654264	ER1 <UNK> </s>
-0.73132133	P <UNK> </s>
-0.38939804	Z <UNK> </s>
-0.3990139	<UNK> <UNK> </s>
-0.39306426	G <UNK> </s>
-0.72475135	AO1 <UNK> </s>
-0.36218044	R <UNK> </s>
-0.3945813	K <UNK> </s>
-0.36404863	IY0 <UNK> </s>
-0.8785989	AE1 <UNK> </s>
-0.49639255	AY1 <UNK> </s>
-0.53077805	UW1 <UNK> </s>
-0.48512655	F <UNK> </s>
-0.33555874	CH <UNK> </s>
-0.5678459	B <UNK> </s>
-0.51353437	IY1 <UNK> </s>
-0.83131605	OY1 <UNK> </s>
-0.36521107	V <UNK> </s>
-0.45858252	OW1 <UNK> </s>
-0.31325457	DH <UNK> </s>
-0.60151607	EY1 <UNK> </s>
-0.9477131	JH <UNK> </s>
-0.5666741	SH <UNK> </s>
-0.8308082	IY2 <UNK> </s>
-0.28844574	OW0 <UNK> </s>
-1.0125458	AO2 <UNK> </s>
-0.6078933	EH1 G </s>
-3.6019826	AH0 G </s>
-1.1993691	AA1 G </s>
-0.4020024	AH1 G </s>
-2.502028	ER0 G </s>
-0.29750788	AH2 G </s>
-0.6204866	AO1 G </s>
-2.6995275	R G </s>
-0.45970067	AE1 G </s>
-0.8032351	IH1 G </s>
-2.4881544	EY1 G </s>
-0.23005421	AO2 G </s>
-2.442738	<s> AO1 </s>
-1.2537185	S AO1 </s>
-3.6553047	M AO1 </s>
-2.6063864	TH AO1 </s>
-3.1488025	D AO1 </s>
-2.3697124	P AO1 </s>
-1.4052193	R AO1 </s>
-3.4071047	K AO1 </s>
-1.8544811	AY1 AO1 </s>
-0.52034146	EH1 R </s>
-0.88085693	AA1 R </s>
-1.3147212	UH1 R </s>
-0.8406201	AO1 R </s>
-0.8810565	IH1 R </s>
-2.2540724	UW1 R </s>
-0.35357857	IY1 R </s>
-0.21511813	IH2 R </s>
-1.1243496	AO2 R </s>
-0.54908556	EH2 R </s>
-1.9806952	AA2 R </s>
-1.5472021	AO0 R </s>
-1.4135028	EH1 K </s>
-0.53531706	L K </s>
-2.7367113	AH0 K </s>
-0.9214949	AA1 K </s>
-1.8048873	S K </s>
-0.2763351	AH1 K </s>
-1.1988299	IH0 K </s>
-0.9307123	NG K </s>
-0.7058286	ER1 K </s>
-0.3531603	AH2 K </s>
-0.7070545	UH1 K </s>
-0.81549805	AO1 K </s>
-0.96039104	R K </s>
-0.6245878	AE1 K </s>
-1.1854417	IH1 K </s>
-1.2568588	AY1 K </s>
-3.163058	UW1 K </s>
-2.2440093	AY2 K </s>
-1.350593	IY1 K </s>
-0.8518242	OW1 K </s>
-0.7435493	EY2 K </s>
-0.17041785	UH2 K </s>
-1.2411239	EY1 K </s>
-0.48091152	IH2 K </s>
-0.53911644	AE2 K </s>
-0.56364596	AO2 K </s>
-3.9528425	OW2 K </s>
-0.58198535	L IY0 </s>
-0.45863017	N IY0 </s>
-0.41440117	T IY0 </s>
-0.5127943	S IY0 </s>
-0.35214317	M IY0 </s>
-0.31710023	TH IY0 </s>
-0.6279107	ER0 IY0 </s>
-0.67303705	AW1 IY0 </s>
-0.4298442	D IY0 </s>
-0.8096894	ER1 IY0 </s>
-0.35911345	P IY0 </s>
-0.3215932	Z IY0 </s>
-0.30106938	G IY0 </s>
-0.7041803	R IY0 </s>
-0.31825915	K IY0 </s>
-0.6385732	UW1 IY0 </s>
-0.19610074	F IY0 </s>
-0.6889187	CH IY0 </s>
-0.48513398	B IY0 </s>
-0.36454403	V IY0 </s>
-0.41221213	OW1 IY0 </s>
-0.33853075	JH IY0 </s>
-0.62577295	SH IY0 </s>
-3.3178005	P AE1 </s>
-0.1288889	Y AE1 </s>
-2.0270052	<s> AY1 </s>
-0.47789767	HH AY1 </s>
-2.346994	L AY1 </s>
-1.5704175	AH0 AY1 </s>
-2.0931232	N AY1 </s>
-0.7537696	W AY1 </s>
-1.7687583	T AY1 </s>
-2.4598045	S AY1 </s>
-1.5435095	M AY1 </s>
-0.8531708	TH AY1 </s>
-1.7894145	ER0 AY1 </s>
-2.016325	AW1 AY1 </s>
-1.6755527	D AY1 </s>
-0.8437908	ER1 AY1 </s>
-0.99725723	P AY1 </s>
-1.3879046	Z AY1 </s>
-1.8419689	<UNK> AY1 </s>
-0.52901024	G AY1 </s>
-0.90290534	AO1 AY1 </s>
-1.7042675	R AY1 </s>
-1.2495321	K AY1 </s>
-1.7452515	IY0 AY1 </s>
-1.484262	AY1 AY1 </s>
-1.7208288	UW1 AY1 </s>
-2.9477975	F AY1 </s>
-1.6192431	CH AY1 </s>
-0.72059935	B AY1 </s>
-1.7160561	IY1 AY1 </s>
-1.7768503	V AY1 </s>
-1.9466172	OW1 AY1 </s>
-2.4096334	EY1 AY1 </s>
-1.2147326	SH AY1 </s>
-1.1152735	HH UW1 </s>
-0.7550546	L UW1 </s>
-1.335238	N UW1 </s>
-0.9945483	W UW1 </s>
-0.895591	T UW1 </s>
-2.496278	S UW1 </s>
-1.5840045	M UW1 </s>
-0.3241542	ER0 UW1 </s>
-0.9814602	D UW1 </s>
-1.3889309	P UW1 </s>
-0.7475717	Z UW1 </s>
-1.4382129	G UW1 </s>
-0.94531554	R UW1 </s>
-2.3265905	K UW1 </s>
-1.056819	Y UW1 </s>
-0.8526462	CH UW1 </s>
-0.8775707	B UW1 </s>
-2.9738188	JH UW1 </s>
-0.6316054	SH UW1 </s>
-1.6941992	EH1 F </s>
-0.55117214	L F </s>
-3.1576264	AH0 F </s>
-2.0883815	AA1 F </s>
-0.38120186	AH1 F </s>
-2.2528827	IH0 F </s>
-0.2646872	AO1 F </s>
-1.8579763	R F </s>
-1.6060566	AE1 F </s>
-2.293331	IH1 F </s>
-1.0164475	AY1 F </s>
-1.1605862	UW1 F </s>
-1.2672826	IY1 F </s>
-2.4161243	OW1 F </s>
-1.6620301	EY1 F </s>
-0.88560605	OW0 F </s>
-0.5902306	AO2 F </s>
-1.807548	EH1 CH </s>
-1.7267398	L CH </s>
-2.669863	AH0 CH </s>
-0.41280437	N CH </s>
-0.7431143	AA1 CH </s>
-0.7163051	AH1 CH </s>
-0.45221823	IH0 CH </s>
-0.14541349	AW1 CH </s>
-0.5528267	ER1 CH </s>
-1.2451057	UH1 CH </s>
-1.4185522	R CH </s>
-0.9888086	AE1 CH </s>
-1.3213457	IH1 CH </s>
-0.8709096	IY1 CH </s>
-1.6268449	EY1 CH </s>
-1.0796791	AA2 CH </s>
-0.5632027	L AY2 </s>
-0.47503904	B AY2 </s>
-1.7218407	EH1 B </s>
-3.0477784	L B </s>
-2.4471807	AH0 B </s>
-0.93515754	AA1 B </s>
-1.0582887	AH1 B </s>
-2.2217822	ER1 B </s>
-1.8702198	AE1 B </s>
-0.46115783	IH1 B </s>
-2.8618467	AY1 B </s>
-3.0064936	UW1 B </s>
-2.6413465	OW1 B </s>
-2.8879917	EY1 B </s>
-0.96374863	AA0 B </s>
-0.51395386	OW2 B </s>
-0.29726705	EH2 B </s>
-0.4767534	AW2 B </s>
-1.8172342	AA2 B </s>
-1.8144	HH IY1 </s>
-3.357399	L IY1 </s>
-1.8217028	N IY1 </s>
-1.8410221	W IY1 </s>
-0.7115921	T IY1 </s>
-0.58896136	S IY1 </s>
-0.5875394	M IY1 </s>
-0.9148905	ER0 IY1 </s>
-2.331643	D IY1 </s>
-1.8049124	P IY1 </s>
-2.396524	Z IY1 </s>
-0.77588785	R IY1 </s>
-1.0697116	K IY1 </s>
-2.8167708	F IY1 </s>
-2.3706071	CH IY1 </s>
-1.1653382	B IY1 </s>
-1.8836297	IY1 IY1 </s>
-0.38874328	V IY1 </s>
-0.7085647	JH IY1 </s>
-1.6061493	SH IY1 </s>
-1.4528416	UW0 IY1 </s>
-0.2881106	<s> OY1 </s>
-0.73700994	T OY1 </s>
-0.2893198	R OY1 </s>
-0.3177213	B OY1 </s>
-1.0365765	JH OY1 </s>
-0.91893256	L V </s>
-1.1774478	AA1 V </s>
-1.6553056	AH1 V </s>
-0.6182375	IH0 V </s>
-0.5862357	AO1 V </s>
-1.2359396	AE1 V </s>
-2.1564677	IH1 V </s>
-0.6598684	AY1 V </s>
-1.1082714	UW1 V </s>
-1.5319158	IY1 V </s>
-1.3895981	OW1 V </s>
-0.5919674	EY2 V </s>
-1.2397699	EY1 V </s>
-0.53912896	<s> OW1 </s>
-1.9889036	HH OW1 </s>
-0.90038884	L OW1 </s>
-1.1852912	AH0 OW1 </s>
-0.4675741	N OW1 </s>
-0.98142165	W OW1 </s>
-0.63132155	AA1 OW1 </s>
-1.6587449	T OW1 </s>
-0.98646784	S OW1 </s>
-1.8874693	M OW1 </s>
-1.4954677	NG OW1 </s>
-0.99160975	ER0 OW1 </s>
-1.4989295	AW1 OW1 </s>
-2.2188036	D OW1 </s>
-1.6636697	P OW1 </s>
-1.578279	Z OW1 </s>
-1.0771165	<UNK> OW1 </s>
-0.78945726	G OW1 </s>
-1.5967157	R OW1 </s>
-1.8382777	K OW1 </s>
-0.99686253	IY0 OW1 </s>
-1.3017137	Y OW1 </s>
-0.8993989	AE1 OW1 </s>
-1.7618775	AY1 OW1 </s>
-2.074102	UW1 OW1 </s>
-2.2467606	F OW1 </s>
-0.9364055	CH OW1 </s>
-1.0577489	IY1 OW1 </s>
-1.1101415	OY1 OW1 </s>
-1.5364419	V OW1 </s>
-0.6060047	OW1 OW1 </s>
-0.9620282	DH OW1 </s>
-0.69987863	EY1 OW1 </s>
-1.384231	JH OW1 </s>
-1.6535553	SH OW1 </s>
-0.28570566	AA0 OW1 </s>
-1.2781354	IH1 DH </s>
-3.3719625	UW1 DH </s>
-2.652161	IY1 DH </s>
-0.5538625	W EY2 </s>
-1.197507	M EY2 </s>
-0.39763877	D EY2 </s>
-0.9943957	R EY2 </s>
-1.1367838	<s> EY1 </s>
-0.59399176	HH EY1 </s>
-1.2697726	L EY1 </s>
-1.350413	AH0 EY1 </s>
-2.6021085	N EY1 </s>
-0.42100832	W EY1 </s>
-2.2688713	T EY1 </s>
-0.5381798	S EY1 </s>
-2.5385582	M EY1 </s>
-1.5196402	ER0 EY1 </s>
-0.35058504	D EY1 </s>
-2.0568898	P EY1 </s>
-1.4798614	Z EY1 </s>
-1.8723416	G EY1 </s>
-1.6123009	R EY1 </s>
-0.21731418	K EY1 </s>
-0.48441875	Y EY1 </s>
-1.3802868	V EY1 </s>
-1.1291078	DH EY1 </s>
-0.63448215	EY2 EY1 </s>
-0.9744298	EY1 EY1 </s>
-1.4482832	JH EY1 </s>
-2.1564736	SH EY1 </s>
-0.7890043	IY2 EY1 </s>
-1.2562116	EH1 JH </s>
-1.2869099	AH0 JH </s>
-0.817388	N JH </s>
-0.24500093	IH0 JH </s>
-1.4476708	R JH </s>
-0.49470004	IH1 JH </s>
-0.33092648	EY1 JH </s>
-0.23214293	IH2 JH </s>
-1.1465921	EH1 SH </s>
-1.655683	AH0 SH </s>
-1.1781818	AA1 SH </s>
-0.69194055	AH1 SH </s>
-1.0895563	IH0 SH </s>
-0.87087375	UH1 SH </s>
-0.6881358	AE1 SH </s>
-0.5170472	IH1 SH </s>
-1.894319	IY1 SH </s>
-0.4746909	IH2 SH </s>
-0.11584195	AE2 SH </s>
-0.4746909	AO2 SH </s>
-1.0939431	L AA0 </s>
-0.40233347	M AA0 </s>
-1.1215522	K AA0 </s>
-1.0891135	L IY2 </s>
-0.33450496	N IY2 </s>
-1.0325156	T IY2 </s>
-0.71157163	S IY2 </s>
-1.0001632	M IY2 </s>
-0.7582644	D IY2 </s>
-0.4371755	P IY2 </s>
-0.5440011	G IY2 </s>
-0.5469621	R IY2 </s>
-0.8558504	K IY2 </s>
-0.54088455	AY1 IY2 </s>
-0.481053	L OW0 </s>
-0.27646196	N OW0 </s>
-0.6430865	T OW0 </s>
-0.7069503	S OW0 </s>
-1.3022747	M OW0 </s>
-0.24414077	D OW0 </s>
-0.41561466	P OW0 </s>
-0.7713938	G OW0 </s>
-0.31142426	R OW0 </s>
-0.16223054	K OW0 </s>
-0.9542935	IY0 OW0 </s>
-0.5517982	CH OW0 </s>
-0.27629107	B OW0 </s>
-1.1080859	V OW0 </s>
-0.2748238	S AO2 </s>
-1.2963914	HH OW2 </s>
-1.7587779	L OW2 </s>
-2.243606	N OW2 </s>
-1.2306877	T OW2 </s>
-2.5103064	M OW2 </s>
-0.48986384	D OW2 </s>
-2.422442	Z OW2 </s>
-0.6023994	G OW2 </s>
-0.6194872	R OW2 </s>
-1.0114723	K OW2 </s>
-0.6780343	IY0 OW2 </s>
-0.63409114	B OW2 </s>
-0.51426166	HH UW2 </s>
-0.2580067	ER0 UW2 </s>
-0.2580067	D UW2 </s>
-0.2277734	K UW2 </s>
-0.35313168	Y UW2 </s>
-1.2159067	CH UW2 </s>
-1.4262544	L UW0 </s>
-1.8180485	T UW0 </s>
-1.5284777	R UW0 </s>
-0.76166844	Y UW0 </s>
-1.055109	HH AW2 </s>
-0.5444994	R AW2 </s>
-0.23443046	D AA2 </s>
-1.0623744	P AA2 </s>
-1.0847845	R AA2 </s>
-0.54241496	B OY2 </s>
-0.29994977	B AO0 </s>
-0.19302016	AA1 ZH </s>
-0.6409971	EY1 ZH </s>
-3.340927	HH EH1 HH
-3.132471	Y EH1 HH
-1.5387311	EH1 L HH
-1.8845569	AH0 L HH
-1.6310803	AA1 L HH
-1.5209663	ER1 L HH
-1.5740662	UH1 L HH
-1.8309602	AO1 L HH
-2.1363587	AE1 L HH
-1.597882	IH1 L HH
-1.1469892	AY1 L HH
-1.6442796	UW1 L HH
-1.3880181	IY1 L HH
-2.3592727	OW1 L HH
-1.8903491	EY1 L HH
-3.1126206	AO2 L HH
-2.0226238	<s> AH0 HH
-2.338527	L AH0 HH
-1.7617944	AH0 AH0 HH
-1.3428009	N AH0 HH
-1.8346449	T AH0 HH
-2.2598886	S AH0 HH
-1.4663105	AH1 AH0 HH
-2.1086965	M AH0 HH
-1.5419825	NG AH0 HH
-2.5590463	ER0 AH0 HH
-2.730617	AW1 AH0 HH
-1.5936131	D AH0 HH
-1.7674538	ER1 AH0 HH
-3.3681867	P AH0 HH
-1.6481247	Z AH0 HH
-2.1267653	<UNK> AH0 HH
-2.4680378	G AH0 HH
-1.2222661	AO1 AH0 HH
-2.1041634	R AH0 HH
-1.8531911	K AH0 HH
-2.0248287	IY0 AH0 HH
-1.8251044	Y AH0 HH
-2.2933226	AE1 AH0 HH
-2.3965516	AY1 AH0 HH
-1.4989855	UW1 AH0 HH
-2.131237	CH AH0 HH
-3.0718653	B AH0 HH
-1.5679901	IY1 AH0 HH
-1.4356489	V AH0 HH
-0.85589135	OW1 AH0 HH
-1.4201252	DH AH0 HH
-2.2594125	EY1 AH0 HH
-2.7891123	SH AH0 HH
-1.8988266	OW0 AH0 HH
-1.2075486	UW0 AH0 HH
-1.6983614	EH1 N HH
-2.2368789	AH0 N HH
-1.7001624	AA1 N HH
-1.8449376	AH1 N HH
-1.0083361	IH0 N HH
-2.1969893	ER0 N HH
-1.5239252	AW1 N HH
-1.9271591	ER1 N HH
-1.5264701	AH2 N HH
-2.0258286	AO1 N HH
-2.406691	R N HH
-1.4387397	AE1 N HH
-2.2357368	IH1 N HH
-2.2928207	AY1 N HH
-2.2791207	UW1 N HH
-1.8981615	IY1 N HH
-2.6460602	OW1 N HH
-2.144643	EY2 N HH
-2.214575	EY1 N HH
-2.2233603	IH2 N HH
-1.1462921	AA0 N HH
-1.6886086	AE2 N HH
-2.1171634	IY2 N HH
-1.8681737	OW2 N HH
-2.5216064	<s> AA1 HH
-1.7727203	AA1 AA1 HH
-1.9174381	T AA1 HH
-2.8309877	ER0 AA1 HH
-3.242174	D AA1 HH
-1.0609845	Y AA1 HH
-2.7224238	UW1 AA1 HH
-2.2759173	IY1 AA1 HH
-2.0236652	V AA1 HH
-2.561482	EY1 AA1 HH
-1.6713617	EH1 T HH
-2.2365196	L T HH
-2.2621365	AH0 T HH
-1.3259025	N T HH
-1.489151	AA1 T HH
-1.855364	S T HH
-1.3831413	AH1 T HH
-1.7554108	IH0 T HH
-2.7098277	ER0 T HH
-1.5560857	AW1 T HH
-1.5335872	ER1 T HH
-1.5583583	P T HH
-1.5130275	UH1 T HH
-1.8188643	AO1 T HH
-2.7624304	R T HH
-1.7106473	K T HH
-1.6036551	AE1 T HH
-1.7356406	IH1 T HH
-1.0878855	AY1 T HH
-2.473234	UW1 T HH
-2.466141	F T HH
-1.3463925	CH T HH
-1.5884241	IY1 T HH
-2.0635915	OW1 T HH
-2.49138	EY2 T HH
-2.032436	EY1 T HH
-1.6804314	SH T HH
-1.6422929	AE2 T HH
-1.0936114	UW2 T HH
-1.6951917	AA2 T HH
-1.6646893	EH1 S HH
-2.3154957	L S HH
-2.5037985	AH0 S HH
-2.614828	N S HH
-1.9057541	T S HH
-2.5232947	AH1 S HH
-1.7757887	IH0 S HH
-1.7120551	AW1 S HH
-2.8750453	ER1 S HH
-1.8278439	P S HH
-2.341028	AO1 S HH
-2.2348895	R S HH
-1.8605952	K S HH
-2.1571708	AE1 S HH
-1.7311596	IH1 S HH
-2.1348906	AY1 S HH
-2.3096457	UW1 S HH
-3.0937214	IY1 S HH
-2.906855	OW1 S HH
-2.319945	EY1 S HH
-2.0532672	OW0 S HH
-1.6965907	AW2 S HH
-1.8930144	HH AH1 HH
-3.0185926	D AH1 HH
-3.8534398	K AH1 HH
-1.8882676	EH1 M HH
-0.6400262	AH0 M HH
-2.6644413	AA1 M HH
-1.2959634	AH1 M HH
-2.1007993	R M HH
-2.752911	AE1 M HH
-1.6902652	IH1 M HH
-1.7519029	AY1 M HH
-2.4667087	UW1 M HH
-1.683465	AY2 M HH
-2.6111522	IY1 M HH
-2.2447479	OW1 M HH
-1.6844592	EY1 M HH
-2.3748782	UW2 M HH
-2.0617063	UW0 M HH
-1.0869045	EH1 TH HH
-1.8866514	AW1 TH HH
-2.2906966	ER1 TH HH
-1.4603772	AO1 TH HH
-2.3023818	R TH HH
-3.1442664	UW1 TH HH
-2.1022341	IY1 TH HH
-1.5292076	OW1 TH HH
-1.1090895	B IH0 HH
-2.7715406	AH1 NG HH
-1.4644018	IH0 NG HH
-1.7164521	AO1 NG HH
-3.197794	AE1 NG HH
-2.2480683	IH1 NG HH
-1.617201	IH2 NG HH
-1.8907534	L ER0 HH
-2.3017874	N ER0 HH
-1.7031393	T ER0 HH
-2.0718896	S ER0 HH
-1.9849808	M ER0 HH
-1.4592732	TH ER0 HH
-1.4446836	AW1 ER0 HH
-1.4912229	D ER0 HH
-1.5523077	P ER0 HH
-1.8048073	G ER0 HH
-1.7469054	R ER0 HH
-2.395096	K ER0 HH
-1.8927077	IY0 ER0 HH
-2.404707	Y ER0 HH
-1.7614434	AY1 ER0 HH
-2.171181	F ER0 HH
-2.4710274	CH ER0 HH
-1.3983033	B ER0 HH
-0.64899147	V ER0 HH
-1.6056973	DH ER0 HH
-2.279808	JH ER0 HH
-1.4963893	SH ER0 HH
-2.0106251	HH AW1 HH
-1.4426116	N AW1 HH
-2.2000263	W AW1 HH
-2.2651043	P AW1 HH
-2.609602	K AW1 HH
-1.7570866	EH1 D HH
-1.6408186	L D HH
-3.17413	AH0 D HH
-1.3086408	N D HH
-2.1410491	AH1 D HH
-2.5567656	M D HH
-1.4398831	IH0 D HH
-1.8108276	ER0 D HH
-2.6284037	AW1 D HH
-1.6784638	ER1 D HH
-2.404129	Z D HH
-2.0158432	G D HH
-1.5052338	UH1 D HH
-2.1499074	R D HH
-2.9016633	IY0 D HH
-1.8950325	AE1 D HH
-1.3984537	IH1 D HH
-2.3081002	AY1 D HH
-2.8388877	UW1 D HH
-1.637941	B D HH
-1.9447601	IY1 D HH
-1.4550623	V D HH
-1.9629824	OW1 D HH
-1.8097392	DH D HH
-1.7255123	EY1 D HH
-1.2737563	JH D HH
-1.262301	OW0 D HH
-0.7550513	EH0 D HH
-1.125571	HH ER1 HH
-1.970709	W ER1 HH
-2.4755182	SH ER1 HH
-2.201637	EH1 P HH
-1.5023313	L P HH
-1.8313652	AA1 P HH
-1.1533239	AH1 P HH
-2.9371898	M P HH
-2.222089	ER1 P HH
-1.1784273	AH2 P HH
-2.6087182	AE1 P HH
-2.0280778	IH1 P HH
-2.589814	AY1 P HH
-2.7729964	UW1 P HH
-2.095035	IY1 P HH
-2.3631148	OW1 P HH
-2.4213822	EY1 P HH
-1.8640848	OW2 P HH
-1.6997751	P AH2 HH
-1.4904813	EH1 Z HH
-1.5544422	L Z HH
-1.3406532	AH0 Z HH
-1.3664693	N Z HH
-1.2548854	AA1 Z HH
-1.4436092	T Z HH
-0.64409137	S Z HH
-1.1238989	AH1 Z HH
-1.6344857	M Z HH
-1.2918248	IH0 Z HH
-1.672335	NG Z HH
-1.4870309	ER0 Z HH
-1.2897762	AW1 Z HH
-1.449477	D Z HH
-1.3900781	P Z HH
-0.9413542	AH2 Z HH
-1.2372532	Z Z HH
-1.5324391	G Z HH
-0.9754628	AO1 Z HH
-1.700345	R Z HH
-1.492109	K Z HH
-1.1486592	IY0 Z HH
-1.1973426	AE1 Z HH
-1.2415394	IH1 Z HH
-1.2714626	AY1 Z HH
-1.617527	UW1 Z HH
-1.3104943	AY2 Z HH
-1.6379967	B Z HH
-1.4765172	IY1 Z HH
-1.5503498	OY1 Z HH
-1.4939018	V Z HH
-1.5587871	OW1 Z HH
-1.7764345	DH Z HH
-1.0352647	EY2 Z HH
-1.6754113	EY1 Z HH
-1.1578393	IH2 Z HH
-0.65959394	AA0 Z HH
-1.4372902	IY2 Z HH
-1.39506	OW0 Z HH
-0.92505753	OW2 Z HH
-1.6533227	<s> <UNK> HH
-1.6005937	L <UNK> HH
-1.8073356	AH0 <UNK> HH
-1.4739342	N <UNK> HH
-1.0855798	AA1 <UNK> HH
-1.388213	T <UNK> HH
-1.1771903	S <UNK> HH
-0.5148968	AH1 <UNK> HH
-1.2161542	M <UNK> HH
-1.6665055	ER0 <UNK> HH
-1.5973115	AW1 <UNK> HH
-1.3650705	D <UNK> HH
-1.2067465	ER1 <UNK> HH
-1.1076585	P <UNK> HH
-1.3386482	Z <UNK> HH
-1.8201977	<UNK> <UNK> HH
-1.5180598	G <UNK> HH
-1.4141313	R <UNK> HH
-1.5970128	K <UNK> HH
-1.1941088	IY0 <UNK> HH
-1.5176517	AE1 <UNK> HH
-1.6666611	AY1 <UNK> HH
-1.181055	UW1 <UNK> HH
-1.0740088	F <UNK> HH
-1.2459412	IY1 <UNK> HH
-1.3546941	V <UNK> HH
-1.5634421	OW1 <UNK> HH
-1.355854	EY1 <UNK> HH
-0.5781136	UW0 <UNK> HH
-2.230933	EH1 G HH
-2.4804525	AA1 G HH
-1.6694694	AH1 G HH
-1.729114	AO1 G HH
-2.3342545	AE1 G HH
-1.2752213	IH1 G HH
-1.7917507	AO2 G HH
-2.8139808	<s> AO1 HH
-3.0749855	HH AO1 HH
-1.7092851	S AO1 HH
-2.2881632	R AO1 HH
-1.8170396	EH1 R HH
-2.091499	AA1 R HH
-1.735208	UH1 R HH
-1.3411512	AO1 R HH
-2.3634062	IH1 R HH
-2.9046054	UW1 R HH
-1.6774311	IY1 R HH
-2.2157347	EH2 R HH
-2.9401388	EH1 K HH
-2.325009	L K HH
-3.3909378	AH0 K HH
-2.238527	AA1 K HH
-1.765878	S K HH
-2.3202672	AH1 K HH
-2.3853729	IH0 K HH
-1.6122301	NG K HH
-2.2044628	ER1 K HH
-1.6131521	UH1 K HH
-2.4674513	AO1 K HH
-2.708527	R K HH
-1.5323517	AE1 K HH
-2.0120518	IH1 K HH
-1.8572327	AY1 K HH
-2.085755	OW1 K HH
-2.0543005	EY2 K HH
-1.9012649	UH2 K HH
-1.5273664	EY1 K HH
-1.3369457	IH2 K HH
-1.6495233	AO2 K HH
-4.216935	OW2 K HH
-1.3248135	L IY0 HH
-1.6954232	N IY0 HH
-1.4553152	T IY0 HH
-1.5542645	S IY0 HH
